svm_type c_svc
kernel_type rbf
gamma 0.0555556
nr_class 3
total_sv 450
rho 0.0718056 -0.15562 -1.13082
label 2 0 1
probA -4.07722 -3.70758 -5.4522
probB -0.719705 -1.15669 -0.442886
nr_sv 181 114 155
SV
0.2357888223636854 1 1:-0.920515 2:-0.894258 3:-0.942019 4:-0.967935 5:-1 6:-1 7:-0.96958 8:-0.975811 9:-1 10:-0.200983 11:-0.405028 12:-0.30805 13:-0.00306185 14:-0.425373 15:-0.620795 16:0.171904 17:-0.184797 18:-0.297645 
0 1 1:-0.365943 2:-0.0347958 3:-0.286257 4:-0.185762 5:0.792242 6:0.657243 7:-0.450216 8:-0.109288 9:0.561104 10:0.0485556 11:0.138268 12:0.320433 13:-0.016534 14:-0.110697 15:0.233945 16:-0.0363524 17:0.193971 18:0.237687 
1 0 1:0.705879 2:0.767296 3:0.144378 4:0.703444 5:0.794657 6:0.0553228 7:0.583573 8:0.741837 9:0.836096 10:0.716042 11:0.585196 12:0.329721 13:0.725658 14:0.623134 15:0.308869 16:0.59581 17:0.838794 18:0.554604 
0 1 1:-0.276664 2:-0.415945 3:-0.677213 4:-0.263164 5:-0.258704 6:-0.585371 7:-0.302721 8:-0.247301 9:-0.242724 10:0.237861 11:0.0824022 12:-0.0975232 13:0.316595 14:0.323383 15:0.405199 16:0.28281 17:0.283093 18:0.281941 
1 1 1:-0.617151 2:-0.289493 3:-0.109681 4:-0.557687 5:0.367194 6:0.385181 7:-0.701611 8:-0.552613 9:-0.268827 10:0.294407 11:-0.21648 12:-0.363777 13:0.22474 14:-0.419154 15:-0.249235 16:0.438078 17:0.272608 18:-0.244825 
0 1 1:-0.199512 2:-0.303059 3:-0.481361 4:-0.173873 5:-0.201956 6:-0.421476 7:-0.178092 8:-0.18478 9:0.0508451 10:-0.218193 11:-0.0446927 12:0.0247678 13:-0.234538 14:-0.0485075 15:0.029052 16:-0.276648 17:-0.0353866 18:0.0149893 
1 1 1:0.054787 2:0.531561 3:0.283737 4:0.0345208 5:0.428257 6:0.0444838 7:-0.156043 8:0.163135 9:0.620937 10:0.632452 11:0.23743 12:0.122291 13:0.677893 14:0.289801 15:-0.0397554 16:0.597043 17:0.653997 18:0.240542 
0 1 1:-0.452834 2:0.131328 3:0.833066 4:-0.627893 5:-0.494651 6:-0.0587041 7:-0.675299 8:-0.704363 9:-0.716793 10:-0.0153657 11:-0.247207 12:-0.258514 13:-0.011635 14:-0.419154 15:-0.850153 16:0.0757856 17:0.256881 18:0.219129 
0 1 1:-0.531536 2:-0.10212 3:-0.265775 4:-0.350491 5:0.766233 6:0.741802 7:-0.645069 8:-0.228938 9:0.54018 10:-0.00676091 11:0.0349162 12:0.174923 13:-0.102266 14:-0.170398 15:0.203364 16:-0.038817 17:0.103539 18:0.127766 
1 1 1:-0.952081 2:-0.927501 3:-0.909977 4:-0.92548 5:-0.762481 6:-0.650113 7:-0.952442 8:-0.959904 9:-0.921424 10:0.000614628 11:-0.621508 12:-0.651703 13:-0.206369 14:-0.837065 15:-0.848624 16:0.397412 17:-0.280472 18:-0.747323 
0 1 1:-0.776411 2:-0.161421 3:-0.182571 4:-0.591518 5:0.801019 6:0.951227 7:-0.925111 8:-0.413307 9:0.596862 10:-0.309158 11:-0.234637 12:0.0433437 13:-0.401102 14:-0.30597 15:0.0978593 16:-0.138632 17:-0.239843 18:-0.0535332 
0 1 1:-0.631511 2:-0.542989 3:-0.480756 4:-0.603562 5:-0.447021 6:-0.439574 7:-0.63933 8:-0.557539 9:-0.128697 10:-0.228027 11:-0.222067 12:-0.131579 13:-0.260257 14:-0.226368 15:-0.178899 16:-0.318546 17:-0.0524246 18:-0.164882 
1 1 1:-0.598088 2:0.379628 3:0.569974 4:-0.653354 5:0.0976203 6:0.115084 7:-0.88801 8:-0.388148 9:0.453764 10:-0.246466 11:-0.374302 12:-0.176471 13:-0.238212 14:-0.476368 15:-0.501529 16:0.415896 17:-0.342071 18:-0.4404 
1 1 1:-0.66389 2:-0.697985 3:-0.645203 4:-0.64724 5:-0.651963 6:-0.591207 7:-0.646248 8:-0.648471 9:-0.433232 10:0.321451 11:-0.25838 12:-0.724458 13:0.372933 14:-0.0858209 15:-0.668196 16:0.344424 17:0.280472 18:-0.484654 
0 1 1:-0.30517 2:-0.0199554 3:-0.275089 4:-0.14212 5:0.78386 6:0.625445 7:-0.384807 8:-0.0557463 9:0.5883 10:0.0387216 11:0.191341 12:0.303406 13:-0.0177587 14:-0.0584577 15:0.252294 16:-0.0351201 17:0.19135 18:0.214847 
1 0 1:0.296438 2:0.631402 3:0.227577 4:0.276778 5:0.56507 6:0.0131906 7:0.11594 8:0.384919 9:0.751361 10:0.663184 11:0.431564 12:0.221362 13:0.714636 14:0.45398 15:0.110092 16:0.600739 17:0.771953 18:0.393291 
0 1 1:-0.712899 2:-0.148758 3:-0.212746 4:-0.526985 5:0.776296 6:0.875365 7:-0.84882 8:-0.364011 9:0.57304 10:-0.133374 11:-0.155028 12:0.0820433 13:-0.26883 14:-0.273632 15:0.12844 16:-0.0536044 17:-0.102228 18:-0.0178444 
1 1 1:-0.486722 2:0.398838 3:0.515559 4:-0.528111 5:0.155364 6:0.0814076 7:-0.756487 8:-0.285828 9:0.449644 10:0.145667 11:-0.22067 12:-0.131579 13:0.194121 14:-0.281095 15:-0.382263 16:0.637708 17:-0.0078637 18:-0.281941 
1 1 1:-0.234475 2:-0.0473032 3:-0.0288211 4:-0.211489 5:0.0310061 6:0.511834 7:-0.29446 8:-0.308098 9:-0.276845 10:0.370621 11:-0.188547 12:-0.414861 13:0.406001 14:-0.0932836 15:-0.626911 16:0.530499 17:0.622543 18:0.390435 
0 1 1:-0.778266 2:-0.48637 3:-0.459876 4:-0.753431 5:-0.404594 6:-0.368143 7:-0.83978 8:-0.531667 9:0.142171 10:-0.153042 11:-0.301676 12:-0.23065 13:-0.146356 14:-0.264925 15:-0.238532 16:-0.0486753 17:-0.230668 18:-0.261956 
1 1 1:-0.540553 2:0.561396 3:0.593151 4:-0.631083 5:-0.232003 6:0.0884358 7:-0.759181 8:-0.530985 9:-0.0624951 10:-0.0325753 11:-0.553073 12:0.0619195 13:-0.039804 14:-0.337065 15:-0.380734 16:0.190388 17:-0.0655308 18:-0.203426 
1 1 1:-0.173571 2:0.462336 3:0.388059 4:-0.206518 5:0.318388 6:0.0793446 7:-0.397149 8:-0.0114932 9:0.542761 10:0.557468 11:0.104749 12:0.0139319 13:0.603184 14:0.0858209 15:-0.185015 16:0.619224 17:0.457405 18:0.0663812 
0 1 1:-0.738497 2:-0.848772 3:-0.911784 4:-0.734362 5:-0.812238 6:-0.888647 7:-0.728267 8:-0.75518 9:-0.813303 10:0.159189 11:-0.0027933 12:-0.45356 13:0.216167 14:0.154229 15:-0.0963303 16:0.200246 17:0.117955 18:0.0107066 
1 1 1:-0.0778222 2:0.492749 3:0.312274 4:-0.104691 5:0.36395 6:0.0509762 7:-0.288632 8:0.074173 9:0.587246 10:0.585741 11:0.139665 12:0.0665635 13:0.665646 14:0.182836 15:-0.100917 16:0.624153 17:0.635649 18:0.159172 
1 1 1:-0.707462 2:-0.737216 3:-0.752138 4:-0.709644 5:-0.717747 6:-0.796855 7:-0.724694 8:-0.733083 9:-0.741392 10:0.134604 11:-0.259777 12:-0.639319 13:0.322719 14:-0.121891 15:-0.637615 16:0.265558 17:0.29751 18:-0.0235546 
1 1 1:-0.372234 2:0.407637 3:0.470909 4:-0.418763 5:0.20615 6:0.0540703 7:-0.633741 8:-0.197571 9:0.487982 10:0.336202 11:-0.0907821 12:-0.0541796 13:0.414574 14:-0.135572 15:-0.285933 16:0.640173 17:0.209699 18:-0.149179 
0 1 1:0.0390539 2:0.276917 3:-0.0528326 4:0.0224308 5:0.199199 6:0.305698 7:-0.0465337 8:-0.0657215 9:-0.134392 10:0.414874 11:0.0195531 12:-0.0510836 13:0.316595 14:0.0970149 15:-0.43578 16:0.226124 17:0.558322 18:0.45182 
1 0 1:0.205843 2:-0.259832 3:-0.825854 4:0.268219 5:-0.0091377 6:-0.651889 7:0.274049 8:0.178976 9:-0.129294 10:0.523049 11:0.567039 12:0.713622 13:0.530925 14:0.597015 15:0.807339 16:0.510783 17:0.516383 18:0.546039 
0 1 1:0.0163801 2:0.685067 3:0.370313 4:-0.0815126 5:0.0737947 6:-0.010864 7:-0.159237 8:-0.0351429 9:0.126232 10:0.298095 11:-0.26257 12:0.21517 13:0.234538 14:0.179104 15:-0.0840979 16:0.200246 17:0.386632 18:0.237687 
0 1 1:-0.340903 2:-0.275091 3:-0.489571 4:-0.308395 5:-0.125799 6:-0.357124 7:-0.373114 8:-0.159499 9:0.308547 10:0.0719115 11:0.168994 12:0.133127 13:0.0985915 14:0.159204 15:0.0902141 16:0.0659273 17:0.182176 18:0.0778016 
1 1 1:-0.209446 2:0.642847 3:0.418146 4:-0.303276 5:-0.0554396 6:0.0238559 7:-0.391404 8:-0.23841 9:0.067136 10:0.226798 11:-0.381285 12:0.151703 13:0.216167 14:0.0534826 15:-0.178899 16:0.199014 17:0.34076 18:0.100642 
1 1 1:-0.829504 2:-0.275163 3:0.199913 4:-0.806497 5:-0.248778 6:0.841436 7:-0.926994 8:-0.85812 9:-0.586655 10:-0.508297 11:-0.840782 12:-0.708978 13:-0.453766 14:-0.736318 15:-0.833333 16:0.365373 17:-0.165138 18:-0.528908 
1 0 1:0.38671 2:0.278636 3:-0.0934606 4:0.417247 5:0.394558 6:0.36969 7:0.363384 8:0.21868 9:0.0720586 10:0.530424 11:0.244413 12:-0.185759 13:0.528475 14:0.312189 15:-0.385321 16:0.540357 17:0.706422 18:0.708779 
0 1 1:-0.611986 2:-0.532272 3:-0.481469 4:-0.584992 5:-0.44104 6:-0.452733 7:-0.616101 8:-0.551715 9:-0.116138 10:-0.24032 11:-0.208101 12:-0.165635 13:-0.246785 14:-0.212687 15:-0.180428 16:-0.327172 17:-0.0458716 18:-0.154889 
1 0.1473438156348408 1:-0.124244 2:-0.0836747 3:-0.367673 4:-0.215623 5:-0.253002 6:-0.635156 7:-0.238612 8:-0.045366 9:-0.0272629 10:0.314075 11:0.136872 12:-0.0650155 13:0.412125 14:0.523632 15:0.626911 16:0.367837 17:0.363041 18:0.309065 
0 1 1:0.135301 2:0.724658 3:0.343359 4:0.0614963 5:0.148296 6:0.0200026 7:0.00897368 8:0.100856 9:0.154731 10:0.288261 11:-0.180168 12:0.233746 13:0.256583 14:0.25 15:-0.0168196 16:0.185459 17:0.487549 18:0.314775 
1 1 1:-0.304542 2:0.139907 3:-0.0420735 4:-0.323044 5:-0.0245474 6:0.307144 7:-0.416775 8:-0.396885 9:-0.300884 10:0.35587 11:-0.210894 12:-0.131579 13:0.283527 14:-0.160448 15:-0.590214 16:0.211337 17:0.449541 18:0.260528 
0 1 1:-0.638075 2:-0.738911 3:-0.755877 4:-0.617046 5:-0.666054 6:-0.674405 7:-0.619817 8:-0.639422 9:-0.614596 10:-0.314075 11:-0.318436 12:-0.413313 13:-0.334966 14:-0.303483 15:-0.344037 16:-0.354282 17:-0.38401 18:-0.450393 
1 1 1:-0.542254 2:0.0430256 3:-0.0478797 4:-0.566528 5:-0.160047 6:0.313771 7:-0.671023 8:-0.608703 9:-0.43188 10:0.278427 11:-0.421788 12:-0.241486 13:0.187998 14:-0.383085 15:-0.689602 16:0.221195 17:0.36173 18:-0.0192719 
0 1 1:-0.305248 2:-0.22198 3:-0.267665 4:-0.210138 5:0.360846 6:0.179355 7:-0.40579 8:-0.372906 9:-0.354214 10:0.261217 11:-0.0153631 12:-0.286378 13:0.173301 14:-0.0708955 15:-0.276758 16:0.260628 17:0.376147 18:0.313348 
1 0 1:0.437673 2:0.120398 3:-0.442183 4:0.414888 5:0.0774304 6:-0.637404 7:0.433045 8:0.323239 9:-0.0258188 10:0.589428 11:0.622905 12:0.363777 13:0.610533 14:0.63806 15:0.558104 16:0.539125 17:0.577982 18:0.643112 
0 1 1:-0.519567 2:-0.714026 3:-0.886988 4:-0.515867 5:-0.653139 6:-0.852029 7:-0.498863 8:-0.549349 9:-0.660828 10:0.226798 11:0.138268 12:-0.173375 13:0.255358 14:0.319652 15:0.204893 16:0.242144 17:0.229358 18:0.246253 
1 1 1:-0.405252 2:-0.183374 3:-0.113309 4:-0.34888 5:0.472869 6:0.381449 7:-0.478154 8:-0.375626 9:-0.163135 10:0.445605 11:0.0181564 12:-0.297214 13:0.401102 14:-0.274876 15:-0.154434 16:0.443007 17:0.486239 18:-0.0221271 
1 1 1:-0.33951 2:-0.0963876 3:-0.0103285 4:-0.319146 5:-0.013602 6:0.583984 7:-0.406448 8:-0.422875 9:-0.338878 10:0.325138 11:-0.265363 12:-0.478328 13:0.36681 14:-0.208955 15:-0.659021 16:0.529267 17:0.661861 18:0.263383 
1 1 1:-0.423957 2:0.570603 3:0.521187 4:-0.510988 5:-0.178725 6:0.0620925 7:-0.628546 8:-0.424794 9:-0.0333422 10:0.0977259 11:-0.481844 12:0.117647 13:0.103491 14:-0.177861 15:-0.331804 16:0.210105 17:0.112713 18:-0.144897 
0 1 1:-0.69687 2:-0.583213 3:-0.480741 4:-0.669209 5:-0.487287 6:-0.443208 7:-0.713399 8:-0.619585 9:-0.159752 10:-0.24032 11:-0.25 12:-0.159443 13:-0.261482 14:-0.268657 15:-0.220183 16:-0.330869 17:-0.0878113 18:-0.179158 
0 1 1:-0.55769 2:-0.500167 3:-0.493294 4:-0.543571 5:-0.423341 6:-0.448331 7:-0.570215 8:-0.498742 9:-0.112512 10:-0.232944 11:-0.160615 12:-0.119195 13:-0.241886 14:-0.190299 15:-0.174312 16:-0.303758 17:-0.0498034 18:-0.114918 
0 1 1:-0.313139 2:-0.58313 3:-0.85461 4:-0.295752 5:-0.498844 6:-0.810236 7:-0.281343 8:-0.342358 9:-0.514835 10:0.268593 11:0.284916 12:-0.0371517 13:0.273729 14:0.405473 15:0.383792 16:0.285274 17:0.256881 18:0.314775 
1 0 1:0.330646 2:0.251487 3:-0.102495 4:0.368806 5:0.364674 6:0.411553 7:0.319803 8:0.203406 9:0.038849 10:0.5378 11:0.194134 12:-0.184211 13:0.544397 14:0.283582 15:-0.448012 16:0.558842 17:0.642202 18:0.831549 
0 1 1:-0.387724 2:-0.299111 3:-0.478145 4:-0.353364 5:-0.163365 6:-0.371207 7:-0.417085 8:-0.194762 9:0.242702 10:0.0755993 11:0.120112 12:0.0959752 13:0.0863442 14:0.123134 15:0.0978593 16:0.047443 17:0.218873 18:0.0235546 
0 1 1:-0.771157 2:-0.487618 3:-0.46293 4:-0.749098 5:-0.399853 6:-0.382537 7:-0.833605 8:-0.519503 9:0.128428 10:-0.151813 11:-0.290503 12:-0.195046 13:-0.13166 14:-0.262438 15:-0.221713 16:-0.0523722 17:-0.229358 18:-0.294789 
1 0 1:0.695874 2:0.0779434 3:-0.683931 4:0.717674 5:0.318257 6:-0.449016 7:0.770913 8:0.545531 9:0.0576313 10:0.704978 11:0.877095 12:1 13:0.710961 14:0.579602 15:0.304281 16:0.663586 17:0.665793 18:0.850107 
0 0.9458776263782971 1:-0.115681 2:-0.161716 3:-0.487041 4:-0.0960873 5:0.02321 6:-0.348749 7:-0.135207 8:0.0171336 9:0.367244 10:0.112477 11:0.27514 12:0.331269 13:0.139008 14:0.282338 15:0.243119 16:0.0757856 17:0.280472 18:0.240542 
1 1 1:-0.527909 2:-0.618244 3:-0.635887 4:-0.503408 5:-0.555516 6:-0.580879 7:-0.497338 8:-0.523933 9:-0.358983 10:0.413645 11:-0.051676 12:-0.605263 13:0.388855 14:0.0982587 15:-0.579511 16:0.424522 17:0.397117 18:-0.271949 
1 1 1:-0.236123 2:0.182596 3:-0.0249 4:-0.246093 5:0.0330947 6:0.270086 7:-0.337525 8:-0.312292 9:-0.28942 10:0.360787 11:-0.174581 12:-0.130031 13:0.310472 14:-0.0995025 15:-0.550459 16:0.212569 17:0.496723 18:0.296217 
1 1 1:-0.451414 2:-0.137525 3:0.0301105 4:-0.430283 5:-0.062221 6:0.625276 7:-0.52524 8:-0.517687 9:-0.41196 10:0.252612 11:-0.388268 12:-0.506192 13:0.265156 14:-0.31592 15:-0.681957 16:0.539125 17:0.517693 18:0.132049 
0 1 1:-0.15694 2:-0.188604 3:-0.485692 4:-0.125992 5:-0.0221888 6:-0.338834 7:-0.177962 8:0.00402786 9:0.347103 10:0.10756 11:0.276536 12:0.295666 13:0.121862 14:0.24005 15:0.253823 16:0.0720887 17:0.25426 18:0.239115 
0 1 1:-0.24121 2:-0.235438 3:-0.493621 4:-0.213662 5:-0.0662338 6:-0.35162 7:-0.26247 8:-0.0643041 9:0.304381 10:0.079287 11:0.219274 12:0.227554 13:0.120637 14:0.251244 15:0.148318 16:0.0412816 17:0.231979 18:0.132049 
0 1 1:-0.677781 2:-0.446335 3:-0.472856 4:-0.650276 5:-0.344366 6:-0.370682 7:-0.73006 8:-0.436244 9:0.145611 10:-0.0424093 11:-0.146648 12:-0.157895 13:-0.0226577 14:-0.135572 15:-0.16055 16:-0.00184843 17:-0.0838794 18:-0.17773 
0 1 1:-0.253689 2:-0.344189 3:-0.453307 4:-0.233265 5:-0.242059 6:-0.412957 7:-0.2358 8:-0.214262 9:0.0158355 10:-0.218193 11:-0.0502793 12:-0.0619195 13:-0.239437 14:-0.028607 15:-0.0443425 16:-0.286506 17:-0.0576671 18:0.0463954 
1 1 1:-0.759373 2:0.622081 3:0.158098 4:-0.769599 5:-0.0405359 6:0.167417 7:-0.923215 8:-0.597278 9:0.133402 10:-0.0940381 11:-0.655028 12:-0.0278638 13:-0.136558 14:-0.256219 15:-0.157492 16:0.322243 17:0.0209699 18:-0.0449679 
0 1 1:-0.443203 2:-0.667451 3:-0.877246 4:-0.443229 5:-0.597379 6:-0.834005 7:-0.415794 8:-0.482178 9:-0.626864 10:0.246466 11:0.21648 12:-0.130031 13:0.287201 14:0.344527 15:0.266055 16:0.238447 17:0.238532 18:0.273376 
1 0 1:0.00426769 2:-0.0204691 3:-0.408094 4:-0.0626614 5:-0.145316 6:-0.611248 7:-0.0869769 8:0.0460233 9:0.0502031 10:0.384143 11:0.243017 12:0.0712074 13:0.426822 14:0.5199 15:0.659021 16:0.392483 17:0.435125 18:0.351892 
1 1 1:-0.972441 2:-0.851706 3:-0.617227 4:-0.953822 5:-0.847451 6:-0.572217 7:-0.968433 8:-0.923169 9:-0.562174 10:-0.408728 11:-1 12:-0.979876 13:-0.342315 14:-0.829602 15:-0.958716 16:0.106593 17:-0.741809 18:-0.991435 
1 1 1:-0.115335 2:-0.0283382 3:-0.120145 4:-0.0701953 5:0.611753 6:0.302971 7:-0.174916 8:-0.0914333 9:-0.000839999 10:0.534112 11:0.27514 12:-0.184211 13:0.48316 14:-0.0982587 15:-0.0275229 16:0.433148 17:0.652687 18:0.244825 
0 1 1:-0.292274 2:-0.242102 3:-0.489211 4:-0.256847 5:-0.0897356 6:-0.336117 7:-0.312159 8:-0.121353 9:0.291049 10:0.0928089 11:0.185754 12:0.173375 13:0.107165 14:0.185323 15:0.149847 16:0.0523722 17:0.182176 18:0.0706638 
1 1 1:-0.266371 2:-0.158633 3:-0.33536 4:-0.352598 5:-0.330486 6:-0.662989 7:-0.389717 8:-0.199435 9:-0.127514 10:0.231715 11:0.0181564 12:-0.102167 13:0.376607 14:0.472637 15:0.45107 16:0.357979 17:0.323722 18:0.32334 
1 0 1:0.556692 2:0.710856 3:0.136571 4:0.540468 5:0.700654 6:0.00132138 7:0.400321 8:0.602944 9:0.739147 10:0.671789 11:0.548883 12:0.317337 13:0.676669 14:0.594527 15:0.201835 16:0.605669 17:0.78637 18:0.534618 
0 1 1:-0.195995 2:-0.214012 3:-0.505611 4:-0.168959 5:-0.044426 6:-0.348235 7:-0.218787 8:-0.0473486 9:0.334572 10:0.108789 11:0.259777 12:0.233746 13:0.126761 14:0.25995 15:0.237003 16:0.0659273 17:0.313237 18:0.233405 
1 1 1:-0.305025 2:-0.135536 3:-0.132221 4:-0.254067 5:0.484435 6:0.370453 7:-0.378288 8:-0.272237 9:-0.124834 10:0.484942 11:0.0824022 12:-0.289474 13:0.435395 14:-0.210199 15:-0.166667 16:0.451633 17:0.533421 18:0.0963597 
1 1 1:0.0161081 2:0.526262 3:0.299665 4:-0.00281702 5:0.416042 6:0.0560295 7:-0.180406 8:0.162194 9:0.622054 10:0.63614 11:0.280726 12:0.0882353 13:0.66932 14:0.289801 15:-0.087156 16:0.625385 17:0.664482 18:0.174875 
1 0 1:0.274159 2:0.190988 3:-0.10885 4:0.300466 5:0.33654 6:0.461788 7:0.263133 8:0.156037 9:-0.0145584 10:0.519361 11:0.178771 12:-0.187307 13:0.507655 14:0.245025 15:-0.463303 16:0.550216 17:0.676278 18:0.724483 
0 1 1:-0.124398 2:-0.148758 3:-0.328478 4:-0.0338623 5:0.413709 6:0.138882 7:-0.212208 8:-0.209854 9:-0.214734 10:0.321451 11:0.122905 12:-0.187307 13:0.266381 14:0.0820896 15:-0.203364 16:0.279113 17:0.420708 18:0.286224 
0 1 1:-0.426573 2:-0.32938 3:-0.497097 4:-0.398452 5:-0.181826 6:-0.353328 7:-0.468042 8:-0.237317 9:0.27149 10:0.0485556 11:0.0865922 12:0.0510836 13:0.0875689 14:0.11194 15:0.0626911 16:0.0326556 17:0.183486 18:0.0335475 
0 1 1:-0.624671 2:-0.417002 3:-0.475403 4:-0.599563 5:-0.307872 6:-0.372921 7:-0.674832 8:-0.405174 9:0.171538 10:-0.0153657 11:-0.099162 12:-0.0619195 13:0.00918555 14:-0.0621891 15:-0.114679 16:0.0141713 17:-0.0144168 18:-0.154889 
0 1 1:-0.972275 2:-0.985697 3:-0.940686 4:-0.972026 5:-0.976772 6:-0.937262 7:-0.971602 8:-0.974218 9:-0.958546 10:-0.333743 11:-0.722067 12:-0.80805 13:-0.077771 14:-0.568408 15:-0.614679 16:0.0326556 17:-0.515072 18:-0.668808 
1 0 1:0.227053 2:0.138069 3:-0.127151 4:0.261461 5:0.753245 6:0.314792 7:0.189927 8:0.199075 9:0.208423 10:0.568531 11:0.52095 12:-0.0835913 13:0.528475 14:0.0858209 15:0.0458716 16:0.497227 17:0.706422 18:0.500357 
0 1 1:-0.251869 2:0.00529654 3:-0.295178 4:-0.0836553 5:0.798732 6:0.629728 7:-0.320729 8:-0.0248129 9:0.57761 10:0.0608482 11:0.201117 12:0.334365 13:0.0140845 14:-0.0261194 15:0.262997 16:-0.0277264 17:0.222805 18:0.260528 
1 0 1:0.177252 2:0.163884 3:-0.0773348 4:0.200243 5:0.26845 6:0.41159 7:0.153149 8:0.0755345 9:-0.0447096 10:0.50338 11:0.170391 12:-0.227554 13:0.500306 14:0.186567 15:-0.45107 16:0.563771 17:0.636959 18:0.648822 
0 1 1:-0.202374 2:0.0095752 3:-0.327306 4:-0.0159222 5:0.804169 6:0.532197 7:-0.263141 8:0.0266878 9:0.569574 10:0.0497849 11:0.201117 12:0.386997 13:0.00796081 14:-0.0136816 15:0.255352 16:-0.0375847 17:0.260813 18:0.244825 
0 1 1:-0.692026 2:-0.369148 3:-0.106941 4:-0.571557 5:0.284794 6:0.400115 7:-0.841362 8:-0.744504 9:-0.523555 10:-0.135833 11:-0.448324 12:-0.5387 13:-0.36436 14:-0.460199 15:-0.474006 16:0.147258 17:-0.0707733 18:-0.186296 
1 0 1:0.382333 2:0.218926 3:-0.102223 4:0.416328 5:0.871296 6:0.27844 7:0.34658 8:0.337751 9:0.286859 10:0.577136 11:0.572626 12:-0.0448916 13:0.555419 14:0.150498 15:0.12844 16:0.491066 17:0.769332 18:0.420414 
1 0 1:0.145854 2:0.113807 3:-0.112103 4:0.176989 5:0.716464 6:0.345107 7:0.0953228 8:0.124991 9:0.112154 10:0.55378 11:0.477654 12:-0.119195 13:0.561543 14:0.0422886 15:0.0137615 16:0.484904 17:0.642202 18:0.396146 
0.9014956144379251 1 1:-0.893099 2:-0.943759 3:-0.930843 4:-0.891736 5:-0.916852 6:-0.924922 7:-0.889751 8:-0.899615 9:-0.914344 10:0.00553165 11:-0.363128 12:-0.681115 13:0.15493 14:-0.180348 15:-0.388379 16:0.157116 17:-0.0838794 18:-0.31763 
1 0 1:0.787835 2:0.788359 3:0.135968 4:0.778147 5:0.829935 6:-0.0233879 7:0.653069 8:0.816438 9:0.798221 10:0.711125 11:0.632682 12:0.376161 13:0.73913 14:0.645522 15:0.431193 16:0.605669 17:0.859764 18:0.556031 
0 1 1:-0.813588 2:-0.890377 3:-0.921776 4:-0.812098 5:-0.866907 6:-0.907442 7:-0.807633 8:-0.826588 9:-0.857393 10:0.117394 11:-0.171788 12:-0.532508 13:0.173301 14:0.0534826 15:-0.201835 16:0.169439 17:0.0733945 18:-0.134904 
0 1 1:-0.417714 2:-0.0679867 3:-0.297831 4:-0.249666 5:0.77594 6:0.664277 7:-0.51121 8:-0.149156 9:0.568983 10:0.031346 11:0.0935754 12:0.266254 13:-0.0434783 14:-0.125622 15:0.203364 16:-0.0462107 17:0.205767 18:0.150607 
0 1 1:-0.0824445 2:0.0585811 3:-0.33542 4:0.0832449 5:0.840902 6:0.538224 7:-0.160194 8:0.119948 9:0.5985 10:0.0682237 11:0.305866 12:0.441176 13:0.0140845 14:0.0385572 15:0.282875 16:-0.0191004 17:0.249017 18:0.266238 
0 1 1:-0.831105 2:-0.509884 3:-0.456542 4:-0.806869 5:-0.437601 6:-0.381536 7:-0.896889 8:-0.575787 9:0.12747 10:-0.28949 11:-0.399441 12:-0.250774 13:-0.2921 14:-0.359453 15:-0.282875 16:-0.104128 17:-0.352556 18:-0.363312 
1 1 1:-0.379319 2:-0.165174 3:-0.138966 4:-0.331066 5:0.462861 6:0.401008 7:-0.465584 8:-0.334031 9:-0.150358 10:0.465274 11:0.0251397 12:-0.267802 13:0.430496 14:-0.248756 15:-0.192661 16:0.443007 17:0.508519 18:0.00785153 
1 1 1:-0.216625 2:-0.243133 3:-0.400371 4:-0.288496 5:-0.435709 6:-0.712305 7:-0.298152 8:-0.313161 9:-0.423433 10:0.444376 11:0.24581 12:-0.162539 13:0.484385 14:0.391791 15:-0.123853 16:0.465188 17:0.470511 18:0.299072 
0 1 1:-0.374414 2:-0.404319 3:-0.487292 4:-0.350433 5:-0.311203 6:-0.434933 7:-0.362238 8:-0.336329 9:-0.017776 10:-0.231715 11:-0.0726257 12:-0.0433437 13:-0.24801 14:-0.0833333 15:-0.0917431 16:-0.288971 17:-0.0799476 18:-0.0235546 
1 1 1:-0.313468 2:0.611142 3:0.470831 4:-0.398719 5:-0.118074 6:0.0515945 7:-0.502796 8:-0.309346 9:-0.00621255 10:0.160418 11:-0.406425 12:0.147059 13:0.17575 14:-0.0820896 15:-0.272171 16:0.199014 17:0.263434 18:0.0435403 
0 1 1:-0.577995 2:-0.385312 3:-0.474037 4:-0.547825 5:-0.287422 6:-0.362025 7:-0.619651 8:-0.366152 9:0.197541 10:-0.00676091 11:-0.0656425 12:-0.00928793 13:0.0593999 14:0.00995025 15:-0.0474006 16:0.0252619 17:0.0314548 18:-0.116345 
1 0 1:0.364532 2:0.221828 3:-0.115572 4:0.400128 5:0.830458 6:0.309842 7:0.329861 8:0.333369 9:0.238205 10:0.577136 11:0.534916 12:-0.0448916 13:0.528475 14:0.165423 15:0.100917 16:0.494763 17:0.715596 18:0.541756 
0 1 1:-0.127427 2:0.213362 3:-0.0328036 4:-0.157793 5:0.0846573 6:0.302999 7:-0.248319 8:-0.225217 9:-0.187578 10:0.346036 11:-0.108939 12:-0.100619 13:0.299449 14:-0.0410448 15:-0.535168 16:0.235983 17:0.53211 18:0.393291 
0 1 1:-0.928549 2:-0.692242 3:-0.481231 4:-0.900555 5:-0.619227 6:-0.445027 7:-0.957603 8:-0.824483 9:-0.233198 10:-0.395206 11:-0.536313 12:-0.267802 13:-0.441519 14:-0.527363 15:-0.347095 16:-0.280345 17:-0.31848 18:-0.386153 
1 1 1:-0.788421 2:-0.092888 3:-0.0461794 4:-0.823162 5:-0.32276 6:0.335372 7:-0.937926 8:-0.83636 9:-0.582077 10:-0.334972 11:-0.727654 12:-0.386997 13:-0.426822 14:-0.733831 15:-0.816514 16:0.338262 17:-0.288336 18:-0.52748 
1 1 1:-0.957746 2:-0.953452 3:-0.986666 4:-0.923066 5:-0.820807 6:-0.848 7:-0.959379 8:-0.920612 9:-0.868842 10:-0.210817 11:-0.565642 12:-0.413313 13:-0.246785 14:-0.5199 15:-0.506116 16:0.186691 17:-0.407602 18:-0.431834 
1 0 1:0.371588 2:0.642818 3:0.235926 4:0.361378 5:0.617661 6:0.0186169 7:0.217568 8:0.49513 9:0.734004 10:0.679164 11:0.511173 12:0.204334 13:0.725658 14:0.514925 15:0.186544 16:0.626617 17:0.743119 18:0.410421 
1 1 1:-0.318142 2:-0.0846692 3:0.00569373 4:-0.289986 5:0.0205483 6:0.515132 7:-0.384857 8:-0.389437 9:-0.299409 10:0.357099 11:-0.23743 12:-0.455108 13:0.354562 14:-0.18408 15:-0.634557 16:0.537893 17:0.571429 18:0.367595 
1 0 1:0.0836822 2:0.109926 3:-0.104448 4:0.104635 5:0.207288 6:0.461808 7:0.0336236 8:-0.026813 9:-0.10589 10:0.475108 11:0.0530726 12:-0.28483 13:0.497857 14:0.123134 15:-0.512232 16:0.55268 17:0.653997 18:0.561742 
0.3618680291658825 1 1:-0.547161 2:-0.245432 3:-0.247254 4:-0.663739 5:-0.517164 6:-0.688894 7:-0.71889 8:-0.422831 9:-0.206982 10:-0.0350338 11:-0.261173 12:-0.280186 13:0.212492 14:0.108209 15:0.103976 16:0.23475 17:0.00262123 18:-0.0235546 
0 1 1:-0.217436 2:-0.33142 3:-0.46526 4:-0.203341 5:-0.212268 6:-0.440828 7:-0.207299 8:-0.205072 9:-0.00475557 10:-0.213276 11:-0.0125698 12:0.00928793 13:-0.229639 14:-0.0485075 15:-0.00611621 16:-0.281577 17:-0.0747051 18:0.0335475 
1 1 1:-0.662099 2:-0.0297416 3:-0.0421269 4:-0.686057 5:-0.235386 6:0.321338 7:-0.798885 8:-0.720125 9:-0.516378 10:0.117394 11:-0.548883 12:-0.298762 13:0.0177587 14:-0.527363 15:-0.74159 16:0.243376 17:0.208388 18:-0.219129 
1 1 1:-0.725056 2:-0.345992 3:-0.104569 4:-0.66485 5:0.302598 6:0.400893 7:-0.820103 8:-0.647173 9:-0.333526 10:0.102643 11:-0.385475 12:-0.447368 13:0.00673607 14:-0.508706 15:-0.302752 16:0.418361 17:-0.00393185 18:-0.339044 
0 1 1:-0.401031 2:-0.0698788 3:-0.299568 4:-0.227762 5:0.762553 6:0.671544 7:-0.493418 8:-0.13548 9:0.511241 10:0.0522434 11:0.106145 12:0.270898 13:-0.0410288 14:-0.118159 15:0.212538 16:-0.0412816 17:0.150721 18:0.201999 
1 1 1:-0.981286 2:-0.984565 3:-0.885025 4:-0.961731 5:-0.950104 6:-0.839088 7:-0.973034 8:-0.954459 9:-0.90053 10:-0.0903503 11:-0.627095 12:-0.883901 13:0.0251072 14:-0.373134 15:-0.643731 16:0.252002 17:-0.478375 18:-0.717345 
1 1 1:-0.611233 2:-0.349612 3:-0.149413 4:-0.496791 5:0.272595 6:0.346626 7:-0.747919 8:-0.665607 9:-0.482524 10:0.0399508 11:-0.340782 12:-0.482972 13:-0.181874 14:-0.358209 15:-0.434251 16:0.202711 17:0.0891219 18:-0.0107066 
0 1 1:-0.6532 2:-0.149067 3:-0.237388 4:-0.464033 5:0.774105 6:0.814842 7:-0.773714 8:-0.323226 9:0.545823 10:-0.0534726 11:-0.051676 12:0.140867 13:-0.196571 14:-0.2301 15:0.137615 16:-0.0585336 17:-0.0078637 18:0.0235546 
1 1 1:-0.106086 2:-0.224475 3:-0.601368 4:-0.141463 5:-0.336279 6:-0.736091 7:-0.149459 8:-0.1745 9:-0.275879 10:0.47142 11:0.342179 12:0.0510836 13:0.461115 14:0.557214 15:0.238532 16:0.408503 17:0.551769 18:0.553176 
1 0 1:0.299359 2:0.165221 3:-0.0794421 4:0.342713 5:0.82154 6:0.273671 7:0.271729 8:0.287756 9:0.191508 10:0.567302 11:0.537709 12:-0.0882353 13:0.562768 14:0.113184 15:0.110092 16:0.513247 17:0.706422 18:0.473233 
0 1 1:-0.777155 2:-0.39155 3:-0.0434455 4:-0.645139 5:0.30504 6:0.487088 7:-0.939058 8:-0.823673 9:-0.548294 10:-0.452981 11:-0.597765 12:-0.589783 13:-0.642376 14:-0.577114 15:-0.542813 16:-0.00924214 17:-0.368283 18:-0.367595 
1 1 1:-0.272087 2:0.457577 3:0.388604 4:-0.317172 5:0.244743 6:0.0776139 7:-0.515522 8:-0.11605 9:0.542966 10:0.457898 11:-0.00837989 12:-0.00773994 13:0.543172 14:-0.0373134 15:-0.246177 16:0.691929 17:0.411533 18:-0.0549607 
1 0 1:0.205677 2:0.588012 3:0.258107 4:0.185389 5:0.513472 6:0.0727671 7:0.0235091 8:0.307262 9:0.660897 10:0.650891 11:0.370112 12:0.154799 13:0.71586 14:0.435323 15:0.0275229 16:0.621688 17:0.728702 18:0.351892 
0 1 1:-0.473904 2:-0.463886 3:-0.467697 4:-0.457038 5:-0.356208 6:-0.445578 7:-0.468081 8:-0.435926 9:-0.0502133 10:-0.230486 11:-0.145251 12:-0.0990712 13:-0.238212 14:-0.14801 15:-0.119266 16:-0.304991 17:-0.0550459 18:-0.0663812 
0 1 1:-0.323999 2:-0.381911 3:-0.488687 4:-0.28994 5:-0.276775 6:-0.426504 7:-0.298238 8:-0.281938 9:-0.0453812 10:-0.216964 11:-0.0377095 12:0.0371517 13:-0.232088 14:-0.0472637 15:-0.0733945 16:-0.286506 17:-0.0720839 18:0.0392577 
-0 1 1:-0.594027 2:-0.750923 3:-0.891814 4:-0.590594 5:-0.705046 6:-0.860308 7:-0.574677 8:-0.618371 9:-0.711283 10:0.214505 11:0.101955 12:-0.267802 13:0.273729 14:0.252488 15:0.0963303 16:0.235983 17:0.23329 18:0.146324 
1 1 1:-0.430382 2:0.0903406 3:-0.0479429 4:-0.449549 5:-0.0905887 6:0.292443 7:-0.550623 8:-0.500587 9:-0.39742 10:0.323909 11:-0.308659 12:-0.19195 13:0.240661 14:-0.267413 15:-0.637615 16:0.210105 17:0.441678 18:0.122056 
1 1 1:-0.838481 2:-0.398453 3:-0.0880769 4:-0.774363 5:0.271349 6:0.432362 7:-0.940932 8:-0.751005 9:-0.371196 10:-0.393977 11:-0.597765 12:-0.5 13:-0.406001 14:-0.619403 15:-0.348624 16:0.318546 17:-0.414155 18:-0.533191 
1 1 1:-0.572398 2:-0.179443 3:0.0974292 4:-0.550355 5:-0.136724 6:0.683117 7:-0.648699 8:-0.630499 9:-0.445495 10:0.127228 11:-0.53352 12:-0.568111 13:0.141457 14:-0.421642 15:-0.733945 16:0.492298 17:0.461337 18:-0.00785153 
0 1 1:-0.148155 2:0.0522574 3:-0.324098 4:0.0249435 5:0.817544 6:0.559023 7:-0.210261 8:0.0866422 9:0.608524 10:0.079287 11:0.269553 12:0.399381 13:0.00673607 14:-0.00497512 15:0.292049 16:-0.0338879 17:0.2346 18:0.249108 
0 1 1:-0.77252 2:-0.749566 3:-0.850662 4:-0.777528 5:-0.719539 6:-0.763665 7:-0.805348 8:-0.77478 9:-0.753498 10:0.0153657 11:-0.234637 12:-0.148607 13:0.0410288 14:-0.222637 15:-0.41896 16:0.0770179 17:-0.0314548 18:-0.303355 
0 1 1:-0.155986 2:-0.164322 3:-0.294748 4:-0.0601992 5:0.380412 6:0.126334 7:-0.236794 8:-0.228878 9:-0.266654 10:0.331285 11:0.167598 12:-0.187307 13:0.266381 14:0.0460199 15:-0.233945 16:0.295132 17:0.360419 18:0.341899 
0 1 1:-0.663105 2:-0.802828 3:-0.911741 4:-0.66612 5:-0.74664 6:-0.878308 7:-0.651377 8:-0.691774 9:-0.753025 10:0.187462 11:0.047486 12:-0.297214 13:0.24801 14:0.241294 15:0.0137615 16:0.213802 17:0.237221 18:0.0392577 
1 0 1:0.769232 2:0.759646 3:0.162927 4:0.76528 5:0.770592 6:0.00487482 7:0.644758 8:0.803518 9:0.82035 10:0.712354 11:0.684358 12:0.320433 13:0.725658 14:0.742537 15:0.373089 16:0.620456 17:0.750983 18:0.683084 
1 1 1:-0.529201 2:-0.319307 3:-0.201136 4:-0.420112 5:0.285307 6:0.275818 7:-0.661208 8:-0.58985 9:-0.443164 10:0.122311 11:-0.236034 12:-0.436533 13:-0.0593999 14:-0.2699 15:-0.392966 16:0.235983 17:0.217562 18:0.0164168 
1 1 1:-0.599238 2:0.379406 3:0.576566 4:-0.653693 5:0.089953 6:0.126347 7:-0.888545 8:-0.386284 9:0.437316 10:-0.231715 11:-0.382682 12:-0.157895 13:-0.236987 14:-0.477612 15:-0.509174 16:0.413432 17:-0.351245 18:-0.444682 
1 1 1:-0.123274 2:0.0015185 3:-0.048248 4:-0.114534 5:0.0906464 6:0.498724 7:-0.176329 8:-0.231815 9:-0.229749 10:0.449293 11:-0.0796089 12:-0.360681 13:0.450092 14:-0.00995025 15:-0.571865 16:0.532964 17:0.633028 18:0.400428 
0 1 1:-0.885876 2:-0.524196 3:-0.440017 4:-0.862962 5:-0.466707 6:-0.380235 7:-0.954972 8:-0.616983 9:0.1219 10:-0.5378 11:-0.51257 12:-0.326625 13:-0.555419 14:-0.465174 15:-0.327217 16:-0.32101 17:-0.513761 18:-0.399001 
1 1 1:-0.69221 2:-0.230633 3:0.120093 4:-0.672488 5:-0.187239 6:0.709361 7:-0.77958 8:-0.738379 9:-0.525292 10:-0.0780578 11:-0.662011 12:-0.631579 13:-0.0312309 14:-0.559701 15:-0.779817 16:0.461491 17:0.322412 18:-0.163455 
0 1 1:-0.527581 2:-0.369462 3:-0.483035 4:-0.502308 5:-0.238342 6:-0.357351 7:-0.566831 8:-0.321853 9:0.215424 10:0.0374923 11:0.0027933 12:0.0170279 13:0.0716473 14:0.0261194 15:0.0214067 16:0.00800986 17:0.0996068 18:-0.0149893 
1 1 1:-0.332428 2:0.136626 3:-0.0523292 4:-0.344575 5:-0.040899 6:0.308365 7:-0.442094 8:-0.407792 9:-0.344895 10:0.346036 11:-0.23743 12:-0.140867 13:0.282303 14:-0.172886 15:-0.599388 16:0.202711 17:0.508519 18:0.229122 
0 1 1:-0.579661 2:-0.595678 3:-0.763094 4:-0.557467 5:-0.465724 6:-0.644572 7:-0.58468 8:-0.484288 9:-0.272304 10:-0.0301168 11:-0.0977654 12:-0.0603715 13:-0.072872 14:-0.114428 15:0.0489297 16:-0.0240296 17:-0.0262123 18:0.0306924 
0 1 1:-0.359416 2:-0.452686 3:-0.63347 4:-0.358085 5:-0.432507 6:-0.644561 7:-0.373352 8:-0.366866 9:-0.332648 10:0.0362631 11:0.0865922 12:0.0897833 13:0.0324556 14:0.0883085 15:0.0565749 16:-0.0141713 17:0.0720839 18:0.0306924 
1 0 1:0.464603 2:0.661645 3:0.182944 4:0.453079 5:0.645837 6:0.016376 7:0.316751 8:0.529332 9:0.735833 10:0.692686 11:0.526536 12:0.22291 13:0.734231 14:0.598259 15:0.195719 16:0.637708 17:0.771953 18:0.611706 
0 1 1:-0.843926 2:-0.646886 3:-0.480011 4:-0.816137 5:-0.57492 6:-0.447895 7:-0.869553 8:-0.75371 9:-0.20911 10:-0.263675 11:-0.402235 12:-0.201238 13:-0.306797 14:-0.400498 15:-0.293578 16:-0.329636 17:-0.140236 18:-0.321913 
1 1 1:-0.0297216 2:0.022026 3:-0.137145 4:0.0173933 5:0.637705 6:0.306046 7:-0.0869669 8:-0.03518 9:-0.01016 10:0.5378 11:0.360335 12:-0.176471 13:0.494182 14:-0.050995 15:-0.0244648 16:0.46642 17:0.634338 18:0.291934 
0.5470025241199334 0 1:0.461018 2:0.260299 3:-0.0976974 4:0.502369 5:0.901152 6:0.304465 7:0.442 8:0.415087 9:0.274966 10:0.58697 11:0.638268 12:-0.0294118 13:0.555419 14:0.212687 15:0.0795107 16:0.499692 17:0.732634 18:0.43469 
1 0 1:0.0538508 2:0.0411321 3:-0.100285 4:0.0968237 5:0.697737 6:0.322073 7:0.0109107 8:0.0501541 9:0.0636348 10:0.575907 11:0.368715 12:-0.173375 13:0.523576 14:-1.11022e-016 15:0.00611621 16:0.489834 17:0.627785 18:0.32334 
0 1 1:-0.473 2:-0.0751848 3:-0.268273 4:-0.300465 5:0.745976 6:0.709486 7:-0.572431 8:-0.184986 9:0.528101 10:0.0374923 11:0.100559 12:0.201238 13:-0.0655236 14:-0.134328 15:0.206422 16:-0.038817 17:0.158585 18:0.123483 
0 1 1:-0.38044 2:-0.631736 3:-0.865495 4:-0.367472 5:-0.543478 6:-0.818914 7:-0.352702 8:-0.422275 9:-0.583007 10:0.264905 11:0.195531 12:-0.109907 13:0.263931 14:0.363184 15:0.363914 16:0.253235 17:0.237221 18:0.303355 
1 1 1:-0.209225 2:-0.0891999 3:-0.0950221 4:-0.172769 5:0.560952 6:0.341924 7:-0.274554 8:-0.197214 9:-0.0715071 10:0.518132 11:0.188547 12:-0.23839 13:0.462339 14:-0.166667 15:-0.102446 16:0.447936 17:0.621232 18:0.184868 
0 1 1:-0.503181 2:-0.47461 3:-0.456619 4:-0.474738 5:-0.370008 6:-0.438586 7:-0.496663 8:-0.445761 9:-0.0789581 10:-0.224339 11:-0.129888 12:-0.167183 13:-0.243111 14:-0.131841 15:-0.0948012 16:-0.311152 17:-0.061599 18:-0.089222 
0 1 1:-0.0274648 2:0.684035 3:0.369898 4:-0.103851 5:0.0288228 6:0.0429238 7:-0.189913 8:-0.0804391 9:0.116629 10:0.274739 11:-0.27933 12:0.201238 13:0.241886 14:0.156716 15:-0.137615 16:0.18053 17:0.407602 18:0.289079 
1 0 1:0.641922 2:0.715493 3:0.179119 4:0.630966 5:0.733921 6:-0.0275506 7:0.495538 8:0.687188 9:0.828002 10:0.664413 11:0.648045 12:0.26935 13:0.735456 14:0.624378 15:0.350153 16:0.645102 17:0.841415 18:0.594575 
1 0 1:0.493971 2:0.304273 3:-0.09617 4:0.484958 5:0.468504 6:0.411218 7:0.447457 8:0.346955 9:0.144758 10:0.535341 11:0.322626 12:-0.119195 13:0.535824 14:0.380597 15:-0.350153 16:0.562539 17:0.705111 18:0.770164 
0 1 1:-0.138664 2:-0.274815 3:-0.481739 4:-0.120877 5:-0.169997 6:-0.419576 7:-0.119264 8:-0.136068 9:0.0325611 10:-0.219422 11:-0.0502793 12:0.0139319 13:-0.236987 14:-0.0572139 15:-0.0321101 16:-0.268022 17:-0.0720839 18:0.0620985 
1 1 1:-0.688123 2:-0.807448 3:-0.869572 4:-0.660731 5:-0.729702 6:-0.795921 7:-0.666615 8:-0.682602 9:-0.716061 10:0.277197 11:0.273743 12:-0.452012 13:0.254133 14:0.323383 15:-0.165138 16:0.23475 17:0.256881 18:0.00356888 
1 0.7656513516220483 1:-0.0156718 2:0.0578786 3:-0.0951005 4:-0.00318354 5:0.158803 6:0.412813 7:-0.0623171 8:-0.110693 9:-0.166606 10:0.45421 11:-0.023743 12:-0.317337 13:0.446418 14:0.0248756 15:-0.515291 16:0.560074 17:0.655308 18:0.604568 
1 1 1:-0.40354 2:-0.346871 3:-0.378447 4:-0.485048 5:-0.559045 6:-0.748636 7:-0.49892 8:-0.49247 9:-0.526638 10:0.369392 11:0.0768156 12:-0.297214 13:0.412125 14:0.266169 15:-0.362385 16:0.418361 17:0.394495 18:0.124911 
1 1 1:-0.192179 2:0.650205 3:0.453971 4:-0.276126 5:-0.0526677 6:0.0359116 7:-0.365814 8:-0.213936 9:0.0479437 10:0.220652 11:-0.384078 12:0.151703 13:0.22229 14:0.0348259 15:-0.243119 16:0.195317 17:0.34076 18:0.11349 
0 1 1:-0.439195 2:-0.434509 3:-0.483827 4:-0.415221 5:-0.347852 6:-0.442215 7:-0.428825 8:-0.400476 9:-0.0613671 10:-0.228027 11:-0.128492 12:-0.0448916 13:-0.243111 14:-0.119403 15:-0.0688073 16:-0.297597 17:-0.0458716 18:-0.0863669 
1 1 1:-0.509827 2:-0.222504 3:-0.109289 4:-0.45197 5:0.415762 6:0.414951 7:-0.58747 8:-0.456647 9:-0.211209 10:0.380455 11:-0.122905 12:-0.362229 13:0.319045 14:-0.335821 15:-0.238532 16:0.456562 17:0.393185 18:-0.117773 
0 1 1:-0.835839 2:-0.740801 3:-0.788663 4:-0.801655 5:-0.615735 6:-0.657197 7:-0.857161 8:-0.726078 9:-0.388797 10:-0.28949 11:-0.386872 12:-0.24613 13:-0.347214 14:-0.376866 15:-0.143731 16:-0.187924 17:-0.31979 18:-0.287652 
0 1 1:-0.928813 2:-0.6932 3:-0.477231 4:-0.901654 5:-0.617114 6:-0.445456 7:-0.958661 8:-0.823994 9:-0.227477 10:-0.395206 11:-0.530726 12:-0.264706 13:-0.450092 14:-0.527363 15:-0.360856 16:-0.263093 17:-0.31848 18:-0.407566 
1 1 1:-0.544532 2:-0.57505 3:-0.749836 4:-0.484613 5:-0.338192 6:-0.525421 7:-0.564014 8:-0.587089 9:-0.672872 10:0.336202 11:-0.125698 12:-0.529412 13:0.181874 14:-0.431592 15:-0.79052 16:0.38016 17:0.465269 18:0.277659 
1 0.4855625500042496 1:0.108478 2:0.540321 3:0.304098 4:0.0863068 5:0.46563 6:0.0480078 7:-0.0841093 8:0.24941 9:0.635154 10:0.642286 11:0.317039 12:0.119195 13:0.690141 14:0.333333 15:-0.029052 16:0.629082 17:0.657929 18:0.304782 
0 1 1:-0.45891 2:-0.323966 3:-0.490551 4:-0.429099 5:-0.202997 6:-0.35652 7:-0.496871 8:-0.261295 9:0.23611 10:0.0448679 11:0.0335196 12:0.0448916 13:0.0851194 14:0.0970149 15:0.058104 16:0.0400493 17:0.175623 18:-0.0449679 
1 0 1:-0.0452667 2:-0.326699 3:-0.714627 4:0.00882229 5:-0.0682339 6:-0.492769 7:-0.0373802 8:-0.117399 9:-0.347354 10:0.467732 11:0.391061 12:-0.113003 13:0.428047 14:0.0472637 15:-0.5 16:0.43931 17:0.520315 18:0.5803 
0 1 1:-0.233854 2:-0.18933 3:-0.278971 4:-0.132263 5:0.359085 6:0.14498 7:-0.325639 8:-0.303559 9:-0.282274 10:0.285802 11:0.0488827 12:-0.260062 13:0.213717 14:-0.00746269 15:-0.238532 16:0.27788 17:0.3827 18:0.310493 
1 1 1:-0.458291 2:-0.283776 3:-0.205167 4:-0.351457 5:0.310109 6:0.257379 7:-0.576389 8:-0.522381 9:-0.399014 10:0.194837 11:-0.135475 12:-0.402477 13:0.0483772 14:-0.21393 15:-0.334862 16:0.269254 17:0.293578 18:0.11349 
0 1 1:-0.766257 2:-0.606255 3:-0.474757 4:-0.743568 5:-0.533057 6:-0.436632 7:-0.789246 8:-0.682884 9:-0.184847 10:-0.247695 11:-0.331006 12:-0.20743 13:-0.260257 14:-0.329602 15:-0.261468 16:-0.333333 17:-0.123198 18:-0.254818 
1 1 1:-0.67021 2:0.527582 3:0.663679 4:-0.761887 5:-0.308665 6:0.117094 7:-0.902878 8:-0.649722 9:-0.135114 10:-0.412415 11:-0.648045 12:0.0247678 13:-0.442743 14:-0.53607 15:-0.470948 16:-0.021565 17:-0.486239 18:-0.420414 
1 0 1:0.525882 2:0.345291 3:-0.107919 4:0.563324 5:0.486143 6:0.361352 7:0.524796 8:0.410105 9:0.167604 10:0.529195 11:0.353352 12:-0.140867 13:0.518677 14:0.322139 15:-0.362385 16:0.576094 17:0.667104 18:0.72591 
0 1 1:-0.480949 2:-0.349715 3:-0.492068 4:-0.453131 5:-0.214833 6:-0.364504 7:-0.514148 8:-0.283676 9:0.215254 10:0.0534726 11:0.0349162 12:0.0665635 13:0.0753215 14:0.0584577 15:0.0168196 16:0.0154036 17:0.124509 18:-0.0335475 
0 1 1:-0.729649 2:-0.462488 3:-0.464938 4:-0.698646 5:-0.375367 6:-0.381841 7:-0.784236 8:-0.480769 9:0.158158 10:-0.0866626 11:-0.236034 12:-0.162539 13:-0.0814452 14:-0.174129 15:-0.201835 16:-0.0264941 17:-0.158585 18:-0.24197 
0 1 1:-0.627628 2:-0.655568 3:-0.829323 4:-0.628048 5:-0.612713 6:-0.733635 7:-0.647917 8:-0.626467 9:-0.646181 10:0.0878918 11:-0.023743 12:-0.0386997 13:0.118187 14:-0.00124378 15:-0.237003 16:0.0831793 17:0.119266 18:-0.0549607 
0 1 1:-0.776006 2:-0.158752 3:-0.185526 4:-0.591924 5:0.803776 6:0.949326 7:-0.925659 8:-0.416554 9:0.598301 10:-0.314075 11:-0.236034 12:0.0464396 13:-0.401102 14:-0.308458 15:0.0978593 16:-0.127542 17:-0.2346 18:-0.0735189 
0 1 1:0.0699965 2:0.677559 3:0.349792 4:-0.0230754 5:0.10024 6:-0.0119416 7:-0.0899689 8:0.00580088 9:0.174832 10:0.307929 11:-0.21648 12:0.256966 13:0.270055 14:0.197761 15:-0.0259939 16:0.186691 17:0.49017 18:0.371877 
0 1 1:-0.108494 2:0.666774 3:0.39465 4:-0.195231 5:-0.018451 6:0.0266095 7:-0.290064 8:-0.140532 9:0.0674429 10:0.274739 11:-0.314246 12:0.160991 13:0.233313 14:0.100746 15:-0.146789 16:0.189156 17:0.398427 18:0.167737 
0 1 1:-0.0528766 2:0.238989 3:-0.0660707 4:-0.0503327 5:0.11681 6:0.268236 7:-0.146054 8:-0.150125 9:-0.159099 10:0.380455 11:-0.051676 12:-0.0681115 13:0.330067 14:0.028607 15:-0.475535 16:0.229821 17:0.549148 18:0.528908 
0 0.3445230891446991 1:0.0688326 2:0.322343 3:-0.0582687 4:0.0592513 5:0.207539 6:0.26521 7:-0.0069491 8:-0.0345072 9:-0.114226 10:0.386601 11:0.0405028 12:2.22045e-016 13:0.327618 14:0.114428 15:-0.452599 16:0.243376 17:0.526868 18:0.541756 
0 1 1:-0.589915 2:-0.121088 3:-0.254093 4:-0.417015 5:0.767932 6:0.753915 7:-0.706159 8:-0.27794 9:0.564404 10:-0.0104487 11:-0.023743 12:0.148607 13:-0.134109 14:-0.186567 15:0.17737 16:-0.056069 17:0.0314548 18:0.0749465 
1 0 1:0.0684307 2:-0.337739 3:-0.846195 4:0.124466 5:-0.0887895 6:-0.675878 7:0.138005 8:0.0254569 9:-0.206547 10:0.493546 11:0.540503 12:0.687307 13:0.516228 14:0.493781 15:0.585627 16:0.481208 17:0.516383 18:0.484654 
0.2090674768241027 1 1:-0.671534 2:0.529441 3:0.669447 4:-0.761595 5:-0.305879 6:0.109236 7:-0.902322 8:-0.654135 9:-0.127358 10:-0.414874 11:-0.648045 12:0.0232198 13:-0.43662 14:-0.528607 15:-0.460245 16:-0.0326556 17:-0.469201 18:-0.420414 
0 1 1:-0.576011 2:-0.583966 3:-0.693585 4:-0.570894 5:-0.451509 6:-0.631356 7:-0.614138 8:-0.503506 9:-0.40556 10:0.0411801 11:-0.138268 12:-0.340557 13:0.20147 14:0.0870647 15:0.108563 16:0.203943 17:0.0327654 18:-0.0492505 
1 1 1:-0.322884 2:0.612327 3:0.0303675 4:-0.337065 5:0.145168 6:0.124166 7:-0.436871 8:-0.229632 9:0.18963 10:0.406269 11:-0.418994 12:0.0619195 13:0.420698 14:0.187811 15:0.0030581 16:0.417129 17:0.524246 18:0.324768 
0 1 1:-0.650285 2:-0.794454 3:-0.902081 4:-0.646106 5:-0.745332 6:-0.871807 7:-0.630649 8:-0.668705 9:-0.744413 10:0.193608 11:0.0810056 12:-0.30805 13:0.233313 14:0.218905 15:0.0764526 16:0.202711 17:0.21232 18:0.10778 
0 1 1:-0.381891 2:-0.245201 3:-0.222519 4:-0.272358 5:0.324938 6:0.215668 7:-0.487339 8:-0.458711 9:-0.386783 10:0.251383 11:-0.0837989 12:-0.374613 13:0.109614 14:-0.15796 15:-0.29052 16:0.265558 17:0.326343 18:0.217702 
0.3332135104890412 1 1:-0.480869 2:-0.699498 3:-0.950722 4:-0.457431 5:-0.614589 6:-0.876236 7:-0.4371 8:-0.509296 9:-0.61147 10:0.280885 11:0.0139665 12:-0.326625 13:0.296999 14:0.164179 15:0.0275229 16:0.269254 17:0.182176 18:-0.152034 
-1 0 1:-0.92196 2:-0.916011 3:-0.890785 4:-0.875362 5:-0.823629 6:-0.764334 7:-0.916671 8:-0.903184 9:-0.889774 10:0.395206 11:-0.420391 12:-0.631579 13:-0.0642988 14:-0.503731 15:-0.622324 16:0.855823 17:-0.154653 18:-0.404711 
-1 0 1:0.199929 2:0.0635525 3:-0.208649 4:0.300179 5:0.6556 6:0.251409 7:0.160078 8:0.130109 9:-0.000540945 10:0.866011 11:0.53352 12:-0.0944272 13:0.777097 14:0.2699 15:-0.105505 16:0.916205 17:0.836173 18:0.704497 
-1 0 1:0.0924299 2:0.529337 3:0.237029 4:0.0459358 5:0.0617484 6:-0.093617 7:-0.00708553 8:0.0601089 9:0.179472 10:0.761524 11:0.0167598 12:0.283282 13:0.712186 14:0.400498 15:-0.0336391 16:0.778189 17:0.572739 18:0.334761 
-1 0 1:-0.772123 2:-0.286406 3:0.120361 4:-0.751999 5:-0.2582 6:0.714436 7:-0.856365 8:-0.802853 9:-0.562065 10:-0.144438 11:-0.752793 12:-0.678019 13:-0.0753215 14:-0.646766 15:-0.807339 16:0.738755 17:0.0209699 18:-0.407566 
-0 1 1:-0.180198 2:0.517056 3:0.345164 4:-0.24736 5:-0.0664102 6:-0.0473998 7:-0.332441 8:-0.210428 9:0.0844955 10:0.566073 11:-0.212291 12:0.173375 13:0.639927 14:0.0995025 15:-0.171254 16:0.751078 17:0.475754 18:0.100642 
-1 1 1:-0.519164 2:0.390499 3:0.511123 4:-0.575499 5:0.104644 6:0.0774976 7:-0.795023 8:-0.307574 9:0.466843 10:-0.0350338 11:-0.322626 12:-0.120743 13:-0.00796081 14:-0.404229 15:-0.458716 16:0.629082 17:-0.222805 18:-0.38758 
-1 1 1:-0.659576 2:0.492158 3:0.632942 4:-0.74832 5:-0.310939 6:0.0917619 7:-0.884237 8:-0.636603 9:-0.119216 10:-0.347265 11:-0.620112 12:0.0340557 13:-0.343539 14:-0.511194 15:-0.469419 16:0.232286 17:-0.452163 18:-0.414704 
-1 0 1:-0.909498 2:-0.92311 3:-0.97832 4:-0.875848 5:-0.781347 6:-0.839238 7:-0.910273 8:-0.874729 9:-0.840379 10:0.311616 11:-0.324022 12:-0.335913 13:0.210043 14:-0.369403 15:-0.46789 16:0.801602 17:-0.0301442 18:-0.303355 
-1 1 1:-0.595833 2:-0.288271 3:-0.0340462 4:-0.47044 5:0.402107 6:0.465184 7:-0.744509 8:-0.660352 9:-0.43102 10:0.248924 11:-0.284916 12:-0.50774 13:-0.0630741 14:-0.379353 15:-0.460245 16:0.804067 17:0.293578 18:-0.0264097 
-0 1 1:-0.230467 2:-0.132343 3:-0.0936966 4:-0.123995 5:0.521068 6:0.381882 7:-0.352591 8:-0.321261 9:-0.235863 10:0.666872 11:0.110335 12:-0.360681 13:0.469688 14:-0.0621891 15:-0.308869 16:0.848429 17:0.770642 18:0.454675 
-1 0 1:0.207943 2:-0.272652 3:-0.779355 4:0.213956 5:-0.128003 6:-0.731086 7:0.264088 8:0.103118 9:-0.184519 10:0.968039 11:0.972067 12:0.464396 13:0.954685 14:0.958955 15:1 16:0.930992 17:0.954128 18:0.838687 
-1 1 1:-0.491574 2:-0.16454 3:-0.18422 4:-0.621135 5:-0.464313 6:-0.665746 7:-0.676483 8:-0.369926 9:-0.141368 10:0.231715 11:-0.182961 12:-0.260062 13:0.513778 14:0.109453 15:0.168196 16:0.735059 17:0.0891219 18:0.00785153 
-0 1 1:-0.473714 2:-0.479965 3:-0.534232 4:-0.441984 5:-0.364698 6:-0.490625 7:-0.463329 8:-0.413922 9:-0.0975641 10:0.744315 11:0.27933 12:0.0263158 13:0.699939 14:0.237562 15:-0.111621 16:0.788047 17:0.634338 18:0.0321199 
-0.289808912104543 1 1:-0.348705 2:0.41382 3:0.425753 4:-0.398033 5:0.17951 6:0.0187225 7:-0.592697 8:-0.168411 9:0.561468 10:0.326368 11:-0.143855 12:-0.0634675 13:0.326393 14:-0.199005 15:-0.325688 16:0.722736 17:0.0891219 18:-0.231977 
-1 0 1:-0.599196 2:-0.239519 3:0.0452937 4:-0.580046 5:-0.18767 6:0.583057 7:-0.664357 8:-0.640627 9:-0.465676 10:0.312846 11:-0.522346 12:-0.577399 13:0.334966 14:-0.419154 15:-0.753823 16:0.711645 17:0.356488 18:-0.17773 
-0 1 1:-0.550847 2:-0.0781921 3:-0.221589 4:-0.379033 5:0.815289 6:0.809302 7:-0.669052 8:-0.23812 9:0.643531 10:0.47142 11:0.0167598 12:0.0820433 13:0.24801 14:-0.128109 15:0.159021 16:0.828712 17:0.188729 18:0.0364026 
-0 1 1:-0.286463 2:-0.115186 3:-0.0592207 4:-0.271732 5:-0.0657781 6:0.397317 7:-0.319652 8:-0.364621 9:-0.321846 10:0.617701 11:-0.149441 12:-0.380805 13:0.600735 14:-0.0920398 15:-0.619266 16:0.731362 17:0.618611 18:0.153462 
-0.7738711844153948 0 1:-0.0440961 2:-0.040496 3:-0.152478 4:-0.0343565 5:0.0340458 6:0.28489 7:-0.0780961 8:-0.144857 9:-0.236112 10:0.717271 11:0.146648 12:-0.334365 13:0.71586 14:0.160448 15:-0.525994 16:0.797905 17:0.619921 18:0.394718 
-1 0 1:0.186323 2:0.500154 3:0.178368 4:0.155348 5:0.376746 6:-0.0744108 7:0.0399491 8:0.295864 9:0.597314 10:0.706208 11:0.272346 12:0.196594 13:0.730557 14:0.304726 15:-0.0412844 16:0.82748 17:0.585845 18:0.193433 
-1 0 1:0.139709 2:0.139161 3:-0.326452 4:0.256506 5:0.866308 6:0.498378 7:0.0785545 8:0.294796 9:0.708225 10:0.83528 11:0.509777 12:0.359133 13:0.778322 14:0.313433 15:0.392966 16:0.879236 17:0.743119 18:0.354747 
-1 1 1:-0.169338 2:-0.0737999 3:-0.0974558 4:-0.15107 5:0.000462099 6:0.372941 7:-0.189113 8:-0.244145 9:-0.242005 10:0.664413 11:-0.0223464 12:-0.399381 13:0.64605 14:0.0547264 15:-0.594801 16:0.749846 17:0.653997 18:0.257673 
-1 1 1:-0.595353 2:0.475853 3:0.568389 4:-0.684051 5:-0.285678 6:0.0649803 7:-0.812786 8:-0.589932 9:-0.1042 10:-0.110018 11:-0.560056 12:0.0650155 13:-0.0863442 14:-0.412935 15:-0.432722 16:0.492298 17:-0.218873 18:-0.343326 
-0 1 1:-0.608389 2:-0.107439 3:-0.214706 4:-0.429891 5:0.809687 6:0.838432 7:-0.736412 8:-0.28184 9:0.669971 10:0.377996 11:-0.0349162 12:0.0572755 13:0.159829 14:-0.171642 15:0.142202 16:0.780653 17:0.0589777 18:-0.00356888 
-1 0 1:0.300751 2:0.00554506 3:-0.591071 4:0.282914 5:-0.0372106 6:-0.694301 7:0.306483 8:0.213042 9:-0.0651222 10:0.934849 11:0.642458 12:0.306502 13:0.933864 14:0.86194 15:0.597859 16:0.960567 17:0.954128 18:0.800143 
-1 1 1:-0.192889 2:0.439519 3:0.343004 4:-0.228311 5:0.232445 6:0.00590354 7:-0.404653 8:-0.0339462 9:0.530333 10:0.483712 11:-0.00698324 12:0.0386997 13:0.500306 14:-0.011194 15:-0.250765 16:0.732594 17:0.245085 18:-0.130621 
-1 1 1:-0.584719 2:0.374608 3:0.547395 4:-0.639538 5:0.0887168 6:0.0921203 7:-0.870043 8:-0.372015 9:0.450853 10:-0.241549 11:-0.386872 12:-0.162539 13:-0.255358 14:-0.485075 15:-0.513761 16:0.40727 17:-0.387942 18:-0.480371 
-0.5745233709187957 0 1:0.134802 2:0.556448 3:0.223782 4:0.0904323 5:0.0581714 6:-0.0941263 7:0.0340156 8:0.0723298 9:0.172589 10:0.748002 11:0.00558659 12:0.303406 13:0.74158 14:0.435323 15:-0.0443425 16:0.849661 17:0.68021 18:0.403283 
-1 1 1:-0.0354761 2:-0.0220816 3:-0.135278 4:0.0660911 5:0.582183 6:0.291807 7:-0.125552 8:-0.132224 9:-0.147711 10:0.741856 11:0.331006 12:-0.256966 13:0.612982 14:0.100746 15:-0.206422 16:0.850893 17:0.813893 18:0.588865 
-0 1 1:-0.141732 2:0.486 3:0.315019 4:-0.204134 5:-0.0571712 6:-0.0394849 7:-0.285698 8:-0.174783 9:0.0383502 10:0.598033 11:-0.177374 12:0.241486 13:0.637477 14:0.15796 15:-0.223242 16:0.756007 17:0.524246 18:0.112063 
-1 1 1:-0.205238 2:-0.0963728 3:-0.0968176 4:-0.189117 5:-0.00782013 6:0.340151 7:-0.232952 8:-0.282809 9:-0.295269 10:0.659496 11:-0.0209497 12:-0.379257 13:0.62523 14:0.0348259 15:-0.584098 16:0.735059 17:0.652687 18:0.291934 
-1 1 1:-0.464823 2:-0.227608 3:-0.0570703 4:-0.343798 5:0.457359 6:0.456973 7:-0.603795 8:-0.536586 9:-0.377853 10:0.43823 11:-0.127095 12:-0.424149 13:0.179424 14:-0.2699 15:-0.402141 16:0.841035 17:0.549148 18:0.209136 
-1 0 1:0.0513864 2:0.10039 3:-0.339648 4:0.186498 5:0.870392 6:0.527468 7:-0.000381243 8:0.245836 9:0.627603 10:0.837738 11:0.568436 12:0.317337 13:0.710961 14:0.241294 15:0.379205 16:0.882933 17:0.640891 18:0.411849 
-0 1 1:-0.701474 2:-0.761212 3:-0.908087 4:-0.744906 5:-0.840294 6:-0.953453 7:-0.73871 8:-0.766642 9:-0.849369 10:0.713583 11:0.318436 12:0.23839 13:0.902021 14:0.595771 15:0.107034 16:0.895256 17:0.833552 18:0.570307 
-1 0 1:0.150307 2:0.521895 3:0.203342 4:0.116593 5:0.392723 6:-0.0463448 7:-0.00674507 8:0.244336 9:0.640998 10:0.724647 11:0.26257 12:0.122291 13:0.709737 14:0.256219 15:-0.0412844 16:0.845964 17:0.507208 18:0.146324 
-1 0 1:-0.624639 2:-0.449483 3:-0.253114 4:-0.728904 5:-0.729311 6:-0.739078 7:-0.746013 8:-0.708696 9:-0.632241 10:0.33866 11:-0.215084 12:-0.527864 13:0.502756 14:-0.0982587 15:-0.706422 16:0.779421 17:0.389253 18:-0.197716 
-0 1 1:-0.269927 2:-0.382102 3:-0.539919 4:-0.243538 5:-0.26315 6:-0.488505 7:-0.24947 8:-0.231806 9:-0.0336748 10:0.820529 11:0.444134 12:0.116099 13:0.761176 14:0.426617 15:0.030581 16:0.804067 17:0.774574 18:0.156317 
-1 1 1:-0.663753 2:-0.323795 3:-0.0423843 4:-0.53277 5:0.399203 6:0.508534 7:-0.819031 8:-0.718176 9:-0.468882 10:0.0399508 11:-0.386872 12:-0.5387 13:-0.244336 14:-0.442786 15:-0.490826 16:0.785582 17:0.0943644 18:-0.147752 
-0 1 1:-0.372653 2:-0.445405 3:-0.534665 4:-0.345373 5:-0.318384 6:-0.496937 7:-0.361215 8:-0.321127 9:-0.0444058 10:0.750461 11:0.435754 12:-0.0263158 13:0.729333 14:0.324627 15:-0.0321101 16:0.799137 17:0.728702 18:0.124911 
-0.3602287719356953 0 1:-0.915719 2:-0.904774 3:-0.9008 4:-0.890888 5:-0.737121 6:-0.64699 7:-0.915553 8:-0.926538 9:-0.898415 10:0.360787 11:-0.456704 12:-0.578947 13:0.227189 14:-0.725124 15:-0.784404 16:0.907579 17:0.111402 18:-0.564597 
-0 1 1:-0.346238 2:-0.183113 3:-0.0750292 4:-0.231747 5:0.490589 6:0.407775 7:-0.468846 8:-0.418715 9:-0.299978 10:0.558697 11:0.0223464 12:-0.380805 13:0.350888 14:-0.187811 15:-0.340979 16:0.855823 17:0.6173 18:0.224839 
-0.2481124097437501 0.1061729585388684 1:-0.368189 2:-0.154362 3:-0.0710504 4:-0.357923 5:-0.0934923 6:0.452204 7:-0.42032 8:-0.43179 9:-0.358916 10:0.541487 11:-0.251397 12:-0.462848 13:0.556644 14:-0.192786 15:-0.669725 16:0.723968 17:0.554391 18:0.123483 
-1 1 1:-0.734609 2:-0.354251 3:-0.0184381 4:-0.601203 5:0.362226 6:0.520418 7:-0.89989 8:-0.782574 9:-0.506185 10:-0.220652 11:-0.511173 12:-0.568111 13:-0.467238 14:-0.532338 15:-0.536697 16:0.622921 17:-0.141547 18:-0.233405 
-1 0 1:0.0144973 2:0.0946027 3:-0.332199 4:0.150792 5:0.842597 6:0.526176 7:-0.0481219 8:0.214215 9:0.653101 10:0.792256 11:0.439944 12:0.337461 13:0.719535 14:0.251244 15:0.373089 16:0.87061 17:0.589777 18:0.45182 
-1 0 1:0.303627 2:0.532692 3:0.170484 4:0.273708 5:0.429155 6:-0.103135 7:0.164609 8:0.364472 9:0.615883 10:0.799631 11:0.400838 12:0.263158 13:0.746479 14:0.385572 15:0.0351682 16:0.869378 17:0.636959 18:0.200571 
-0 1 1:-0.229586 2:-0.24261 3:-0.295762 4:-0.32165 5:-0.453782 6:-0.674202 7:-0.3148 8:-0.32884 9:-0.413169 10:0.680393 11:0.180168 12:-0.318885 13:0.750153 14:0.44403 15:-0.334862 16:0.799137 17:0.732634 18:0.266238 
-1 0 1:-0.80627 2:-0.393803 3:-0.123602 4:-0.742875 5:0.26377 6:0.411766 7:-0.904955 8:-0.71884 9:-0.355479 10:-0.14075 11:-0.515363 12:-0.473684 13:-0.213717 14:-0.570896 15:-0.321101 16:0.720271 17:-0.304063 18:-0.494647 
-1 0 1:0.09272 2:0.0100431 3:-0.195292 4:0.193283 5:0.625016 6:0.248763 7:0.0162371 8:0.00453465 9:-0.0956488 10:0.781192 11:0.423184 12:-0.174923 13:0.709737 14:0.18408 15:-0.166667 16:0.876771 17:0.74574 18:0.694504 
-1 0 1:-0.714066 2:-0.273009 3:0.0990813 4:-0.695168 5:-0.240992 6:0.659871 7:-0.793212 8:-0.749715 9:-0.531804 10:0.0485556 11:-0.663408 12:-0.631579 13:0.0912431 14:-0.572139 15:-0.784404 16:0.699322 17:0.199214 18:-0.329051 
-0 1 1:-0.405153 2:-0.198108 3:-0.0785244 4:-0.284342 5:0.458005 6:0.424181 7:-0.534961 8:-0.485558 9:-0.346414 10:0.502151 11:-0.0335196 12:-0.363777 13:0.284752 14:-0.216418 15:-0.368502 16:0.864449 17:0.600262 18:0.186296 
-1 0.3933059774083025 1:-0.917827 2:-0.913551 3:-0.784762 4:-0.896582 5:-0.849807 6:-0.713589 7:-0.915687 8:-0.88688 9:-0.757446 10:0.177628 11:-0.434358 12:-0.578947 13:0.200245 14:-0.396766 15:-0.484709 16:0.630314 17:-0.250328 18:-0.566024 
-1 0 1:-0.497951 2:-0.195211 3:0.00181651 4:-0.477457 5:-0.154763 6:0.532308 7:-0.549603 8:-0.537372 9:-0.434731 10:0.476337 11:-0.400838 12:-0.544892 13:0.467238 14:-0.307214 15:-0.695719 16:0.689464 17:0.44692 18:-0.0521056 
-0.6444464942463013 0 1:-0.139857 2:-0.0846838 3:-0.153559 4:-0.0282264 5:0.553316 6:0.340672 7:-0.234294 8:-0.220098 9:-0.183258 10:0.665642 11:0.23743 12:-0.260062 13:0.571341 14:0.0149254 15:-0.238532 16:0.881701 17:0.7654 18:0.578872 
-1 1 1:-0.246495 2:-0.112413 3:-0.115882 4:-0.227935 5:-0.0451596 6:0.378083 7:-0.278022 8:-0.316466 9:-0.30115 10:0.65212 11:-0.0796089 12:-0.433437 13:0.628904 14:-0.0199005 15:-0.602446 16:0.733826 17:0.618611 18:0.234832 
-1 0 1:0.238026 2:0.527799 3:0.162493 4:0.193624 5:0.385708 6:-0.0940123 7:0.0798224 8:0.30252 9:0.682765 10:0.756607 11:0.322626 12:0.134675 13:0.73913 14:0.338308 15:0.00611621 16:0.820086 17:0.631717 18:0.18344 
-1 1 1:-0.658877 2:0.490105 3:0.618914 4:-0.749234 5:-0.314833 6:0.0912869 7:-0.885868 8:-0.643523 9:-0.129836 10:-0.350953 11:-0.625698 12:0.0402477 13:-0.336191 14:-0.506219 15:-0.470948 16:0.218731 17:-0.431193 18:-0.414704 
-1 1 1:-0.600585 2:-0.682218 3:-0.736265 4:-0.61291 5:-0.6617 6:-0.797994 7:-0.612332 8:-0.634786 9:-0.683901 10:0.269822 11:-0.202514 12:-0.628483 13:0.369259 14:-0.123134 15:-0.634557 16:0.507086 17:0.302752 18:-0.0949322 
-1 1 1:-0.905924 2:-0.840175 3:-0.729916 4:-0.919442 5:-0.86165 6:-0.829544 7:-0.939375 8:-0.923103 9:-0.866108 10:-0.509527 11:-0.863128 12:-0.904025 13:-0.24801 14:-0.784826 15:-1 16:0.263093 17:-0.445609 18:-0.735903 
-1 0 1:-0.0812112 2:-0.0555661 3:-0.160867 4:-0.0688134 5:0.0419799 6:0.287853 7:-0.106853 8:-0.18476 9:-0.234303 10:0.732022 11:0.0726257 12:-0.325077 13:0.679118 14:0.123134 15:-0.541284 16:0.764633 17:0.707733 18:0.38187 
-1 0 1:0.0677539 2:0.488877 3:0.216517 4:0.0350348 5:0.346349 6:-0.0525507 7:-0.118667 8:0.166285 9:0.604181 10:0.658267 11:0.215084 12:0.108359 13:0.655848 14:0.189055 15:-0.0932722 16:0.799137 17:0.456094 18:0.076374 
-1 0 1:0.0762291 2:0.49121 3:0.225194 4:0.0399705 5:0.327849 6:-0.0446694 7:-0.0947783 8:0.195393 9:0.551756 10:0.66933 11:0.217877 12:0.0835913 13:0.685242 14:0.186567 15:-0.117737 16:0.82748 17:0.466579 18:0.130621 
-1 1 1:-0.371154 2:0.489878 3:0.43755 4:-0.447941 5:-0.182812 6:0.000217786 7:-0.55421 8:-0.388903 9:-0.0570552 10:0.369392 11:-0.372905 12:0.151703 13:0.407226 14:-0.0746269 15:-0.314985 16:0.71411 17:0.21363 18:-0.0778016 
-1 1 1:-0.12425 2:-0.0736438 3:-0.135527 4:-0.105381 5:0.00567677 6:0.325478 7:-0.139617 8:-0.215701 9:-0.218566 10:0.677935 11:0.0391061 12:-0.339009 13:0.650949 14:0.0746269 15:-0.571865 16:0.767098 17:0.709043 18:0.30621 
-1 1 1:-0.79747 2:-0.786193 3:-0.73496 4:-0.809834 5:-0.790384 6:-0.818148 7:-0.822922 8:-0.822691 9:-0.809742 10:-0.0460971 11:-0.601955 12:-0.795666 13:0.183099 14:-0.488806 15:-0.860856 16:0.408503 17:-0.00524246 18:-0.430407 
-1 1 1:-0.814286 2:-0.669698 3:-0.645334 4:-0.829986 5:-0.574812 6:-0.614832 7:-0.891661 8:-0.707846 9:-0.501559 10:-0.358328 11:-0.607542 12:-0.575851 13:-0.0324556 14:-0.355721 15:-0.197248 16:0.387554 17:-0.412844 18:-0.354747 
-1 0 1:-0.00775644 2:0.0102772 3:-0.174057 4:-0.00420546 5:0.057841 6:0.301789 7:-0.0274005 8:-0.0919519 9:-0.181012 10:0.739398 11:0.0963687 12:-0.314241 13:0.699939 14:0.227612 15:-0.515291 16:0.772027 17:0.722149 18:0.536046 
-1 1 1:0.0070531 2:-0.347115 3:-0.727203 4:0.0197334 5:-0.224257 6:-0.637168 7:0.0559625 8:-0.0408008 9:-0.230327 10:0.827904 11:0.796089 12:0.386997 13:0.821188 14:0.721393 15:0.474006 16:0.778189 17:0.705111 18:0.623126 
-1 1 1:-0.735629 2:-0.353842 3:-0.0281366 4:-0.602239 5:0.364737 6:0.514708 7:-0.898169 8:-0.782249 9:-0.504385 10:-0.224339 11:-0.51676 12:-0.566563 13:-0.472137 14:-0.532338 15:-0.530581 16:0.599507 17:-0.163827 18:-0.25339 
-1 0.527215424120862 1:-0.46315 2:0.395029 3:0.464439 4:-0.511497 5:0.12793 6:0.0312344 7:-0.723665 8:-0.262491 9:0.483948 10:0.111248 11:-0.24581 12:-0.0975232 13:0.116963 14:-0.322139 15:-0.399083 16:0.71411 17:-0.095675 18:-0.333333 
-0 1 1:-0.50479 2:-0.666933 3:-0.774771 4:-0.486737 5:-0.573678 6:-0.702086 7:-0.482043 8:-0.505075 9:-0.526801 10:0.732022 11:0.430168 12:-0.111455 13:0.720759 14:0.415423 15:0.0152905 16:0.797905 17:0.577982 18:0.0906495 
-1 1 1:-0.537909 2:0.459014 3:0.530735 4:-0.622942 5:-0.257097 6:0.0330029 7:-0.740908 8:-0.529811 9:-0.0773664 10:0.0596189 11:-0.506983 12:0.0835913 13:0.127985 14:-0.304726 15:-0.40367 16:0.624153 17:-0.110092 18:-0.277659 
-1 1 1:0.0460911 2:0.491591 3:0.257471 4:-0.0049409 5:0.314431 6:-0.0676901 7:-0.145333 8:0.1485 9:0.59772 10:0.641057 11:0.157821 12:0.126935 13:0.638702 14:0.186567 15:-0.116208 16:0.78435 17:0.453473 18:0.0421128 
-1 0 1:0.220049 2:0.529344 3:0.181767 4:0.196099 5:0.408541 6:-0.0929189 7:0.0826497 8:0.301419 9:0.5951 10:0.724647 11:0.340782 12:0.156347 13:0.726883 14:0.339552 15:0.00611621 16:0.844732 17:0.57405 18:0.24768 
-1 1 1:-0.218766 2:-0.100109 3:-0.0932955 4:-0.205569 5:-0.0306487 6:0.339825 7:-0.24111 8:-0.293393 9:-0.283797 10:0.645974 11:-0.0712291 12:-0.390093 13:0.624005 14:-0.00373134 15:-0.605505 16:0.719039 17:0.665793 18:0.213419 
-0.5793631919428609 0 1:-0.531475 2:-0.264081 3:-0.0572601 4:-0.401011 5:0.439146 6:0.453346 7:-0.672347 8:-0.591756 9:-0.395925 10:0.368162 11:-0.206704 12:-0.4613 13:0.0679731 14:-0.330846 15:-0.420489 16:0.859519 17:0.402359 18:0.0421128 
-1 0 1:-0.833216 2:-0.297409 3:0.17478 4:-0.811048 5:-0.267918 6:0.780297 7:-0.924394 8:-0.854058 9:-0.583237 10:-0.416103 11:-0.828212 12:-0.696594 13:-0.396203 14:-0.725124 15:-0.834862 16:0.686999 17:-0.252949 18:-0.57459 
-1 0 1:0.211459 2:0.551396 3:0.172215 4:0.163701 5:0.134414 6:-0.115378 7:0.107883 8:0.164176 9:0.166713 10:0.777505 11:0.0865922 12:0.380805 13:0.785671 14:0.468905 15:0.0351682 16:0.847197 17:0.623853 18:0.386153 
-1 0 1:-0.42255 2:0.48454 3:0.468187 4:-0.499966 5:-0.210778 6:0.00921035 7:-0.616357 8:-0.419002 9:-0.0471853 10:0.287031 11:-0.428771 12:0.126935 13:0.352113 14:-0.166667 15:-0.35474 16:0.705484 17:0.0982962 18:-0.143469 
-1 1 1:-0.58541 2:0.373543 3:0.53362 4:-0.642582 5:0.0863395 6:0.0870805 7:-0.869436 8:-0.371422 9:0.480549 10:-0.242778 11:-0.392458 12:-0.153251 13:-0.244336 14:-0.487562 15:-0.510703 16:0.451633 17:-0.366972 18:-0.467523 
-1 0 1:-0.514668 2:-0.216763 3:-0.00125275 4:-0.494192 5:-0.155492 6:0.533479 7:-0.567094 8:-0.570127 9:-0.438685 10:0.419791 11:-0.385475 12:-0.55418 13:0.452541 14:-0.347015 15:-0.707951 16:0.699322 17:0.456094 18:-0.0749465 
-1 0.6731723688496983 1:-0.132924 2:-0.0753648 3:-0.118986 4:-0.114924 5:-0.012293 6:0.309408 7:-0.156699 8:-0.223581 9:-0.236415 10:0.644745 11:0.0488827 12:-0.337461 13:0.655848 14:0.0945274 15:-0.538226 16:0.783118 17:0.688073 18:0.396146 
-1 0 1:0.184995 2:0.57387 3:0.18533 4:0.123614 5:0.0905212 6:-0.103314 7:0.0630914 8:0.108838 9:0.137381 10:0.760295 11:0.0628492 12:0.311146 13:0.772198 14:0.476368 15:0.0458716 16:0.808996 17:0.72346 18:0.518915 
-0 1 1:-0.480411 2:-0.0706733 3:-0.24333 4:-0.310748 5:0.810023 6:0.762397 7:-0.592895 8:-0.183749 9:0.650198 10:0.545175 11:0.0628492 12:0.106811 13:0.337416 14:-0.0820896 15:0.12844 16:0.837338 17:0.287025 18:0.0920771 
-1 1 1:0.0262748 2:-0.244842 3:-0.565881 4:0.0470545 5:-0.0806424 6:-0.479993 7:0.0573907 8:0.0174374 9:0.114657 10:0.787339 11:0.790503 12:0.266254 13:0.802817 14:0.604478 15:0.353211 16:0.829945 17:0.781127 18:0.438972 
-0.2057300494886653 1 1:-0.019604 2:-0.2611 3:-0.553419 4:0.00686423 5:-0.104083 6:-0.478215 7:0.0232939 8:0.0025034 9:0.123724 10:0.822987 11:0.642458 12:0.212074 13:0.815064 14:0.548507 15:0.252294 16:0.797905 17:0.880734 18:0.353319 
-1 1 1:-0.732809 2:-0.14295 3:-0.195768 4:-0.551488 5:0.805005 6:0.922076 7:-0.877927 8:-0.376308 9:0.614794 10:-0.0227412 11:-0.212291 12:0.0464396 13:-0.183099 14:-0.258706 15:0.0978593 16:0.515712 17:-0.157274 18:-0.0521056 
-1 1 1:-0.828288 2:-0.492142 3:-0.428086 4:-0.809122 5:-0.438683 6:-0.37663 7:-0.895494 8:-0.560914 9:0.149036 10:-0.0190535 11:-0.375698 12:-0.311146 13:-0.0655236 14:-0.340796 15:-0.279817 16:0.521873 17:-0.300131 18:-0.357602 
-1 0 1:0.0107342 2:-0.0290927 3:-0.148528 4:0.106969 5:0.60834 6:0.307395 7:-0.0785397 8:-0.0921971 9:-0.135782 10:0.765212 11:0.329609 12:-0.224458 13:0.67177 14:0.123134 15:-0.211009 16:0.858287 17:0.802097 18:0.494647 
-1 0 1:0.113139 2:0.484748 3:0.211634 4:0.0899094 5:0.364508 6:-0.0751826 7:-0.0372043 8:0.209915 9:0.596636 10:0.706208 11:0.215084 12:0.150155 13:0.658298 14:0.231343 15:-0.0703364 16:0.845964 17:0.567497 18:0.126338 
-1 0 1:0.169143 2:0.0373732 3:-0.162662 4:0.25972 5:0.634045 6:0.243125 7:0.0936437 8:0.0809437 9:-0.00121297 10:0.829133 11:0.511173 12:-0.109907 13:0.730557 14:0.238806 15:-0.143731 16:0.903882 17:0.832241 18:0.660243 
-1 0 1:0.0261188 2:-0.0156752 3:-0.145717 4:0.0371154 5:0.0787178 6:0.296036 7:0.00286204 8:-0.0815397 9:-0.177655 10:0.729564 11:0.166201 12:-0.275542 13:0.731782 14:0.197761 15:-0.518349 16:0.812693 17:0.74574 18:0.51035 
-1 0 1:0.207064 2:0.59056 3:0.169504 4:0.14635 5:0.125264 6:-0.110517 7:0.112727 8:0.141879 9:0.212479 10:0.787339 11:0.0432961 12:0.411765 13:0.757502 14:0.441542 15:-0.0458716 16:0.847197 17:0.761468 18:0.417559 
-1 0 1:0.248872 2:0.0817438 3:-0.196274 4:0.345904 5:0.679463 6:0.22489 7:0.191745 8:0.129411 9:0.00714298 10:0.850031 11:0.540503 12:-0.131579 13:0.779547 14:0.276119 15:-0.0856269 16:0.905114 17:0.905636 18:0.665953 
-0 0.9453645724608291 1:-0.0981846 2:0.445143 3:0.30576 4:-0.144563 5:0.258068 6:-0.0355683 7:-0.296243 8:0.0428465 9:0.54896 10:0.567302 11:0.0530726 12:0.0263158 13:0.544397 14:0.0472637 15:-0.20948 16:0.774492 17:0.305374 18:-0.0506781 
-1 0 1:0.125113 2:0.249519 3:0.435925 4:-0.00620735 5:-0.161432 6:-0.177123 7:0.00587731 8:-0.121381 9:-0.348072 10:0.738168 11:0.318436 12:-0.0804954 13:0.7624 14:0.385572 15:-0.585627 16:0.812693 17:0.754915 18:0.764454 
-1 1 1:-0.667495 2:-0.124312 3:-0.214517 4:-0.491488 5:0.79941 6:0.883308 7:-0.805169 8:-0.324023 9:0.635349 10:0.204671 11:-0.121508 12:0.0634675 13:0.00306185 14:-0.212687 15:0.137615 16:0.726433 17:-0.0144168 18:-0.0406852 
-1 0 1:-0.768392 2:-0.120396 3:-0.0814197 4:-0.799593 5:-0.319789 6:0.287916 7:-0.90965 8:-0.815153 9:-0.568588 10:-0.199754 11:-0.691341 12:-0.363777 13:-0.238212 14:-0.691542 15:-0.804281 16:0.799137 17:-0.173001 18:-0.497502 
-1 1 1:-0.052431 2:0.537682 3:0.300931 4:-0.112619 5:-0.0221355 6:-0.0849201 7:-0.190068 8:-0.11105 9:0.0585632 10:0.660725 11:-0.141061 12:0.247678 13:0.663197 14:0.257463 15:-0.136086 16:0.773259 17:0.626474 18:0.277659 
-1 0 1:0.267924 2:0.497165 3:0.162489 4:0.2319 5:0.440284 6:-0.0998043 7:0.117954 8:0.35953 9:0.600392 10:0.760295 11:0.370112 12:0.182663 13:0.748928 14:0.313433 15:0.00611621 16:0.880468 17:0.619921 18:0.216274 
-0 1 1:-0.48886 2:-0.0692904 3:-0.242021 4:-0.322792 5:0.804348 6:0.76559 7:-0.607557 8:-0.19128 9:0.630236 10:0.507068 11:0.0768156 12:0.122291 13:0.348438 14:-0.0957711 15:0.188073 16:0.826248 17:0.250328 18:0.0920771 
-1 0 1:0.141971 2:0.512385 3:0.220163 4:0.107736 5:0.341604 6:-0.0546758 7:-0.0138107 8:0.25957 9:0.593841 10:0.691457 11:0.247207 12:0.0650155 13:0.71831 14:0.276119 15:-0.0565749 16:0.834874 17:0.486239 18:0.123483 
-0 1 1:-0.387028 2:-0.0547792 3:-0.261476 4:-0.220173 5:0.819178 6:0.713355 7:-0.485211 8:-0.098397 9:0.606311 10:0.614014 11:0.153631 12:0.113003 13:0.461115 14:-0.0385572 15:0.233945 16:0.842267 17:0.370904 18:0.089222 
-1 0 1:-0.666659 2:-0.253524 3:0.0835571 4:-0.644757 5:-0.217926 6:0.612274 7:-0.736184 8:-0.700633 9:-0.515334 10:0.22311 11:-0.582402 12:-0.608359 13:0.229639 14:-0.488806 15:-0.766055 16:0.726433 17:0.292267 18:-0.214847 
-1 0 1:0.298028 2:0.544728 3:0.135711 4:0.271958 5:0.406881 6:-0.122379 7:0.168649 8:0.378359 9:0.63433 10:0.739398 11:0.423184 12:0.19969 13:0.761176 14:0.370647 15:0.0382263 16:0.823783 17:0.600262 18:0.240542 
-1 0 1:0.166381 2:0.0543504 3:-0.176206 4:0.268629 5:0.638167 6:0.260684 7:0.105481 8:0.0572294 9:-0.0119686 10:0.846343 11:0.437151 12:-0.120743 13:0.71831 14:0.228856 15:-0.123853 16:0.889094 17:0.764089 18:0.633119 
-1 0 1:0.136084 2:0.0400849 3:-0.165741 4:0.241083 5:0.624854 6:0.249233 7:0.0652091 8:0.020947 9:-0.0479654 10:0.804548 11:0.476257 12:-0.157895 13:0.69259 14:0.223881 15:-0.152905 16:0.889094 17:0.838794 18:0.550321 
-1 0 1:-0.0803991 2:-0.062543 3:-0.14068 4:0.0235852 5:0.580436 6:0.325607 7:-0.178606 8:-0.171437 9:-0.160964 10:0.745544 11:0.276536 12:-0.26935 13:0.595836 14:0.050995 15:-0.195719 16:0.868145 17:0.792923 18:0.558887 
-1 1 1:-0.481146 2:0.480695 3:0.503398 4:-0.559468 5:-0.240775 6:0.0213498 7:-0.675952 8:-0.480631 9:-0.0523013 10:0.214505 11:-0.473464 12:0.0928793 13:0.254133 14:-0.237562 15:-0.351682 16:0.674677 17:0.0458716 18:-0.174875 
-1 0 1:0.15905 2:0.15146 3:-0.357839 4:0.29699 5:0.86271 6:0.448969 7:0.120034 8:0.320453 9:0.696111 10:0.824216 11:0.536313 12:0.424149 13:0.800367 14:0.299751 15:0.429664 16:0.881701 17:0.719528 18:0.493219 
-1 1 1:-0.705198 2:-0.66772 3:-0.784561 4:-0.669281 5:-0.510825 6:-0.639172 7:-0.725119 8:-0.604809 9:-0.342541 10:0.529195 11:0.0111732 12:-0.103715 13:0.409675 14:-0.141791 15:-0.155963 16:0.763401 17:0.25426 18:-0.0835118 
-1 0 1:0.0513561 2:-0.00179333 3:-0.147618 4:0.148386 5:0.599819 6:0.275814 7:-0.0350112 8:-0.0465 9:-0.0945485 10:0.778734 11:0.421788 12:-0.202786 13:0.659522 14:0.124378 15:-0.183486 16:0.901417 17:0.815203 18:0.663098 
-1 0 1:-0.807366 2:-0.395372 3:-0.125948 4:-0.742044 5:0.261433 6:0.418418 7:-0.903828 8:-0.723542 9:-0.345969 10:-0.161647 11:-0.522346 12:-0.47678 13:-0.214942 14:-0.583333 15:-0.344037 16:0.743685 17:-0.285714 18:-0.507495 
-1 0 1:0.0947272 2:0.124232 3:-0.3485 4:0.227476 5:0.866366 6:0.473379 7:0.0476764 8:0.280318 9:0.662288 10:0.803319 11:0.541899 12:0.414861 13:0.757502 14:0.243781 15:0.392966 16:0.882933 17:0.707733 18:0.360457 
-0.9123515926045644 0 1:0.208837 2:-0.262031 3:-0.795256 4:0.220422 5:-0.141964 6:-0.712708 7:0.260211 8:0.119893 9:-0.202 10:0.963122 11:0.973464 12:0.46904 13:0.916718 14:1 15:0.730887 16:0.966728 17:0.859764 18:0.938615 
-1 0 1:0.137624 2:0.533447 3:0.192803 4:0.0861662 5:0.0796028 6:-0.0981547 7:0.0280138 8:0.0907132 9:0.165488 10:0.75169 11:0.0377095 12:0.320433 13:0.767299 14:0.482587 15:-0.00764526 16:0.845964 17:0.698558 18:0.418986 
-1 -1 1:-0.34786 2:0.411801 3:0.450195 4:-0.39652 5:0.170611 6:0.0484522 7:-0.599508 8:-0.176325 9:0.468799 10:0.106331 11:-0.108939 12:-0.0371517 13:0.10594 14:-0.166667 15:-0.319572 16:0.0955022 17:0.182176 18:-0.129193 
-1 -1 1:-0.205366 2:0.436765 3:0.377837 4:-0.249043 5:0.250358 6:0.061003 7:-0.424987 8:-0.0515883 9:0.531865 10:0.311616 11:0.0628492 12:-0.0294118 13:0.330067 14:0.0410448 15:-0.218654 16:0.280345 17:0.366972 18:0.00356888 
-1 -1 1:-0.227571 2:0.565798 3:0.433548 4:-0.289978 5:-0.044334 6:0.0219292 7:-0.398223 8:-0.229455 9:0.0485694 10:0.244007 11:-0.276536 12:0.151703 13:0.228414 14:0.0957711 15:-0.16208 16:0.232286 17:0.449541 18:0.0963597 
-1 -0 1:-0.85043 2:-0.904938 3:-0.989501 4:-0.834971 5:-0.864924 6:-0.937409 7:-0.830091 8:-0.838556 9:-0.812643 10:-0.327597 11:-0.575419 12:-0.832817 13:-0.298224 14:-0.174129 15:-0.43578 16:-0.332101 17:-0.0419397 18:-0.610278 
-1 -0 1:-0.399003 2:-0.229871 3:-0.117008 4:-0.286203 5:0.457871 6:0.383461 7:-0.526666 8:-0.471334 9:-0.334413 10:0.210817 11:-0.0586592 12:-0.43808 13:0.039804 14:-0.21393 15:-0.40367 16:0.192853 17:0.570118 18:0.250535 
-1 -0 1:-0.795458 2:-0.480233 3:-0.44104 4:-0.77303 5:-0.415632 6:-0.393135 7:-0.857555 8:-0.539814 9:0.134254 10:-0.357099 11:-0.350559 12:-0.326625 13:-0.398653 14:-0.307214 15:-0.275229 16:-0.449168 17:-0.245085 18:-0.346181 
-1 -0 1:-0.726693 2:-0.349457 3:-0.096189 4:-0.661639 5:0.304883 6:0.411832 7:-0.815201 8:-0.654888 9:-0.333119 10:-0.228027 11:-0.427374 12:-0.459752 13:-0.230863 14:-0.521144 15:-0.330275 16:-0.224892 17:-0.0982962 18:-0.413276 
-1 -0 1:-0.523322 2:-0.360237 3:-0.46758 4:-0.499666 5:-0.278067 6:-0.39845 7:-0.565459 8:-0.319418 9:0.197103 10:0.172711 11:0.0405028 12:-0.173375 13:0.140233 14:0.106965 15:-0.0764526 16:0.0955022 17:0.279161 18:-0.139186 
-1 -1 1:-0.335592 2:0.00501518 3:-0.256975 4:-0.176234 5:0.85659 6:0.746359 7:-0.446536 8:-0.0697376 9:0.659331 10:0.343577 11:0.24162 12:0.208978 13:0.288426 14:0.0248756 15:0.217125 16:0.25077 17:0.442988 18:0.250535 
-1 -0 1:-0.592469 2:-0.7049 3:-0.905725 4:-0.629486 5:-0.7597 6:-0.933645 7:-0.614218 8:-0.661028 9:-0.774441 10:0.303012 11:0.418994 12:0.360681 13:0.218616 14:0.640547 15:0.331804 16:0.189156 17:0.705111 18:0.728765 
-0.9957722477318656 -0 1:-0.503924 2:0.573521 3:0.579757 4:-0.587148 5:-0.218659 6:0.0714368 7:-0.715874 8:-0.499513 9:-0.050046 10:-0.203442 11:-0.50419 12:0.105263 13:-0.238212 14:-0.278607 15:-0.35474 16:-0.238447 17:-0.0655308 18:-0.173448 
-1 -0 1:-0.637653 2:-0.734515 3:-0.906596 4:-0.676577 5:-0.794973 6:-0.942465 7:-0.66497 8:-0.702772 9:-0.809355 10:0.241549 11:0.473464 12:0.325077 13:0.141457 14:0.533582 15:0.223242 16:0.099199 17:0.587156 18:0.758744 
-1 -0 1:-0.509741 2:-0.0308113 3:-0.110893 4:-0.532141 5:-0.203514 6:0.250825 7:-0.627801 8:-0.56923 9:-0.453244 10:0.0891211 11:-0.391061 12:-0.24613 13:0.0557257 14:-0.323383 15:-0.688073 16:0.0757856 17:0.410223 18:-0.00214133 
-1 -0 1:-0.575583 2:-0.714293 3:-0.776751 4:-0.551804 5:-0.617301 6:-0.68418 7:-0.551903 8:-0.572229 9:-0.562705 10:0.121082 11:0.398045 12:-0.139319 13:0.120637 14:0.39801 15:0.0107034 16:0.0979667 17:0.512451 18:0.211991 
-1 -0 1:-0.657601 2:-0.328889 3:-0.135544 4:-0.598497 5:0.313227 6:0.362292 7:-0.745627 8:-0.591481 9:-0.300715 10:-0.0706822 11:-0.314246 12:-0.410217 13:-0.0826699 14:-0.470149 15:-0.278287 16:-0.0511399 17:0.0694626 18:-0.294789 
-1 -1 1:-0.559613 2:-0.483967 3:-0.653198 4:-0.604102 5:-0.657623 6:-0.829186 7:-0.613017 8:-0.581471 9:-0.558345 10:0.229256 11:-0.153631 12:-0.404025 13:0.249235 14:0.241294 15:-0.287462 16:0.243376 17:0.495413 18:0.0549607 
-1 -1 1:-0.287666 2:0.42005 3:0.411145 4:-0.327711 5:0.223346 6:0.0371714 7:-0.516923 8:-0.116611 9:0.503208 10:0.208359 11:-0.0307263 12:0.00464396 13:0.20147 14:-0.0547264 15:-0.267584 16:0.200246 17:0.251638 18:-0.0663812 
-1 -0 1:-0.770575 2:-0.47413 3:-0.432856 4:-0.748638 5:-0.406065 6:-0.383612 7:-0.830799 8:-0.522215 9:0.134776 10:-0.301782 11:-0.324022 12:-0.309598 13:-0.328843 14:-0.281095 15:-0.238532 16:-0.387554 17:-0.195282 18:-0.291934 
-1 -1 1:-0.360499 2:0.0263102 3:-0.15788 4:-0.379181 5:-0.135882 6:0.169454 7:-0.463665 8:-0.434258 9:-0.335522 10:0.321451 11:-0.205307 12:-0.145511 13:0.259032 14:-0.105721 15:-0.590214 16:0.301294 17:0.593709 18:0.0620985 
-1 -0 1:-0.420081 2:-0.428433 3:-0.502128 4:-0.390958 5:-0.301742 6:-0.45283 7:-0.419802 8:-0.356953 9:-0.0433066 10:0.300553 11:0.364525 12:0.0247678 13:0.287201 14:0.284826 15:-0.058104 16:0.226124 17:0.665793 18:0.130621 
-1 -0.695724470871939 1:-0.582279 2:-0.748181 3:-0.953848 4:-0.561345 5:-0.682061 6:-0.885742 7:-0.547573 8:-0.595575 9:-0.661131 10:0.261217 11:0.0670391 12:-0.386997 13:0.239437 14:0.421642 15:0.122324 16:0.228589 17:0.51114 18:-0.0692363 
-1 -0 1:-0.619968 2:-0.234285 3:-0.179767 4:-0.749675 5:-0.552964 6:-0.686361 7:-0.812831 8:-0.478628 9:-0.192737 10:-0.274739 11:-0.357542 12:-0.373065 13:-0.192897 14:-0.100746 15:0.00458716 16:-0.224892 17:-0.159895 18:-0.163455 
-1 -1 1:-0.43693 2:-0.00666869 3:-0.14893 4:-0.45726 5:-0.158158 6:0.194058 7:-0.545807 8:-0.503853 9:-0.40065 10:0.209588 11:-0.305866 12:-0.218266 13:0.163503 14:-0.220149 15:-0.626911 16:0.184227 17:0.543906 18:0.116345 
-1 -1 1:-0.356038 2:-0.204345 3:-0.117362 4:-0.24144 5:0.463445 6:0.376816 7:-0.467911 8:-0.431955 9:-0.297806 10:0.294407 11:0.0698324 12:-0.414861 13:0.101041 14:-0.180348 15:-0.373089 16:0.25077 17:0.602883 18:0.283369 
-1 -0 1:-0.482523 2:-0.343051 3:-0.465841 4:-0.456915 5:-0.25435 6:-0.404257 7:-0.519083 8:-0.276762 9:0.217553 10:0.226798 11:0.114525 12:-0.0944272 13:0.228414 14:0.15796 15:-0.0214067 16:0.174368 17:0.281782 18:-0.0378301 
-1 -0 1:-0.423871 2:-0.418805 3:-0.500962 4:-0.399799 5:-0.314668 6:-0.43623 7:-0.424792 8:-0.370255 9:-0.0515639 10:0.28949 11:0.381285 12:0.102167 13:0.287201 14:0.246269 15:-0.00764526 16:0.233518 17:0.613368 18:0.186296 
-1 -1 1:-0.319614 2:-0.0609263 3:0.0563138 4:-0.286788 5:0.0437429 6:0.687851 7:-0.379943 8:-0.386189 9:-0.336801 10:0.165335 11:-0.22905 12:-0.472136 13:0.183099 14:-0.146766 15:-0.666667 16:0.189156 17:0.646134 18:0.421842 
-1 -1 1:-0.519289 2:-0.264861 3:-0.166558 4:-0.462526 5:0.348713 6:0.30499 7:-0.598457 8:-0.46261 9:-0.235686 10:0.202213 11:-0.131285 12:-0.369969 13:0.184323 14:-0.337065 15:-0.270642 16:0.213802 17:0.3827 18:-0.157744 
-1 -0 1:-0.851691 2:-0.624152 3:-0.654833 4:-0.909044 5:-0.861239 6:-0.864695 7:-0.930837 8:-0.857989 9:-0.721196 10:-0.609096 11:-0.736034 12:-0.673375 13:-0.588487 14:-0.577114 15:-0.79052 16:-0.576094 17:-0.422018 18:-0.607423 
-1 -0 1:-0.608871 2:-0.315182 3:-0.12782 4:-0.55057 5:0.330098 6:0.324215 7:-0.694636 8:-0.541198 9:-0.278268 10:0.0350338 11:-0.294693 12:-0.417957 13:-0.00551133 14:-0.429104 15:-0.24159 16:0.0548367 17:0.175623 18:-0.199143 
-1 -1 1:-0.24262 2:0.415428 3:0.398253 4:-0.296189 5:0.228602 6:0.029016 7:-0.482492 8:-0.0937617 9:0.554871 10:0.248924 11:0.00698324 12:-0.00773994 13:0.284752 14:-0.0385572 15:-0.247706 16:0.243376 17:0.376147 18:-0.0321199 
-1 -1 1:-0.38688 2:0.0368102 3:-0.162794 4:-0.403992 5:-0.111914 6:0.188651 7:-0.489098 8:-0.456947 9:-0.37878 10:0.283344 11:-0.289106 12:-0.201238 13:0.243111 14:-0.196517 15:-0.622324 16:0.258164 17:0.587156 18:0.150607 
-1 -1 1:-0.400516 2:-0.0152434 3:-0.234678 4:-0.23859 5:0.860304 6:0.784763 7:-0.512958 8:-0.0988148 9:0.689703 10:0.291948 11:0.252793 12:0.212074 13:0.233313 14:-0.011194 15:0.171254 16:0.165742 17:0.344692 18:0.147752 
-1 -1 1:-0.172161 2:0.464832 3:0.391185 4:-0.218324 5:0.247926 6:-0.00549014 7:-0.397437 8:-0.043338 9:0.484759 10:0.333743 11:0.0824022 12:-0.0154799 13:0.359461 14:0.0373134 15:-0.181957 16:0.33703 17:0.3827 18:0.0620985 
-1 -1 1:-0.51314 2:-0.465972 3:-0.653549 4:-0.558198 5:-0.633758 6:-0.812514 7:-0.56016 8:-0.540309 9:-0.530238 10:0.294407 11:-0.0558659 12:-0.354489 13:0.316595 14:0.328358 15:-0.256881 16:0.318546 17:0.605505 18:0.189151 
-1 -0 1:-0.714691 2:-0.44375 3:-0.449358 4:-0.692287 5:-0.369875 6:-0.384016 7:-0.770001 8:-0.472353 9:0.171748 10:-0.178857 11:-0.23324 12:-0.272446 13:-0.187998 14:-0.175373 15:-0.198777 16:-0.253235 17:-0.0524246 18:-0.256246 
-1 -1 1:-0.582286 2:-0.295252 3:-0.139412 4:-0.531224 5:0.331425 6:0.355978 7:-0.668579 8:-0.52716 9:-0.280113 10:0.0448679 11:-0.244413 12:-0.379257 13:0.0581751 14:-0.404229 15:-0.261468 16:0.111522 17:0.228047 18:-0.221984 
-1 -0 1:-0.641005 2:-0.315709 3:-0.128105 4:-0.574655 5:0.322163 6:0.377118 7:-0.722323 8:-0.56744 9:-0.314708 10:-0.0251998 11:-0.290503 12:-0.413313 13:-0.039804 14:-0.465174 15:-0.282875 16:0.000616143 17:0.12713 18:-0.284797 
-1 -0 1:-0.439957 2:-0.444653 3:-0.508273 4:-0.41612 5:-0.317302 6:-0.435375 7:-0.454119 8:-0.39873 9:-0.0409707 10:0.230486 11:0.312849 12:0.0340557 13:0.270055 14:0.211443 15:-0.00611621 16:0.212569 17:0.652687 18:0.0977873 
-1 -0 1:-0.429192 2:-0.230375 3:-0.0908766 4:-0.301211 5:0.457182 6:0.41102 7:-0.551494 8:-0.489198 9:-0.36801 10:0.202213 11:-0.0796089 12:-0.433437 13:-0.0214329 14:-0.237562 15:-0.406728 16:0.146026 17:0.536042 18:0.189151 
-1 -0 1:-0.33532 2:0.585674 3:0.499033 4:-0.397543 5:-0.108001 6:0.0452521 7:-0.520259 8:-0.326406 9:0.0081672 10:0.119852 11:-0.371508 12:0.108359 13:0.0851194 14:-0.011194 15:-0.256881 16:0.0893407 17:0.275229 18:0.0778016 
-1 -0 1:-0.819785 2:-0.490233 3:-0.435304 4:-0.79887 5:-0.426443 6:-0.383532 7:-0.885169 8:-0.558463 9:0.141505 10:-0.446835 11:-0.396648 12:-0.312693 13:-0.469688 14:-0.355721 15:-0.29052 16:-0.539125 17:-0.327654 18:-0.339044 
-1 -0 1:-0.759191 2:-0.365476 3:-0.122819 4:-0.695983 5:0.290746 6:0.406 7:-0.852572 8:-0.680528 9:-0.340804 10:-0.339889 11:-0.484637 12:-0.4613 13:-0.334966 14:-0.554726 15:-0.333333 16:-0.328404 17:-0.208388 18:-0.453248 
-1 -1 1:-0.676141 2:-0.685078 3:-0.626657 4:-0.654642 5:-0.651362 6:-0.578684 7:-0.652812 8:-0.65315 9:-0.432108 10:0.0928089 11:-0.24162 12:-0.736842 13:0.077771 14:-0.0597015 15:-0.666667 16:0.0720887 17:0.366972 18:-0.44611 
-1 -0 1:-0.528965 2:-0.0593452 3:-0.221973 4:-0.353031 5:0.836328 6:0.84968 7:-0.653964 8:-0.208196 9:0.638152 10:0.111248 11:0.0796089 12:0.153251 13:0.0434783 14:-0.0982587 15:0.17737 16:-0.0203327 17:0.21363 18:0.114918 
-1 -1 1:-0.287491 2:0.0234379 3:-0.261817 4:-0.141851 5:0.871334 6:0.741765 7:-0.392673 8:-0.0304621 9:0.62825 10:0.398894 11:0.308659 12:0.249226 13:0.350888 14:0.0708955 15:0.266055 16:0.28281 17:0.437746 18:0.226267 
-1 -0 1:-0.67108 2:-0.595792 3:-0.652974 4:-0.682074 5:-0.483958 6:-0.587596 7:-0.738807 8:-0.575004 9:-0.420342 10:-0.261217 11:-0.308659 12:-0.44582 13:-0.0691978 14:-0.109453 15:-0.110092 16:-0.123845 17:-0.0602883 18:-0.152034 
-1 -1 1:-0.996365 2:-0.954498 3:-0.915418 4:-0.970535 5:-0.793675 6:-0.660056 7:-0.998813 8:-1 9:-0.94526 10:-0.895513 11:-0.973464 12:-0.804954 13:-0.968157 14:-1 15:-0.923547 16:-0.845964 17:-0.931848 18:-1 
-1 -1 1:-0.30534 2:0.434127 3:0.404175 4:-0.34254 5:0.217247 6:0.0433098 7:-0.536444 8:-0.139715 9:0.491423 10:0.17394 11:-0.051676 12:-0.0201238 13:0.17575 14:-0.115672 15:-0.318043 16:0.154652 17:0.235911 18:-0.116345 
-1 -0 1:-0.501147 2:-0.0408494 3:-0.200937 4:-0.338665 5:0.850753 6:0.831073 7:-0.628197 8:-0.196342 9:0.684165 10:0.119852 11:0.0796089 12:0.165635 13:0.0900184 14:-0.0945274 15:0.148318 16:0.00800986 17:0.266055 18:0.123483 
-1 -0 1:-0.584039 2:-0.388201 3:-0.455812 4:-0.559603 5:-0.295831 6:-0.392132 7:-0.627631 8:-0.368535 9:0.20855 10:0.0866626 11:-0.00977654 12:-0.188854 13:0.0593999 14:0.0298507 15:-0.125382 16:0.00924214 17:0.17038 18:-0.103498 
-1 -0.7297497214079795 1:-0.536938 2:-0.676432 3:-0.904062 4:-0.580815 5:-0.72447 6:-0.928741 7:-0.562118 8:-0.614635 9:-0.748223 10:0.344806 11:0.52933 12:0.430341 13:0.295775 14:0.656716 15:0.475535 16:0.264325 17:0.724771 18:0.745896 
-1 -0 1:-0.489943 2:-0.0158696 3:-0.130574 4:-0.510092 5:-0.182517 6:0.218691 7:-0.601981 8:-0.552966 9:-0.418048 10:0.127228 11:-0.361732 12:-0.219814 13:0.0740968 14:-0.303483 15:-0.665138 16:0.101664 17:0.42595 18:0.0164168 
-0.1774732882759743 -0 1:-0.972844 2:-0.984029 3:-0.937431 4:-0.973777 5:-0.981032 6:-0.940202 7:-0.973313 8:-0.975245 9:-0.959922 10:-0.767671 11:-0.769553 12:-0.820433 13:-0.830986 14:-0.614428 15:-0.626911 16:-0.889094 17:-0.589777 18:-0.660243 
-1 -1 1:-0.272197 2:0.589654 3:0.541 4:-0.343119 5:-0.103872 6:0.0542011 7:-0.456556 8:-0.283293 9:0.0249358 10:0.18992 11:-0.337989 12:0.133127 13:0.151255 14:0.0410448 15:-0.235474 16:0.18053 17:0.328965 18:0.0492505 
-1 -0 1:-0.687898 2:-0.422056 3:-0.444878 4:-0.664953 5:-0.35853 6:-0.399501 7:-0.742902 8:-0.443399 9:0.177979 10:-0.108789 11:-0.164804 12:-0.239938 13:-0.148806 14:-0.129353 15:-0.204893 16:-0.189156 17:-0.0183486 18:-0.246253 
-1 -0 1:-0.443099 2:-0.0322895 3:-0.230671 4:-0.271368 5:0.856854 6:0.818813 7:-0.5618 8:-0.137 9:0.616915 10:0.22311 11:0.175978 12:0.210526 13:0.151255 14:-0.0460199 15:0.215596 16:0.10536 17:0.348624 18:0.190578 
-1 -1 1:-0.4358 2:-0.240577 3:-0.18922 4:-0.387079 5:0.363951 6:0.260001 7:-0.516779 8:-0.377637 9:-0.190085 10:0.284573 11:-0.0935754 12:-0.328173 13:0.251684 14:-0.307214 15:-0.175841 16:0.324707 17:0.394495 18:-0.139186 
-1 -1 1:-0.314193 2:-0.00712442 3:-0.249385 4:-0.155599 5:0.862396 6:0.76143 7:-0.421819 8:-0.0478585 9:0.689208 10:0.344806 11:0.226257 12:0.30031 13:0.31782 14:0.0497512 15:0.20948 16:0.26679 17:0.458716 18:0.254818 
-1 -0.723617019948971 1:-1 2:-0.962452 3:-0.90214 4:-0.951957 5:-0.871463 6:-0.776335 7:-0.997608 8:-0.976204 9:-0.945448 10:-0.905347 11:-0.937151 12:-0.817337 13:-1 14:-0.871891 15:-0.770642 16:-0.889094 17:-1 18:-0.861527 
-0.2839213917200612 -0 1:-0.894551 2:-0.893901 3:-0.906293 4:-0.869527 5:-0.734473 6:-0.65962 7:-0.89304 8:-0.907354 9:-0.889488 10:-0.38783 11:-0.442737 12:-0.534056 13:-0.429271 14:-0.705224 15:-0.772171 16:-0.441774 17:-0.0104849 18:-0.496074 
-1 -1 1:-0.459283 2:0.00248062 3:-0.125415 4:-0.481563 5:-0.160992 6:0.220101 7:-0.573885 8:-0.523263 9:-0.401991 10:0.186232 11:-0.342179 12:-0.204334 13:0.124311 14:-0.273632 15:-0.649847 16:0.15342 17:0.508519 18:0.0549607 
-1 -1 1:-0.327232 2:-0.19394 3:-0.107065 4:-0.210101 5:0.456954 6:0.377376 7:-0.442091 8:-0.401874 9:-0.317645 10:0.30547 11:0.023743 12:-0.414861 13:0.142682 14:-0.149254 15:-0.357798 16:0.291436 17:0.629096 18:0.301927 
-1 -1 1:-0.490142 2:-0.260555 3:-0.187298 4:-0.443279 5:0.356865 6:0.326987 7:-0.564454 8:-0.429278 9:-0.25589 10:0.216964 11:-0.0879888 12:-0.340557 13:0.216167 14:-0.339552 15:-0.20948 16:0.253235 17:0.356488 18:-0.0920771 
-0 -0.472461968422726 1:-0.887789 2:-0.278559 3:0.23705 4:-0.865403 5:-0.268123 6:0.881786 7:-0.991722 8:-0.911806 9:-0.627351 10:-1 11:-0.977654 12:-0.752322 13:-0.97673 14:-0.874378 15:-0.883792 16:-0.95687 17:-0.828309 18:-0.788722 
-0.2197081018547056 -0 1:-0.837368 2:-0.120432 3:-0.0497953 4:-0.87118 5:-0.352258 6:0.316722 7:-0.990214 8:-0.88426 9:-0.611046 10:-0.815612 11:-0.849162 12:-0.428793 13:-0.939988 14:-0.866915 15:-0.859327 16:-0.853358 17:-0.796855 18:-0.730193 
-1 -0 1:-0.500885 2:-0.469715 3:-0.503808 4:-0.472423 5:-0.370202 6:-0.419609 7:-0.503934 8:-0.447102 9:-0.0579966 10:0.226798 11:0.269553 12:0.0263158 13:0.195346 14:0.172886 15:-0.0152905 16:0.136168 17:0.650066 18:0.0663812 
-1 -0.5470482285543117 1:-0.338963 2:0.593056 3:0.53093 4:-0.410116 5:-0.112321 6:0.0518024 7:-0.520319 8:-0.337475 9:0.0247003 10:0.112477 11:-0.371508 12:0.134675 13:0.072872 14:-0.0584577 15:-0.287462 16:0.0930376 17:0.250328 18:-0.00214133 
-1 -0 1:-0.610354 2:-0.405775 3:-0.456296 4:-0.588181 5:-0.319154 6:-0.396428 7:-0.657784 8:-0.393389 9:0.19118 10:0.0288875 11:-0.0684358 12:-0.229102 13:0.00551133 14:-0.0248756 15:-0.163609 16:-0.0412816 17:0.107471 18:-0.193433 
-1 -1 1:-0.402225 2:-0.311722 3:-0.474954 4:-0.385953 5:-0.222754 6:-0.409003 7:-0.432399 8:-0.228408 9:0.237107 10:0.337431 11:0.22905 12:-0.0990712 13:0.300674 14:0.245025 15:-0.00458716 16:0.255699 17:0.338139 18:0.00927909 
-1 -0 1:-0.479766 2:0.576564 3:0.580647 4:-0.561672 5:-0.197401 6:0.0601754 7:-0.6873 8:-0.47843 9:-0.0261314 10:-0.146896 11:-0.49162 12:0.123839 13:-0.174525 14:-0.232587 15:-0.33792 16:-0.184227 17:0.00131062 18:-0.152034 
-1 -0 1:-0.998631 2:-1 3:-0.941127 4:-1 5:-0.998654 6:-0.942983 7:-1 8:-0.999377 9:-0.972473 10:-0.923786 11:-0.96648 12:-0.879257 13:-0.955909 14:-0.870647 15:-0.755352 16:-0.998768 17:-0.946265 18:-0.874375 
-1 -0 1:-0.451481 2:-0.336715 3:-0.460119 4:-0.437245 5:-0.248427 6:-0.379048 7:-0.495913 8:-0.260057 9:0.235451 10:0.261217 11:0.170391 12:-0.150155 13:0.241886 14:0.152985 15:-0.0214067 16:0.210105 17:0.334207 18:-0.0678087 
-1 -0 1:-0.659908 2:-0.41075 3:-0.445287 4:-0.638205 5:-0.349311 6:-0.393047 7:-0.715042 8:-0.428176 9:0.178121 10:-0.0510141 11:-0.134078 12:-0.247678 13:-0.0704225 14:-0.0758706 15:-0.175841 16:-0.132471 17:0.0602883 18:-0.196288 
-1 -0 1:-0.799457 2:-0.849658 3:-0.883214 4:-0.751999 5:-0.738112 6:-0.759893 7:-0.784528 8:-0.789746 9:-0.821345 10:-0.0731407 11:-0.0530726 12:-0.450464 13:-0.162278 14:-0.223881 15:-0.46789 16:-0.128774 17:0.153342 18:-0.0920771 
-1 -0 1:-0.681949 2:-0.709453 3:-0.855876 4:-0.685586 5:-0.677951 6:-0.777062 7:-0.704902 8:-0.691095 9:-0.711829 10:0.0559312 11:0.0265363 12:-0.0743034 13:-0.00551133 14:-0.0708955 15:-0.368502 16:-0.0314233 17:0.271298 18:-0.100642 
-1 -0 1:-0.627203 2:-0.0938907 3:-0.197189 4:-0.449781 5:0.840322 6:0.911628 7:-0.7636 8:-0.297616 9:0.612731 10:-0.064536 11:-0.0572626 12:0.153251 13:-0.107165 14:-0.175373 15:0.111621 16:-0.212569 17:0.0550459 18:0.0264097 
-1 -0 1:-0.375956 2:0.406854 3:0.474602 4:-0.419344 5:0.175294 6:0.036249 7:-0.627473 8:-0.189522 9:0.469005 10:0.0657652 11:-0.141061 12:-0.0634675 13:0.0606246 14:-0.181592 15:-0.328746 16:0.0757856 17:0.129751 18:-0.123483 
-1 -0 1:-0.593221 2:-0.613722 3:-0.775968 4:-0.55675 5:-0.45528 6:-0.623418 7:-0.604918 8:-0.508704 9:-0.279404 10:0.07437 11:0.212291 12:0.0123839 13:0.0410288 14:0.0348259 15:0.00764526 16:0.0449784 17:0.423329 18:0.114918 
-1 -1 1:-0.456639 2:-0.494318 3:-0.678772 4:-0.465802 5:-0.497736 6:-0.682382 7:-0.466897 8:-0.446816 9:-0.402612 10:0.385372 11:0.417598 12:0.176471 13:0.328843 14:0.396766 15:0.087156 16:0.311152 17:0.642202 18:0.316203 
-1 -0 1:-0.941824 2:-0.758294 3:-0.674601 4:-0.958084 5:-0.824097 6:-0.728059 7:-0.986741 8:-0.888056 9:-0.654665 10:-0.564843 11:-0.477654 12:-0.286378 13:-0.781996 14:-0.640547 15:-0.480122 16:-0.758472 17:-0.522936 18:-0.460385 
-1 -0 1:-0.637753 2:-0.779231 3:-0.966992 4:-0.619124 5:-0.720115 6:-0.903795 7:-0.604475 8:-0.646185 9:-0.696901 10:0.166564 11:-0.00977654 12:-0.459752 13:0.167177 14:0.297264 15:0.058104 16:0.127542 17:0.498034 18:-0.143469 
-1 -0 1:-0.672388 2:-0.431478 3:-0.451133 4:-0.652534 5:-0.36085 6:-0.384119 7:-0.725964 8:-0.443653 9:0.161572 10:-0.0805163 11:-0.138268 12:-0.249226 13:-0.114513 14:-0.114428 15:-0.157492 16:-0.166975 17:0.0183486 18:-0.207709 
-1 -0 1:-0.345372 2:-0.0680387 3:0.121054 4:-0.329668 5:0.00860728 6:0.678414 7:-0.41149 8:-0.401832 9:-0.329892 10:0.139521 11:-0.26257 12:-0.48452 13:0.162278 14:-0.155473 15:-0.66055 16:0.123845 17:0.695937 18:0.44611 
-1 -1 1:-0.430808 2:-0.324107 3:-0.472858 4:-0.409682 5:-0.216464 6:-0.393649 7:-0.46242 8:-0.237016 9:0.219094 10:0.295636 11:0.180168 12:-0.131579 13:0.298224 14:0.211443 15:-0.00611621 16:0.232286 17:0.360419 18:0.0107066 
-1 -0 1:-0.756624 2:-0.702576 3:-0.788058 4:-0.72285 5:-0.552548 6:-0.640187 7:-0.779418 8:-0.65126 9:-0.352125 10:-0.24032 11:-0.103352 12:-0.139319 13:-0.293325 14:-0.212687 15:-0.0733945 16:-0.292668 17:0.120577 18:-0.116345 
-1 -1 1:-0.530002 2:-0.704412 3:-0.935422 4:-0.499214 5:-0.547352 6:-0.789658 7:-0.510461 8:-0.529775 9:-0.62041 10:0.381684 11:0.498603 12:0.349845 13:0.404776 14:0.334577 15:0.0244648 16:0.390018 17:0.694626 18:0.561742 
-1 -1 1:-0.316979 2:0.431876 3:0.420265 4:-0.367618 5:0.207041 6:0.0554623 7:-0.562011 8:-0.154819 9:0.461382 10:0.148125 11:-0.0698324 12:-0.0526316 13:0.143907 14:-0.134328 15:-0.307339 16:0.149723 17:0.211009 18:-0.144897 
-1 -1 1:-0.529695 2:-0.716467 3:-0.953823 4:-0.512233 5:-0.642687 6:-0.881415 7:-0.491023 8:-0.544259 9:-0.635099 10:0.330055 11:0.181564 12:-0.315789 13:0.310472 14:0.46393 15:0.17737 16:0.296365 17:0.559633 18:0.034975 
-1 -0 1:-0.456445 2:-0.240086 3:-0.105003 4:-0.33077 5:0.445243 6:0.402538 7:-0.58371 8:-0.518316 9:-0.353345 10:0.155501 11:-0.117318 12:-0.431889 13:-0.0483772 14:-0.2699 15:-0.431193 16:0.0918053 17:0.496723 18:0.157744 
-1 -0 1:-0.357571 2:0.607602 3:0.546497 4:-0.428258 5:-0.120914 6:0.0375076 7:-0.540735 8:-0.352972 9:-0.00677099 10:0.0817455 11:-0.392458 12:0.131579 13:0.0434783 14:-0.0497512 15:-0.267584 16:0.064695 17:0.231979 18:-0.0292648 
-1 -0 1:-0.382471 2:0.409056 3:0.44526 4:-0.434041 5:0.171005 6:0.0536162 7:-0.636483 8:-0.217935 9:0.484379 10:0.0399508 11:-0.131285 12:-0.0448916 13:0.0251072 14:-0.210199 15:-0.342508 16:0.0240296 17:0.120577 18:-0.184868 
-1 -0 1:-0.642068 2:-0.404447 3:-0.450632 4:-0.615802 5:-0.339047 6:-0.388347 7:-0.687021 8:-0.40942 9:0.192241 10:0.00184388 11:-0.0768156 12:-0.219814 13:-0.0226577 14:-0.0360697 15:-0.14526 16:-0.0757856 17:0.0982962 18:-0.174875 
-1 -0 1:-0.621468 2:-0.571123 3:-0.646278 4:-0.633075 5:-0.450262 6:-0.595739 7:-0.682822 8:-0.535459 9:-0.401009 10:-0.144438 11:-0.23743 12:-0.424149 13:0.0336803 14:-0.0410448 15:-2.22045e-016 16:-0.0277264 17:0.0419397 18:-0.0249822 
-1 -1 1:-0.249683 2:0.580088 3:0.484767 4:-0.320674 5:-0.0688242 6:0.0681495 7:-0.425749 8:-0.2576 9:0.0486423 10:0.212047 11:-0.301676 12:0.145511 13:0.203919 14:0.0621891 15:-0.284404 16:0.218731 17:0.321101 18:0.0963597 
-1 -0 1:-0.423863 2:0.412656 3:0.473356 4:-0.474542 5:0.151672 6:0.0739337 7:-0.683182 8:-0.24063 9:0.464562 10:-0.0338045 11:-0.167598 12:-0.0758514 13:-0.039804 14:-0.25 15:-0.368502 16:-0.0462107 17:0.0209699 18:-0.226267 
-1 -0 1:-0.382662 2:0.587835 3:0.585408 4:-0.457436 5:-0.142693 6:0.0623467 7:-0.575429 8:-0.385352 9:-0.039801 10:0.0460971 11:-0.427374 12:0.0975232 13:0.00428659 14:-0.090796 15:-0.29052 16:0.00924214 17:0.197903 18:-0.0506781 
-0.04773304848092017 -0 1:-0.424545 2:-0.380861 3:-0.283812 4:-0.509847 5:-0.592118 6:-0.709246 7:-0.52357 8:-0.508561 9:-0.549016 10:0.359557 11:0.203911 12:-0.427245 13:0.213717 14:0.307214 15:-0.493884 16:0.20764 17:0.635649 18:0.269094 
-1 -1 1:-0.52962 2:-0.727874 3:-0.895427 4:-0.521389 5:-0.670105 6:-0.868263 7:-0.504003 8:-0.560774 9:-0.678689 10:0.358328 11:0.614525 12:-0.0510836 13:0.336191 14:0.691542 15:0.490826 16:0.333333 17:0.72346 18:0.64454 
-1 -0 1:-0.555524 2:-0.0691853 3:-0.193235 4:-0.382591 5:0.844211 6:0.883396 7:-0.685789 8:-0.234524 9:0.607255 10:0.0719115 11:0.0195531 12:0.150155 13:0.00673607 14:-0.119403 15:0.139144 16:-0.0807147 17:0.197903 18:0.0678087 
-0.2750702468507317 -0 1:-0.571021 2:-0.742413 3:-0.900457 4:-0.567815 5:-0.705213 6:-0.874122 7:-0.550604 8:-0.596236 9:-0.718199 10:0.298095 11:0.590782 12:-0.164087 13:0.31537 14:0.681592 15:0.38685 16:0.256932 17:0.736566 18:0.553176 
-1 -0 1:-0.790341 2:-0.769381 3:-0.867216 4:-0.793092 5:-0.747267 6:-0.780376 7:-0.822178 8:-0.79355 9:-0.774398 10:-0.169023 11:-0.195531 12:-0.201238 13:-0.260257 14:-0.300995 15:-0.51682 16:-0.281577 17:0.0078637 18:-0.331906 
-1 -0 1:-0.425199 2:-0.174006 3:-0.220318 4:-0.541487 5:-0.423916 6:-0.672417 7:-0.590633 8:-0.308344 9:-0.139406 10:0.121082 11:-0.0921788 12:-0.256966 13:0.213717 14:0.195274 15:0.224771 16:0.19162 17:0.21232 18:0.0835118 
-1 -1 1:-0.405237 2:-0.310469 3:-0.467446 4:-0.377738 5:-0.210387 6:-0.396619 7:-0.441023 8:-0.227508 9:0.255387 10:0.304241 11:0.187151 12:-0.125387 13:0.29455 14:0.236318 15:-0.0519878 16:0.275416 17:0.380079 18:-0.0735189 
-1 -0 1:-0.482168 2:-0.248534 3:-0.0838 4:-0.354455 5:0.425926 6:0.424554 7:-0.615 8:-0.550753 9:-0.374644 10:0.0854333 11:-0.128492 12:-0.444272 13:-0.102266 14:-0.288557 15:-0.43578 16:0.0696242 17:0.418087 18:0.116345 
-1 -0 1:-0.557214 2:-0.372759 3:-0.457808 4:-0.533771 5:-0.303821 6:-0.400975 7:-0.599577 8:-0.346113 9:0.194676 10:0.127228 11:0.0111732 12:-0.19969 13:0.0985915 14:0.0310945 15:-0.0902141 16:0.0720887 17:0.192661 18:-0.122056 
-1 -0 1:-0.541004 2:-0.577865 3:-0.779241 4:-0.507068 5:-0.412502 6:-0.615719 7:-0.549282 8:-0.451847 9:-0.247857 10:0.181315 11:0.296089 12:0.136223 13:0.145132 14:0.108209 15:0.0214067 16:0.131238 17:0.512451 18:0.139186 
-1 -0.4766298921726338 1:-0.43342 2:0.65688 3:0.0525648 4:-0.435948 5:0.0799657 6:0.0813764 7:-0.552461 8:-0.323681 9:0.201226 10:0.318992 11:-0.427374 12:0.139319 13:0.282303 14:0.154229 15:0.0107034 16:0.174368 17:0.554391 18:0.219129 
-0.9208692843894976 -0 1:-0.631812 2:-0.0923091 3:-0.198567 4:-0.456892 5:0.836741 6:0.918739 7:-0.769941 8:-0.292282 9:0.637814 10:-0.07437 11:-0.0670391 12:0.103715 13:-0.134109 14:-0.181592 15:0.143731 16:-0.216266 17:0.068152 18:0.0206995 
-1 -0 1:-0.434902 2:0.571054 3:0.6032 4:-0.512506 5:-0.186233 6:0.0457409 7:-0.626027 8:-0.425301 9:-0.0300945 10:-0.0325753 11:-0.446927 12:0.0897833 13:-0.0924679 14:-0.18408 15:-0.304281 16:-0.0930376 17:0.121887 18:-0.152034 
-1 -0 1:-0.6079 2:-0.510723 3:-0.665916 4:-0.65097 5:-0.701561 6:-0.832835 7:-0.659761 8:-0.626079 9:-0.589684 10:0.133374 11:-0.230447 12:-0.416409 13:0.15248 14:0.145522 15:-0.376147 16:0.15342 17:0.397117 18:0.00214133 
-1 -0 1:-0.453187 2:0.567653 3:0.558697 4:-0.528309 5:-0.175403 6:0.0965948 7:-0.656436 8:-0.445387 9:-0.020205 10:-0.0854333 11:-0.460894 12:0.0975232 13:-0.112064 14:-0.201493 15:-0.360856 16:-0.11029 17:0.0694626 18:-0.127766 
-1 -0 1:-0.407408 2:0.576181 3:0.529627 4:-0.478637 5:-0.157675 6:0.0746888 7:-0.598511 8:-0.403804 9:-0.0335679 10:0.00553165 11:-0.420391 12:0.113003 13:-0.0177587 14:-0.131841 15:-0.285933 16:-0.0227973 17:0.120577 18:-0.0706638 
-1 -1 1:-0.420385 2:-0.223441 3:-0.191591 4:-0.358824 5:0.373822 6:0.220649 7:-0.48546 8:-0.393484 9:-0.180193 10:0.307929 11:-0.0349162 12:-0.278638 13:0.287201 14:-0.2699 15:-0.169725 16:0.332101 17:0.442988 18:-0.0620985 
-1 -1 1:-0.292679 2:0.00319269 3:-0.239445 4:-0.134772 5:0.873617 6:0.72053 7:-0.397589 8:-0.0159497 9:0.682779 10:0.369392 11:0.284916 12:0.205882 13:0.337416 14:0.068408 15:0.266055 16:0.287739 17:0.477064 18:0.316203 
-1 -0 1:-0.740881 2:-0.449285 3:-0.442305 4:-0.715956 5:-0.388954 6:-0.388765 7:-0.799732 8:-0.494972 9:0.17093 10:-0.230486 11:-0.255587 12:-0.258514 13:-0.266381 14:-0.199005 15:-0.220183 16:-0.318546 17:-0.146789 18:-0.271949 
-1 -1 1:-0.227296 2:0.443688 3:0.378846 4:-0.273581 5:0.220888 6:0.0379193 7:-0.45137 8:-0.0838254 9:0.508319 10:0.290719 11:0.0335196 12:0.0154799 13:0.300674 14:-0.00124378 15:-0.259939 16:0.263093 17:0.356488 18:0.0392577 
-1 -1 1:-0.227177 2:0.581976 3:0.455565 4:-0.288619 5:-0.0544894 6:0.0223099 7:-0.389415 8:-0.227216 9:0.0833362 10:0.258758 11:-0.298883 12:0.198142 13:0.244336 14:0.145522 15:-0.206422 16:0.244609 17:0.429882 18:0.076374 
-1 -1 1:-0.515836 2:-0.610899 3:-0.618115 4:-0.502313 5:-0.551165 6:-0.566649 7:-0.491526 8:-0.509759 9:-0.376707 10:0.333743 11:-0.0153631 12:-0.623839 13:0.332517 14:0.221393 15:-0.53211 16:0.323475 17:0.591088 18:-0.266238 
-1 -0 1:-0.709681 2:-0.350794 3:-0.131807 4:-0.643349 5:0.309295 6:0.392871 7:-0.801539 8:-0.642792 9:-0.320567 10:-0.202213 11:-0.393855 12:-0.45356 13:-0.190447 14:-0.516169 15:-0.33792 16:-0.173136 17:-0.0419397 18:-0.38187 
-1 -0 1:-0.435162 2:0.406239 3:0.504417 4:-0.49057 5:0.153148 6:0.0763784 7:-0.703097 8:-0.252225 9:0.502114 10:-0.0719115 11:-0.196927 12:-0.0928793 13:-0.0826699 14:-0.283582 15:-0.389908 16:-0.0757856 17:-0.017038 18:-0.227695 
-1 -0 1:-0.471052 2:-0.0401446 3:-0.227985 4:-0.304333 5:0.848308 6:0.826057 7:-0.596924 8:-0.172738 9:0.639429 10:0.153042 11:0.104749 12:0.147059 13:0.124311 14:-0.079602 15:0.181957 16:0.0585336 17:0.292267 18:0.127766 
-1 -1 1:-0.361662 2:0.0297074 3:-0.14853 4:-0.385533 5:-0.115204 6:0.179614 7:-0.468126 8:-0.435973 9:-0.369211 10:0.321451 11:-0.24581 12:-0.130031 13:0.276179 14:-0.151741 15:-0.608563 16:0.285274 17:0.614679 18:0.0992148 
-1 -0 1:-0.600859 2:-0.0844224 3:-0.209063 4:-0.432004 5:0.832036 6:0.897497 7:-0.74178 8:-0.275745 9:0.631101 10:-0.0239705 11:-0.0293296 12:0.123839 13:-0.0740968 14:-0.15796 15:0.129969 16:-0.168207 17:0.0930537 18:0.0549607 
-0.768410823480379 -0 1:-0.539777 2:-0.486082 3:-0.494418 4:-0.50646 5:-0.38194 6:-0.444991 7:-0.549333 8:-0.476656 9:-0.0960592 10:0.15673 11:0.203911 12:-0.00619195 13:0.150031 14:0.143035 15:-0.0718654 16:0.073321 17:0.557012 18:0.0178444 
-1 -1 1:-0.410051 2:0.00945897 3:-0.156627 4:-0.428194 5:-0.136383 6:0.175864 7:-0.50958 8:-0.484018 9:-0.379202 10:0.257529 11:-0.296089 12:-0.143963 13:0.207593 14:-0.192786 15:-0.622324 16:0.202711 17:0.492792 18:0.140614 
-1 -1 1:-0.280946 2:0.42085 3:0.381464 4:-0.325226 5:0.220109 6:0.040698 7:-0.508363 8:-0.115251 9:0.497815 10:0.209588 11:-0.0251397 12:-0.00619195 13:0.210043 14:-0.0820896 15:-0.256881 16:0.19655 17:0.290957 18:-0.0506781 
-1 -0 1:-0.45767 2:-0.578198 3:-0.696059 4:-0.460438 5:-0.545884 6:-0.749805 7:-0.456146 8:-0.510192 9:-0.59449 10:-0.0153657 11:0.136872 12:-0.506192 13:0.00183711 14:0.212687 15:-0.388379 16:-0.038817 17:0.55308 18:0.45182 
-1 -0 1:-0.539316 2:-0.0407958 3:-0.130045 4:-0.557418 5:-0.195301 6:0.225591 7:-0.655021 8:-0.598563 9:-0.463518 10:0.0608482 11:-0.428771 12:-0.256966 13:-0.00183711 14:-0.358209 15:-0.681957 16:0.0154036 17:0.408912 18:-0.0449679 
-1 -0 1:-0.45989 2:-0.33557 3:-0.468013 4:-0.43603 5:-0.238478 6:-0.400417 7:-0.496501 8:-0.267278 9:0.227075 10:0.253841 11:0.142458 12:-0.167183 13:0.233313 14:0.180348 15:-0.0397554 16:0.19162 17:0.33945 18:-0.0749465 
-1 -0 1:-0.573673 2:-0.0727928 3:-0.201082 4:-0.402076 5:0.830266 6:0.879258 7:-0.704977 8:-0.253257 9:0.640232 10:0.0190535 11:-0.00977654 12:0.171827 13:-0.0287814 14:-0.136816 15:0.0978593 16:-0.127542 17:0.171691 18:0.0135617 
-1 -1 1:-0.309487 2:0.592916 3:0.501487 4:-0.376362 5:-0.093655 6:0.0161706 7:-0.488269 8:-0.32532 9:-0.00916719 10:0.138291 11:-0.367318 12:0.185759 13:0.116963 14:-0.0447761 15:-0.218654 16:0.134935 17:0.347313 18:0.089222 
-1 -0 1:-0.471575 2:-0.000489865 3:-0.140213 4:-0.491008 5:-0.167154 6:0.200576 7:-0.580515 8:-0.534787 9:-0.417806 10:0.165335 11:-0.350559 12:-0.190402 13:0.101041 14:-0.283582 15:-0.663609 16:0.127542 17:0.473132 18:0.0192719 
-1 -0 1:-0.997784 2:-0.99919 3:-0.939911 4:-0.999499 5:-0.998215 6:-0.942338 7:-0.999735 8:-0.998486 9:-0.972938 10:-0.920098 11:-0.958101 12:-0.879257 13:-0.957134 14:-0.858209 15:-0.747706 16:-1 17:-0.929227 18:-0.872948 
-1 -0 1:-0.38544 2:-0.0767863 3:0.103616 4:-0.351025 5:-0.0153604 6:0.720515 7:-0.436625 8:-0.431285 9:-0.361984 10:0.12477 11:-0.287709 12:-0.501548 13:0.136558 14:-0.201493 15:-0.678899 16:0.099199 17:0.631717 18:0.354747 
-1 -0 1:-0.416987 2:-0.0164443 3:-0.232052 4:-0.253921 5:0.868202 6:0.764675 7:-0.536007 8:-0.125569 9:0.622619 10:0.24032 11:0.163408 12:0.204334 13:0.195346 14:-0.0323383 15:0.181957 16:0.107825 17:0.334207 18:0.147752 
-1 -0 1:-0.681694 2:-0.338079 3:-0.133718 4:-0.626313 5:0.310688 6:0.373562 7:-0.771931 8:-0.618858 9:-0.315869 10:-0.14075 11:-0.367318 12:-0.417957 13:-0.143907 14:-0.5 15:-0.285933 16:-0.130006 17:0.0563565 18:-0.316203 
-1 -1 1:-0.379048 2:-0.357861 3:-0.28196 4:-0.461303 5:-0.553954 6:-0.734492 7:-0.467973 8:-0.467872 9:-0.522271 10:0.397664 11:0.25419 12:-0.414861 13:0.262707 14:0.339552 15:-0.38685 16:0.2939 17:0.66055 18:0.418986 
-1 -0 1:-0.431739 2:-0.509512 3:-0.766086 4:-0.396677 5:-0.346755 6:-0.61365 7:-0.430793 8:-0.356758 9:-0.208603 10:0.30547 11:0.396648 12:0.147059 13:0.274954 14:0.201493 15:0.117737 16:0.265558 17:0.585845 18:0.320485 
-1 -1 1:-0.369212 2:-0.00766501 3:-0.245984 4:-0.197239 5:0.862539 6:0.793895 7:-0.477216 8:-0.0847317 9:0.68102 10:0.323909 11:0.203911 12:0.216718 13:0.266381 14:0.00248756 15:0.230887 16:0.218731 17:0.351245 18:0.214847 
-1 -0 1:-0.50475 2:-0.343969 3:-0.461729 4:-0.488618 5:-0.268241 6:-0.398335 7:-0.54432 8:-0.311879 9:0.223979 10:0.202213 11:0.0586592 12:-0.160991 13:0.179424 14:0.100746 15:-0.0718654 16:0.113986 17:0.263434 18:-0.137759 
-1 -0 1:-0.551424 2:-0.733404 3:-0.892066 4:-0.547234 5:-0.68433 6:-0.871162 7:-0.527399 8:-0.581841 9:-0.700568 10:0.342348 11:0.52933 12:-0.181115 13:0.325168 14:0.640547 15:0.48318 16:0.281577 17:0.761468 18:0.561742 
-1 -0 1:-0.396608 2:0.407066 3:0.441475 4:-0.44908 5:0.173558 6:0.0632149 7:-0.652791 8:-0.223554 9:0.489541 10:0.0116779 11:-0.148045 12:-0.0371517 13:0.00306185 14:-0.235075 15:-0.360856 16:0.0166359 17:0.0865007 18:-0.186296 
-1 -0 1:-0.890368 2:-0.80853 3:-0.624281 4:-0.872206 5:-0.788965 6:-0.57589 7:-0.883165 8:-0.850222 9:-0.526851 10:-0.491088 11:-0.755587 12:-0.893189 13:-0.477036 14:-0.568408 15:-0.865443 16:-0.502157 17:-0.280472 18:-0.807281 
-1 -1 1:-0.572082 2:-0.283475 3:-0.137042 4:-0.51683 5:0.313437 6:0.34074 7:-0.64688 8:-0.513091 9:-0.263442 10:0.0964966 11:-0.21648 12:-0.400929 13:0.0887936 14:-0.384328 15:-0.275229 16:0.127542 17:0.243775 18:-0.239115 
