svm_type nu_svr
kernel_type rbf
gamma 0.0555556
nr_class 2
total_sv 2594
rho -0.0382105
probA 0.0274367
SV
1 1:0.243366 2:0.673956 3:0.20323 4:0.247886 5:0.558806 6:-0.0981303 7:0.130705 8:0.329837 9:0.735493 10:0.731275 11:0.496917 12:0.133333 13:0.782007 14:0.580952 15:0.0822281 16:0.72754 17:0.810165 18:0.506995 
-1 1:0.740749 2:0.577144 3:-0.390168 4:0.758591 5:0.878342 6:-0.261284 7:0.767468 8:0.787353 9:0.612812 10:0.925672 11:0.902589 12:0.423529 13:0.910035 14:0.742857 15:0.583554 16:0.880211 17:0.878751 18:0.720187 
1 1:0.789324 2:0.601085 3:-0.398555 4:0.811031 5:0.859802 6:-0.196532 7:0.772496 8:0.731395 9:0.558406 10:0.91538 11:0.837238 12:0.32549 13:0.923875 14:0.728571 15:0.404509 16:0.89313 17:0.789345 18:0.786809 
1 1:0.0395668 2:0.745894 3:0.326981 4:-0.00935321 5:0.19814 6:-0.0743291 7:-0.0579137 8:0.0511239 9:0.303729 10:0.597484 11:-0.0357583 12:0.15817 13:0.5594 14:0.441667 15:-0.0795756 16:0.543159 17:0.698714 18:0.416389 
1 1:0.857573 2:0.632295 3:-0.538822 4:0.872162 5:0.798388 6:-0.448508 7:0.86467 8:0.867976 9:0.781237 10:0.948542 11:0.782984 12:0.626144 13:0.926182 14:0.810714 15:0.633952 16:0.916618 17:0.915493 18:0.801466 
1 1:0.862923 2:0.628394 3:-0.41451 4:0.884982 5:0.919176 6:-0.215519 7:0.851562 8:0.791765 9:0.714143 10:0.941681 11:0.854501 12:0.457516 13:0.935409 14:0.788095 15:0.437666 16:0.908397 17:0.873852 18:0.826782 
1 1:0.6851 2:0.672977 3:-0.368568 4:0.695588 5:0.682609 6:-0.402554 7:0.664189 8:0.738138 9:0.717583 10:0.950829 11:0.828607 12:0.592157 13:0.935409 14:0.85 15:0.820955 16:0.897827 17:0.855481 18:0.804131 
1 1:0.442636 2:0.339931 3:-0.361021 4:0.474958 5:0.674782 6:-0.193523 7:0.433173 8:0.449353 9:0.345398 10:0.876501 11:0.871763 12:0.235294 13:0.868512 14:0.554762 15:0.375332 16:0.862595 17:0.844458 18:0.680213 
1 1:0.722819 2:0.505563 3:-0.573463 4:0.730822 5:0.602039 6:-0.441418 7:0.746313 8:0.706126 9:0.555843 10:0.891366 11:0.805179 12:0.522876 13:0.859285 14:0.779762 15:0.624668 16:0.860247 17:0.844458 18:0.7002 
-1 1:0.765379 2:0.711504 3:-0.43913 4:0.791473 5:0.730395 6:-0.273851 7:0.780466 8:0.72342 9:0.528199 10:0.890223 11:0.806412 12:0.50719 13:0.931949 14:0.925 15:0.397878 16:0.891955 17:0.889773 18:0.877415 
1 1:0.863463 2:0.816849 3:-0.366523 4:0.878936 5:0.761432 6:-0.355143 7:0.847628 8:0.849606 9:0.702867 10:0.887936 11:0.673243 12:0.837908 13:0.930796 14:0.846429 15:0.525199 16:0.852026 17:0.890998 18:0.777482 
-1 1:0.424719 2:0.63224 3:-0.184464 4:0.394337 5:0.395045 6:-0.330838 7:0.372895 8:0.425227 9:0.371595 10:0.758719 11:0.37238 12:0.466667 13:0.806228 14:0.754762 15:0.312997 16:0.788608 17:0.843233 18:0.676216 
1 1:0.436303 2:0.620487 3:-0.236867 4:0.423467 5:0.40322 6:-0.370903 7:0.40546 8:0.415488 9:0.463587 10:0.84677 11:0.454994 12:0.515033 13:0.829296 14:0.729762 15:0.381963 16:0.802701 17:0.866503 18:0.721519 
-1 1:0.171414 2:0.200516 3:-0.305995 4:0.200936 5:0.602483 6:-0.0126582 7:0.146703 8:0.177234 9:0.230549 10:0.798742 11:0.701603 12:0.0679739 13:0.769319 14:0.359524 15:0.12069 16:0.751028 17:0.822413 18:0.477682 
-1 1:0.101981 2:0.146587 3:-0.33789 4:0.165327 5:0.52912 6:-0.0273695 7:0.0475111 8:0.0718032 9:0.100889 10:0.408805 11:0.346486 12:-0.103268 13:0.372549 14:0.340476 15:-0.0570292 16:0.307105 17:0.489284 18:0.33511 
1 1:0.803252 2:0.519665 3:-0.647147 4:0.800162 5:0.654216 6:-0.528948 7:0.802281 8:0.770835 9:0.570268 10:0.925672 11:0.882861 12:0.694118 13:0.931949 14:0.815476 15:0.624668 16:0.899002 17:0.876301 18:0.818787 
1 1:0.489292 2:0.382086 3:-0.450594 4:0.521337 5:0.658094 6:-0.221264 7:0.469478 8:0.469806 9:0.399374 10:0.897084 11:0.77312 12:0.35817 13:0.89158 14:0.716667 15:0.293103 16:0.881386 17:0.816289 18:0.76016 
-1 1:0.519461 2:0.399622 3:-0.5535 4:0.534088 5:0.527971 6:-0.421165 7:0.533397 8:0.579376 9:0.58246 10:0.885649 11:0.790382 12:0.547712 13:0.885813 14:0.802381 15:0.596817 16:0.906048 17:0.848132 18:0.806795 
1 1:0.763596 2:0.739488 3:-0.244498 4:0.763764 5:0.76957 6:-0.343291 7:0.752466 8:0.762966 9:0.705518 10:0.939394 11:0.822441 12:0.401307 13:0.953864 14:0.829762 15:0.660477 16:0.886083 17:0.846908 18:0.562958 
1 1:0.345907 2:0.652368 3:-0.0984167 4:0.354969 5:0.526326 6:0.03958 7:0.299074 8:0.321063 9:0.328082 10:0.602058 11:0.263872 12:0.096732 13:0.55248 14:0.484524 15:-0.233422 16:0.486788 17:0.674219 18:0.68954 
1 1:0.811153 2:0.666529 3:-0.470395 4:0.823023 5:0.677992 6:-0.328219 7:0.80844 8:0.806668 9:0.561611 10:0.893654 11:0.722565 12:0.644444 13:0.944637 14:0.807143 15:0.574271 16:0.869642 17:0.889773 18:0.812125 
1 1:-0.330624 2:0.188245 3:-0.0314703 4:-0.344917 5:-0.0284484 6:0.0764708 7:-0.405341 8:-0.36716 9:-0.23483 10:0.584906 11:-0.080148 12:-0.231373 13:0.55248 14:0.0488095 15:-0.627321 16:0.514974 17:0.730557 18:0.33511 
-1 1:0.337585 2:0.282866 3:-0.460801 4:0.371229 5:0.557033 6:-0.229469 7:0.301914 8:0.292145 9:0.24588 10:0.851344 11:0.701603 12:0.2 13:0.832757 14:0.627381 15:0.21618 16:0.848503 17:0.795468 18:0.677548 
1 1:-0.447362 2:-0.242334 3:-0.484117 4:-0.423122 5:-0.172771 6:-0.420875 7:-0.473171 8:-0.295135 9:0.229146 10:0.435106 11:0.289766 12:-0.101961 13:0.445213 14:0.259524 15:-0.0981432 16:0.386964 17:0.485609 18:0.0259827 
1 1:0.600073 2:0.387288 3:-0.604929 4:0.604139 5:0.479661 6:-0.494667 7:0.621834 8:0.57309 9:0.537724 10:0.87307 11:0.776819 12:0.627451 13:0.856978 14:0.8 15:0.599469 16:0.854375 17:0.871402 18:0.762825 
-1 1:0.15221 2:0.578286 3:0.0614655 4:0.119706 5:0.225311 6:-0.253758 7:0.0799842 8:0.134379 9:0.238012 10:0.782733 11:0.219482 12:0.27451 13:0.77624 14:0.582143 15:-0.00265252 16:0.773341 17:0.783221 18:0.46036 
-1 1:0.390413 2:0.505939 3:-0.343349 4:0.393993 5:0.456875 6:-0.163764 7:0.355049 8:0.385177 9:0.353557 10:0.907376 11:0.646116 12:0.227451 13:0.84083 14:0.682143 15:-0.0835544 16:0.887258 17:0.827312 18:0.704197 
-1 1:0.539918 2:0.309564 3:-0.668556 4:0.554155 5:0.394808 6:-0.599874 7:0.568218 8:0.519083 9:0.343028 10:0.883362 11:0.805179 12:0.601307 13:0.919262 14:0.786905 15:0.668435 16:0.910746 17:0.856705 18:0.810793 
1 1:0.490966 2:0.377816 3:-0.359144 4:0.514005 5:0.734426 6:-0.13766 7:0.487201 8:0.479057 9:0.405075 10:0.923385 11:0.845869 12:0.188235 13:0.899654 14:0.603571 15:0.257294 16:0.897827 17:0.866503 18:0.620253 
-1 1:0.404572 2:0.408524 3:-0.493714 4:0.456508 5:0.727118 6:-0.132283 7:0.378251 8:0.439923 9:0.551864 10:0.885649 11:0.733662 12:0.603922 13:0.843137 14:0.622619 15:0.545093 16:0.825015 17:0.783221 18:0.554963 
-1 1:0.00126376 2:0.242565 3:-0.00923121 4:0.0287905 5:0.689455 6:0.288859 7:-0.0481557 8:0.0493964 9:0.191802 10:0.496855 11:0.437731 12:-0.282353 13:0.442907 14:0.025 15:-0.147215 16:0.394011 17:0.643601 18:0.239174 
-1 1:0.849139 2:0.76596 3:-0.445524 4:0.854698 5:0.804279 6:-0.264413 7:0.843712 8:0.857775 9:0.642197 10:0.887936 11:0.821208 12:0.603922 13:0.918108 14:0.840476 15:0.481432 16:0.899002 17:0.8812 18:0.796136 
-1 1:0.416421 2:0.596472 3:-0.113051 4:0.424027 5:0.535437 6:-0.272474 7:0.369906 8:0.483633 9:0.66305 10:0.877644 11:0.678175 12:0.303268 13:0.867359 14:0.795238 15:0.428382 16:0.830887 17:0.821188 18:0.616256 
-1 1:0.699982 2:0.441709 3:-0.6816 4:0.689615 5:0.594288 6:-0.535668 7:0.714599 8:0.682828 9:0.431199 10:0.927959 11:0.848335 12:0.545098 13:0.919262 14:0.828571 15:0.763926 16:0.904874 17:0.846908 18:0.812125 
-1 1:0.690767 2:0.605449 3:-0.424761 4:0.719419 5:0.952068 6:-0.0693317 7:0.670619 8:0.74025 9:0.881735 10:0.914237 11:0.828607 12:0.602614 13:0.890427 14:0.833333 15:0.602122 16:0.847328 17:0.853031 18:0.638907 
-1 1:0.476227 2:0.651028 3:-0.226394 4:0.439614 5:0.466629 6:-0.33881 7:0.443759 8:0.46964 9:0.415194 10:0.803316 11:0.435265 12:0.515033 13:0.7797 14:0.644048 15:0.309019 16:0.731063 17:0.755052 18:0.670886 
1 1:0.497511 2:0.277067 3:-0.600543 4:0.505596 5:0.416997 6:-0.533067 7:0.504868 8:0.473628 9:0.505608 10:0.867353 11:0.807645 12:0.6 13:0.876586 14:0.765476 15:0.722812 16:0.825015 17:0.81384 18:0.614923 
1 1:0.272588 2:0.231056 3:-0.578679 4:0.2828 5:0.276658 6:-0.443265 7:0.27161 8:0.324129 9:0.463325 10:0.861635 11:0.697904 12:0.49281 13:0.84083 14:0.728571 15:0.496021 16:0.810922 17:0.767299 18:0.630913 
1 1:0.746215 2:0.612525 3:-0.398865 4:0.758924 5:0.652367 6:-0.170293 7:0.750576 8:0.680414 9:0.642229 10:0.927959 11:0.780518 12:0.269281 13:0.925029 14:0.872619 15:0.107427 16:0.855549 17:0.832211 18:0.733511 
1 1:0.304296 2:0.254762 3:-0.37249 4:0.323623 5:0.622375 6:-0.0844085 7:0.282258 8:0.322943 9:0.296944 10:0.935963 11:0.827374 12:0.177778 13:0.886967 14:0.504762 15:0.208223 16:0.899002 17:0.862829 18:0.589607 
-1 1:0.971377 2:0.738926 3:-0.436538 4:0.989941 5:0.915353 6:-0.311712 7:0.956523 8:0.963499 9:0.779491 10:0.978273 11:0.884094 12:0.6 13:0.935409 14:0.760714 15:0.742706 16:0.933059 17:0.861604 18:0.670886 
-1 1:0.930581 2:0.710673 3:-0.452296 4:0.97574 5:0.79868 6:-0.253602 7:0.959366 8:0.860967 9:0.739449 10:0.950829 11:0.852035 12:0.667974 13:0.970012 14:0.869048 15:0.405836 16:0.948326 17:0.795468 18:0.920053 
-1 1:0.847284 2:0.683964 3:-0.461961 4:0.884058 5:0.878924 6:-0.278142 7:0.859045 8:0.815029 9:0.697031 10:0.909663 11:0.872996 12:0.551634 13:0.915802 14:0.832143 15:0.440318 16:0.88256 17:0.839559 18:0.744171 
-0.08452694804178131 1:0.454746 2:0.737611 3:-0.0556108 4:0.443687 5:0.447181 6:-0.293748 7:0.421748 8:0.47704 9:0.462324 10:0.855918 11:0.416769 12:0.439216 13:0.855825 14:0.685714 15:0.374005 16:0.876688 17:0.804042 18:0.701532 
1 1:0.380907 2:0.302359 3:-0.504682 4:0.400725 5:0.427874 6:-0.41854 7:0.373428 8:0.449759 9:0.511946 10:0.882218 11:0.766954 12:0.445752 13:0.89504 14:0.746429 15:0.503979 16:0.881386 17:0.821188 18:0.688208 
1 1:0.692554 2:0.516598 3:-0.555834 4:0.710587 5:0.652703 6:-0.464952 7:0.714322 8:0.723039 9:0.649505 10:0.883362 11:0.762022 12:0.759477 13:0.890427 14:0.829762 15:0.881963 16:0.88256 17:0.876301 18:0.610926 
0.9603525935734358 1:0.313774 2:0.534483 3:-0.128242 4:0.321894 5:0.476226 6:-0.287788 7:0.259423 8:0.371044 9:0.56709 10:0.839909 11:0.715166 12:0.207843 13:0.866205 14:0.790476 15:0.355438 16:0.820317 17:0.81384 18:0.618921 
1 1:0.652974 2:0.761252 3:-0.231075 4:0.677182 5:0.611036 6:-0.361375 7:0.629312 8:0.637498 9:0.560979 10:0.868496 11:0.646116 12:0.569935 13:0.871972 14:0.79881 15:0.417772 16:0.862595 17:0.851806 18:0.816123 
1 1:0.332442 2:0.258537 3:-0.505259 4:0.369261 5:0.524016 6:-0.279133 7:0.306534 8:0.320002 9:0.192421 10:0.791881 11:0.711467 12:0.27451 13:0.806228 14:0.692857 15:0.328912 16:0.79448 17:0.778322 18:0.622918 
1 1:0.665885 2:0.512142 3:-0.425819 4:0.691114 5:0.596464 6:-0.27423 7:0.68432 8:0.607651 9:0.427412 10:0.909663 11:0.803946 12:0.456209 13:0.908881 14:0.839286 15:0.246684 16:0.888432 17:0.849357 18:0.778814 
-1 1:0.932694 2:0.689742 3:-0.472846 4:0.962913 5:0.841405 6:-0.324165 7:0.932277 8:0.861896 9:0.681065 10:0.921098 11:0.808878 12:0.627451 13:0.922722 14:0.838095 15:0.632626 16:0.891955 17:0.850582 18:0.832112 
1 1:0.255214 2:0.13858 3:-0.566112 4:0.271802 5:0.205061 6:-0.543467 7:0.258112 8:0.242709 9:0.27758 10:0.813608 11:0.762022 12:0.318954 13:0.844291 14:0.689286 15:0.408488 16:0.789783 17:0.769749 18:0.554963 
-1 1:0.857952 2:0.833643 3:-0.299083 4:0.838732 5:0.758612 6:-0.294879 7:0.83202 8:0.817753 9:0.631522 10:0.893654 11:0.686806 12:0.70719 13:0.905421 14:0.882143 15:0.442971 16:0.8532 17:0.870178 18:0.757495 
-1 1:-0.130307 2:0.0943229 3:-0.389218 4:-0.0389054 5:0.568054 6:0.191044 7:-0.162507 8:0.0153738 9:0.479901 10:0.639794 11:0.54254 12:0.15817 13:0.579008 14:0.291667 15:0.198939 16:0.620669 17:0.592162 18:0.364424 
1 1:-0.00772096 2:0.0933881 3:-0.353581 4:0.0417022 5:0.457666 6:-0.0545528 7:-0.0532924 8:-0.0297236 9:0.00274123 10:0.603202 11:0.453761 12:-0.113725 13:0.570934 14:0.314286 15:-0.148541 16:0.553729 17:0.628904 18:0.562958 
-1 1:0.054975 2:0.183254 3:-0.480613 4:0.113181 5:0.577166 6:0.0611153 7:0.0266624 8:0.157857 9:0.489977 10:0.629503 11:0.515413 12:0.223529 13:0.585928 14:0.37619 15:0.350133 16:0.600705 17:0.633803 18:0.50433 
1 1:0.535323 2:0.542371 3:-0.434966 4:0.570608 5:0.562616 6:-0.220165 7:0.53935 8:0.509039 9:0.471618 10:0.894797 11:0.717633 12:0.430065 13:0.89504 14:0.738095 15:0.202918 16:0.883735 17:0.821188 18:0.76549 
-0.1064482922331025 1:0.756291 2:0.719857 3:-0.441262 4:0.776373 5:0.699182 6:-0.28841 7:0.764374 8:0.731548 9:0.521719 10:0.894797 11:0.727497 12:0.423529 13:0.958478 14:0.89881 15:0.450928 16:0.884909 17:0.842009 18:0.736176 
1 1:0.437442 2:0.586231 3:-0.201689 4:0.448045 5:0.560482 6:-0.299117 7:0.392978 8:0.479971 9:0.636324 10:0.871927 11:0.755857 12:0.402614 13:0.865052 14:0.777381 15:0.522546 16:0.832061 17:0.851806 18:0.780147 
1 1:0.448039 2:0.419392 3:-0.509919 4:0.489338 5:0.712555 6:-0.117407 7:0.433936 8:0.519093 9:0.604857 10:0.875357 11:0.803946 12:0.552941 13:0.854671 14:0.686905 15:0.635279 16:0.841456 17:0.801592 18:0.584277 
-1 1:0.487982 2:0.404341 3:-0.47718 4:0.53496 5:0.622143 6:-0.248431 7:0.494715 8:0.451265 9:0.361636 10:0.885649 11:0.7127 12:0.326797 13:0.898501 14:0.67619 15:0.251989 16:0.895479 17:0.838334 18:0.698867 
1 1:0.658478 2:0.468774 3:-0.4651 4:0.686545 5:0.743683 6:-0.312995 7:0.666352 8:0.634739 9:0.534207 10:0.898228 11:0.779285 12:0.379085 13:0.896194 14:0.779762 15:0.498674 16:0.903699 17:0.859155 18:0.786809 
1 1:0.762557 2:0.672074 3:-0.396208 4:0.773858 5:0.743962 6:-0.2681 7:0.779583 8:0.778081 9:0.661291 10:0.895941 11:0.717633 12:0.520261 13:0.912341 14:0.842857 15:0.323607 16:0.914269 17:0.853031 18:0.736176 
-1 1:0.906447 2:0.713145 3:-0.430569 4:0.92652 5:0.978523 6:-0.284116 7:0.913975 8:0.894386 9:0.716152 10:0.942824 11:0.876695 12:0.55817 13:0.966551 14:0.754762 15:0.660477 16:0.896653 17:0.947336 18:0.62425 
1 1:0.781418 2:0.577725 3:-0.391057 4:0.785791 5:0.830581 6:-0.281659 7:0.772624 8:0.796647 9:0.578999 10:0.916524 11:0.893958 12:0.326797 13:0.950404 14:0.704762 15:0.530504 16:0.889607 17:0.888549 18:0.725516 
1 1:-0.0237082 2:0.154212 3:-0.443127 4:0.0404873 5:0.584804 6:0.125782 7:-0.0451999 8:0.0712109 9:0.458892 10:0.780446 11:0.578298 12:0.23268 13:0.743945 14:0.386905 15:0.342175 16:0.762772 17:0.751378 18:0.518987 
1 1:0.769054 2:0.534026 3:-0.570258 4:0.797777 5:0.656146 6:-0.457706 7:0.812524 8:0.772573 9:0.657963 10:0.923385 11:0.763255 12:0.566013 13:0.927336 14:0.794048 15:0.83687 16:0.867293 17:0.812615 18:0.756163 
1 1:0.568088 2:0.324368 3:-0.684398 4:0.585534 5:0.444869 6:-0.561889 7:0.598721 8:0.555292 9:0.364774 10:0.922241 11:0.854501 12:0.610458 13:0.930796 14:0.92381 15:0.618037 16:0.920141 17:0.921617 18:0.761492 
1 1:0.283443 2:0.0779434 3:-0.758685 4:0.3002 5:0.178811 6:-0.671874 7:0.294722 8:0.282358 9:0.104634 10:0.902802 11:0.880395 12:0.512418 13:0.889273 14:0.808333 15:0.718833 16:0.879037 17:0.848132 18:0.864091 
1 1:0.472245 2:0.344152 3:-0.570578 4:0.500191 5:0.469097 6:-0.46669 7:0.472855 8:0.514757 9:0.523817 10:0.906232 11:0.800247 12:0.6 13:0.905421 14:0.789286 15:0.713528 16:0.8532 17:0.844458 18:0.750833 
1 1:0.0980832 2:0.485287 3:-0.0339647 4:0.0994545 5:0.34793 6:0.0979481 7:0.0375832 8:0.0699247 9:0.105432 10:0.622642 11:0.228113 12:-0.132026 13:0.573241 14:0.364286 15:-0.396552 16:0.489137 17:0.644825 18:0.610926 
1 1:0.8456 2:0.583203 3:-0.525942 4:0.847424 5:0.717031 6:-0.454543 7:0.876567 8:0.865892 9:0.639942 10:0.907376 11:0.868064 12:0.541176 13:0.918108 14:0.859524 15:0.799735 16:0.862595 17:0.870178 18:0.740173 
1 1:0.805329 2:0.640181 3:-0.52353 4:0.836143 5:0.850946 6:-0.201624 7:0.817367 8:0.786846 9:0.754243 10:0.909663 11:0.833539 12:0.562092 13:0.896194 14:0.859524 15:0.736074 16:0.877863 17:0.835885 18:0.600266 
-1 1:0.0356209 2:0.463695 3:0.11666 4:0.0223376 5:0.351931 6:-0.183982 7:-0.0692368 8:0.119318 9:0.527212 10:0.811321 11:0.389642 12:0.142484 13:0.810842 14:0.396429 15:-0.096817 16:0.799178 17:0.653399 18:0.341772 
-1 1:0.345759 2:0.285048 3:-0.533044 4:0.365692 5:0.389014 6:-0.453111 7:0.351355 8:0.416765 9:0.526116 10:0.838765 11:0.723798 12:0.470588 13:0.854671 14:0.754762 15:0.537135 16:0.814445 17:0.832211 18:0.64024 
1 1:0.287467 2:0.58769 3:-0.0965189 4:0.274726 5:0.332524 6:-0.307109 7:0.232698 8:0.250413 9:0.277479 10:0.767867 11:0.298397 12:0.470588 13:0.790081 14:0.64881 15:0.269231 16:0.69818 17:0.719535 18:0.737508 
1 1:0.328352 2:0.483581 3:-0.0445324 4:0.358039 5:0.522843 6:0.233782 7:0.324383 8:0.286453 9:0.268168 10:0.669525 11:0.435265 12:-0.192157 13:0.67128 14:0.470238 15:-0.374005 16:0.637111 17:0.69259 18:0.660227 
1 1:0.713903 2:0.740156 3:-0.304016 4:0.734431 5:0.63492 6:-0.372073 7:0.731347 8:0.670221 9:0.626955 10:0.886792 11:0.725031 12:0.611765 13:0.911188 14:0.771429 15:0.534483 16:0.862595 17:0.810165 18:0.893404 
-1 1:0.85409 2:0.705511 3:-0.367268 4:0.879593 5:0.804186 6:-0.296442 7:0.850374 8:0.833643 9:0.671125 10:0.886792 11:0.76942 12:0.477124 13:0.920415 14:0.783333 15:0.413793 16:0.899002 17:0.800367 18:0.717522 
1 1:0.710889 2:0.535068 3:-0.574192 4:0.736804 5:0.650198 6:-0.460554 7:0.729345 8:0.739074 9:0.679325 10:0.918811 11:0.844636 12:0.695425 13:0.880046 14:0.84881 15:0.681698 16:0.877863 17:0.815064 18:0.70553 
1 1:0.787193 2:0.587736 3:-0.442214 4:0.79768 5:0.696586 6:-0.238414 7:0.79438 8:0.731508 9:0.590919 10:0.922241 11:0.856967 12:0.522876 13:0.926182 14:0.889286 15:0.214854 16:0.91192 17:0.83466 18:0.858761 
1 1:0.843774 2:0.659143 3:-0.404904 4:0.866332 5:0.906897 6:-0.178067 7:0.842648 8:0.808507 9:0.666579 10:0.974843 11:0.84217 12:0.426144 13:0.928489 14:0.738095 15:0.421751 16:0.906048 17:0.864054 18:0.876083 
-1 1:0.0827693 2:0.189193 3:-0.249142 4:0.101486 5:0.237412 6:0.0128031 7:0.0699376 8:0.0381439 9:0.0748706 10:0.821612 11:0.520345 12:-0.177778 13:0.846597 14:0.558333 15:-0.363395 16:0.829712 17:0.800367 18:0.534977 
-1 1:0.257927 2:0.0549571 3:-0.774266 4:0.270162 5:0.147108 6:-0.671413 7:0.277839 8:0.256382 9:0.0808217 10:0.868496 11:0.803946 12:0.541176 13:0.853518 14:0.788095 15:0.712202 16:0.842631 17:0.851806 18:0.698867 
1 1:0.781906 2:0.745305 3:-0.289801 4:0.781729 5:0.791561 6:-0.309159 7:0.755421 8:0.768994 9:0.75816 10:0.93825 11:0.861899 12:0.512418 13:0.930796 14:0.77619 15:0.450928 16:0.940106 17:0.872627 18:0.741506 
-1 1:0.306205 2:0.30325 3:-0.294385 4:0.323177 5:0.376668 6:-0.0268706 7:0.299739 8:0.253769 9:0.214771 10:0.86964 11:0.690506 12:0.0732026 13:0.836217 14:0.685714 15:-0.265252 16:0.861421 17:0.861604 18:0.626915 
-1 1:0.219058 2:0.263335 3:-0.242678 4:0.239426 5:0.62669 6:-0.00599883 7:0.204373 8:0.245827 9:0.24264 10:0.806747 11:0.721332 12:-0.0326797 13:0.770473 14:0.453571 15:0.1313 16:0.763946 17:0.843233 18:0.529647 
1 1:0.799722 2:0.71647 3:-0.36162 4:0.803642 5:0.744269 6:-0.342649 7:0.782991 8:0.795459 9:0.713285 10:0.924528 11:0.834772 12:0.539869 13:0.94233 14:0.839286 15:0.564987 16:0.88256 17:0.839559 18:0.804131 
-1 1:0.473247 2:0.295641 3:-0.554421 4:0.491261 5:0.412168 6:-0.495512 7:0.493679 8:0.47446 9:0.456391 10:0.833047 11:0.905055 12:0.360784 13:0.847751 14:0.741667 15:0.77321 16:0.840282 17:0.79057 18:0.726849 
-1 1:0.915131 2:0.829582 3:-0.438322 4:0.932093 5:0.818203 6:-0.359958 7:0.914189 8:0.889716 9:0.627041 10:0.910806 11:0.805179 12:0.589542 13:0.958478 14:0.869048 15:0.555703 16:0.913095 17:0.81139 18:0.877415 
1 1:0.348215 2:0.320009 3:-0.36344 4:0.373475 5:0.612263 6:-0.179423 7:0.347772 8:0.354984 9:0.363154 10:0.913093 11:0.771887 12:0.0980392 13:0.882353 14:0.617857 15:0.340849 16:0.856723 17:0.851806 18:0.506995 
-1 1:0.783052 2:0.772442 3:-0.315342 4:0.780408 5:0.786367 6:-0.362455 7:0.779749 8:0.791866 9:0.769607 10:0.919954 11:0.790382 12:0.633987 13:0.946943 14:0.857143 15:0.689655 16:0.913095 17:0.833435 18:0.692205 
1 1:0.618342 2:0.578834 3:-0.403525 4:0.610653 5:0.599882 6:-0.252936 7:0.60203 8:0.586893 9:0.492112 10:0.897084 11:0.743527 12:0.585621 13:0.876586 14:0.791667 15:0.249337 16:0.855549 17:0.846908 18:0.716189 
-1 1:0.247029 2:0.0458752 3:-0.756556 4:0.253181 5:0.129364 6:-0.679206 7:0.250205 8:0.216119 9:0.0881768 10:0.844483 11:0.723798 12:0.577778 13:0.851211 14:0.79881 15:0.676393 16:0.817968 17:0.804042 18:0.712192 
1 1:0.81888 2:0.520037 3:-0.666187 4:0.830138 5:0.670244 6:-0.527608 7:0.843967 8:0.78008 9:0.589884 10:0.945111 11:0.863132 12:0.538562 13:0.940023 14:0.805952 15:0.802387 16:0.906048 17:0.85793 18:0.80946 
1 1:0.727639 2:0.551256 3:-0.417277 4:0.765709 5:0.800749 6:-0.300776 7:0.720781 8:0.713089 9:0.599968 10:0.924528 11:0.856967 12:0.40915 13:0.923875 14:0.746429 15:0.580902 16:0.89313 17:0.823637 18:0.804131 
1 1:0.688676 2:0.516598 3:-0.573187 4:0.705043 5:0.645695 6:-0.427925 7:0.700876 8:0.709718 9:0.709743 10:0.908519 11:0.807645 12:0.626144 13:0.901961 14:0.811905 15:0.725464 16:0.889607 17:0.855481 18:0.810793 
1 1:0.105992 2:0.16477 3:-0.318939 4:0.129678 5:0.499289 6:-0.0900434 7:0.0860335 8:0.124806 9:0.194777 10:0.866209 11:0.738594 12:-0.0405229 13:0.854671 14:0.415476 15:0.169761 16:0.843805 17:0.823637 18:0.537642 
-1 1:0.204313 2:0.240291 3:-0.32373 4:0.252734 5:0.556512 6:-0.0805972 7:0.174999 8:0.17929 9:0.194958 10:0.844483 11:0.663379 12:0.0326797 13:0.800461 14:0.514286 15:0.0809019 16:0.839107 17:0.821188 18:0.696203 
1 1:0.688119 2:0.423834 3:-0.670252 4:0.719535 5:0.585442 6:-0.561502 7:0.735911 8:0.683046 9:0.43719 10:0.916524 11:0.852035 12:0.546405 13:0.916955 14:0.841667 15:0.702918 16:0.895479 17:0.829761 18:0.784144 
1 1:0.842875 2:0.660463 3:-0.542655 4:0.87473 5:0.814055 6:-0.420432 7:0.881264 8:0.878915 9:0.784354 10:0.945111 11:0.845869 12:0.571242 13:0.920415 14:0.792857 15:0.679045 16:0.869642 17:0.866503 18:0.664224 
1 1:0.721607 2:0.537037 3:-0.516042 4:0.727266 5:0.73335 6:-0.373732 7:0.718072 8:0.70156 9:0.528435 10:0.908519 11:0.815043 12:0.437908 13:0.906574 14:0.753571 15:0.558355 16:0.907223 17:0.908145 18:0.878748 
-1 1:-0.238982 2:-0.352562 3:-0.846624 4:-0.230567 5:-0.296038 6:-0.786477 7:-0.224032 8:-0.243278 9:-0.330578 10:0.829617 11:0.726264 12:0.10719 13:0.802768 14:0.719048 15:0.5 16:0.792132 17:0.729333 18:0.632245 
-1 1:0.687847 2:0.639943 3:-0.357124 4:0.698294 5:0.65063 6:-0.208644 7:0.692302 8:0.681318 9:0.58942 10:0.86964 11:0.725031 12:0.413072 13:0.94233 14:0.753571 15:0.18435 16:0.888432 17:0.875077 18:0.669554 
1 1:-0.100328 2:0.0352039 3:-0.270096 4:-0.0780552 5:0.43548 6:0.0330801 7:-0.136645 8:-0.0646758 9:0.0540998 10:0.829617 11:0.574599 12:-0.128105 13:0.811995 14:0.154762 15:-0.0702918 16:0.836759 17:0.796693 18:0.301799 
1 1:0.782048 2:0.575608 3:-0.449756 4:0.788928 5:0.893962 6:-0.27459 7:0.799037 8:0.782458 9:0.609299 10:0.923385 11:0.847102 12:0.453595 13:0.922722 14:0.753571 15:0.64191 16:0.944803 17:0.895897 18:0.733511 
1 1:0.180819 2:0.242546 3:-0.506662 4:0.25251 5:0.576688 6:-0.0677447 7:0.171397 8:0.265865 9:0.486219 10:0.682104 11:0.686806 12:0.44183 13:0.711649 14:0.55 15:0.396552 16:0.673517 17:0.637477 18:0.616256 
1 1:-0.212355 2:0.0193078 3:-0.0853298 4:-0.188549 5:0.457355 6:0.166385 7:-0.270752 8:-0.185352 9:0.0517259 10:0.682104 11:0.321825 12:-0.350327 13:0.677047 14:0.0309524 15:-0.187003 16:0.634762 17:0.649724 18:0.135243 
1 1:0.770174 2:0.6921 3:-0.443869 4:0.791028 5:0.711469 6:-0.303328 7:0.808385 8:0.765579 9:0.500983 10:0.929102 11:0.713933 12:0.518954 13:0.930796 14:0.840476 15:0.400531 16:0.903699 17:0.875077 18:0.798801 
1 1:0.296362 2:0.32391 3:-0.508592 4:0.3479 5:0.628255 6:-0.0881988 7:0.28149 8:0.384189 9:0.535518 10:0.84677 11:0.745993 12:0.486275 13:0.795848 14:0.67619 15:0.588859 16:0.820317 17:0.791794 18:0.741506 
1 1:0.574513 2:0.450857 3:-0.376868 4:0.582318 5:0.738859 6:-0.253801 7:0.561616 8:0.579674 9:0.511158 10:0.921098 11:0.881628 12:0.294118 13:0.876586 14:0.665476 15:0.493369 16:0.895479 17:0.866503 18:0.606929 
1 1:0.447613 2:0.496492 3:-0.386206 4:0.458462 5:0.465928 6:-0.217039 7:0.430527 8:0.423216 9:0.318913 10:0.906232 11:0.642417 12:0.354248 13:0.836217 14:0.767857 15:0.0119363 16:0.871991 17:0.758726 18:0.637575 
1 1:0.80121 2:0.616756 3:-0.443799 4:0.811456 5:0.884228 6:-0.292512 7:0.816456 8:0.774823 9:0.656809 10:0.93825 11:0.881628 12:0.384314 13:0.965398 14:0.732143 15:0.615385 16:0.862595 17:0.859155 18:0.721519 
-1 1:0.233871 2:0.41559 3:-0.305464 4:0.232059 5:0.345122 6:-0.146017 7:0.209574 8:0.222973 9:0.2192 10:0.809034 11:0.491985 12:0.129412 13:0.863899 14:0.602381 15:-0.206897 16:0.781562 17:0.815064 18:0.560293 
1 1:0.640859 2:0.631252 3:-0.265412 4:0.637381 5:0.646923 6:-0.334941 7:0.586715 8:0.647704 9:0.696063 10:0.886792 11:0.776819 12:0.518954 13:0.922722 14:0.853571 15:0.482759 16:0.903699 17:0.854256 18:0.75483 
1 1:0.125025 2:0.101236 3:-0.569509 4:0.149506 5:0.226265 6:-0.491596 7:0.122208 8:0.200076 9:0.409687 10:0.730132 11:0.663379 12:0.375163 13:0.760092 14:0.713095 15:0.438992 16:0.714621 17:0.706062 18:0.56429 
-1 1:0.788482 2:0.712589 3:-0.395938 4:0.801202 5:0.697058 6:-0.336634 7:0.805105 8:0.759876 9:0.578228 10:0.886792 11:0.822441 12:0.520261 13:0.937716 14:0.807143 15:0.425729 16:0.868467 17:0.81384 18:0.721519 
-1 1:-0.405025 2:-0.153238 3:-0.213011 4:-0.338913 5:0.256512 6:0.115365 7:-0.4841 8:-0.42437 9:-0.318114 10:0.252144 11:0.00739827 12:-0.439216 13:0.146482 14:-0.075 15:-0.404509 16:0.203758 17:0.322719 18:0.180546 
-1 1:0.65111 2:0.387122 3:-0.674202 4:0.660763 5:0.50245 6:-0.569729 7:0.687061 8:0.633698 9:0.427009 10:0.89251 11:0.800247 12:0.678431 13:0.899654 14:0.847619 15:0.781167 16:0.873165 17:0.838334 18:0.748168 
1 1:0.644863 2:0.527258 3:-0.556114 4:0.681496 5:0.780954 6:-0.17327 7:0.639065 8:0.647281 9:0.614144 10:0.935963 11:0.827374 12:0.471895 13:0.892734 14:0.77381 15:0.778515 16:0.870816 17:0.810165 18:0.680213 
1 1:0.612887 2:0.353025 3:-0.705549 4:0.636506 5:0.484408 6:-0.595924 7:0.646043 8:0.599205 9:0.446451 10:0.93825 11:0.8582 12:0.798693 13:0.89504 14:0.782143 15:0.777188 16:0.909571 17:0.877526 18:0.774817 
1 1:0.886749 2:0.807517 3:-0.391219 4:0.905746 5:0.771502 6:-0.364653 7:0.917516 8:0.867032 9:0.736452 10:0.913093 11:0.678175 12:0.857516 13:0.95271 14:0.85119 15:0.753316 16:0.909571 17:0.850582 18:0.785476 
-0.4233250765870907 1:0.722105 2:0.789182 3:-0.196045 4:0.744569 5:0.740725 6:-0.292867 7:0.695108 8:0.750356 9:0.803175 10:0.865066 11:0.827374 12:0.401307 13:0.878893 14:0.796429 15:0.628647 16:0.907223 17:0.799143 18:0.622918 
1 1:0.762745 2:0.591653 3:-0.40525 4:0.780526 5:0.815364 6:-0.291913 7:0.763429 8:0.745699 9:0.619538 10:0.910806 11:0.812577 12:0.257516 13:0.955017 14:0.763095 15:0.490716 16:0.94128 17:0.931415 18:0.708195 
1 1:0.176784 2:0.166458 3:-0.539412 4:0.192161 5:0.244085 6:-0.425909 7:0.172584 8:0.25056 9:0.472587 10:0.834191 11:0.721332 12:0.301961 13:0.813149 14:0.717857 15:0.302387 16:0.826189 17:0.759951 18:0.521652 
-1 1:0.228903 2:0.533122 3:-0.0267591 4:0.250267 5:0.466261 6:-0.22914 7:0.166473 8:0.312246 9:0.648262 10:0.820469 11:0.612824 12:0.185621 13:0.813149 14:0.610714 15:0.188329 16:0.789783 17:0.753827 18:0.451033 
-1 1:0.468519 2:0.526321 3:-0.353235 4:0.471192 5:0.48731 6:-0.214418 7:0.459515 8:0.453695 9:0.298037 10:0.781589 11:0.638718 12:0.388235 13:0.788927 14:0.736905 15:0.115385 16:0.800352 17:0.742805 18:0.805463 
1 1:-0.0946905 2:0.0539683 3:-0.182563 4:-0.039037 5:0.451748 6:0.116832 7:-0.155131 8:-0.133899 9:-0.031516 10:0.780446 11:0.410604 12:-0.258824 13:0.731257 14:0.216667 15:-0.286472 16:0.801527 17:0.816289 18:0.592272 
-1 1:0.0719175 2:0.125084 3:-0.328632 4:0.134263 5:0.515171 6:-0.00527992 7:0.0117154 8:0.0406889 9:0.0925024 10:0.359634 11:0.284834 12:-0.128105 13:0.33218 14:0.296429 15:-0.0954907 16:0.25778 17:0.446418 18:0.277815 
1 1:0.247302 2:0.191189 3:-0.468133 4:0.287465 5:0.48073 6:-0.237843 7:0.215669 8:0.23143 9:0.189555 10:0.790738 11:0.633785 12:0.248366 13:0.809689 14:0.654762 15:0.229443 16:0.778039 17:0.799143 18:0.746835 
1 1:-0.301217 2:-0.161855 3:-0.488226 4:-0.28605 5:-0.0741961 6:-0.427006 7:-0.331645 8:-0.170174 9:0.308731 10:0.506003 11:0.405672 12:-0.0614379 13:0.516724 14:0.440476 15:0.00265252 16:0.470346 17:0.568892 18:0.156562 
1 1:0.815038 2:0.768266 3:-0.397052 4:0.839027 5:0.735958 6:-0.377535 7:0.831041 8:0.779215 9:0.636525 10:0.867353 11:0.760789 12:0.784314 13:0.950404 14:0.791667 15:0.708223 16:0.888432 17:0.90692 18:0.798801 
1 1:-0.274411 2:0.483173 3:0.492593 4:-0.296661 5:0.228058 6:-0.0369408 7:-0.422022 8:-0.138271 9:0.476044 10:0.546026 11:0.138101 12:-0.10719 13:0.605536 14:0.132143 15:-0.286472 16:0.593658 17:0.568892 18:0.0699534 
1 1:0.872613 2:0.630763 3:-0.523961 4:0.883847 5:0.710098 6:-0.457136 7:0.897031 8:0.863082 9:0.677464 10:0.930246 11:0.827374 12:0.694118 13:0.926182 14:0.835714 15:0.732095 16:0.903699 17:0.8812 18:0.7002 
1 1:0.209134 2:0.262258 3:-0.312341 4:0.232616 5:0.604933 6:-0.0928121 7:0.194787 8:0.228394 9:0.298784 10:0.879931 11:0.706535 12:0.0104575 13:0.863899 14:0.396429 15:0.157825 16:0.832061 17:0.910594 18:0.622918 
1 1:0.406463 2:0.157782 3:-0.746329 4:0.41992 5:0.284207 6:-0.654773 7:0.41784 8:0.381061 9:0.242599 10:0.894797 11:0.784217 12:0.537255 13:0.886967 14:0.736905 15:0.779841 16:0.862595 17:0.793019 18:0.846769 
-1 1:0.610805 2:0.415295 3:-0.557472 4:0.631374 5:0.523127 6:-0.485058 7:0.627054 8:0.573778 9:0.517538 10:0.875357 11:0.865598 12:0.63268 13:0.865052 14:0.784524 15:0.576923 16:0.861421 17:0.889773 18:0.706862 
1 1:0.62261 2:0.572769 3:-0.437212 4:0.636249 5:0.608638 6:-0.301508 7:0.633609 8:0.604226 9:0.498665 10:0.884505 11:0.651048 12:0.45098 13:0.927336 14:0.82619 15:0.401857 16:0.864944 17:0.876301 18:0.738841 
1 1:0.500117 2:0.456218 3:-0.418951 4:0.550651 5:0.874987 6:0.0130751 7:0.478355 8:0.56841 9:0.684119 10:0.919954 11:0.78545 12:0.529412 13:0.871972 14:0.694048 15:0.503979 16:0.906048 17:0.817514 18:0.553631 
1 1:0.786984 2:0.576754 3:-0.51413 4:0.822792 5:0.736681 6:-0.341484 7:0.817637 8:0.758488 9:0.601546 10:0.948542 11:0.811344 12:0.532026 13:0.912341 14:0.895238 15:0.653846 16:0.890781 17:0.93019 18:0.853431 
-1 1:0.61916 2:0.540059 3:-0.495048 4:0.683424 5:0.815818 6:-0.088888 7:0.624841 8:0.665615 9:0.749051 10:0.874214 11:0.771887 12:0.543791 13:0.960784 14:0.742857 15:0.637931 16:0.876688 17:0.819963 18:0.716189 
1 1:0.629365 2:0.510989 3:-0.448035 4:0.653443 5:0.599635 6:-0.236658 7:0.643254 8:0.620573 9:0.43982 10:0.917667 11:0.828607 12:0.375163 13:0.926182 14:0.903571 15:0.197613 16:0.887258 17:0.835885 18:0.854763 
-1 1:0.766867 2:0.832133 3:-0.192158 4:0.776545 5:0.732592 6:-0.306474 7:0.762478 8:0.767304 9:0.691267 10:0.895941 11:0.610358 12:0.664052 13:0.88812 14:0.825 15:0.550398 16:0.868467 17:0.848132 18:0.750833 
1 1:0.316585 2:0.308352 3:-0.345476 4:0.332189 5:0.637641 6:-0.117863 7:0.291438 8:0.327296 9:0.325585 10:0.823899 11:0.815043 12:0.128105 13:0.803922 14:0.446429 15:0.208223 16:0.793306 17:0.805266 18:0.590939 
-1 1:0.261523 2:0.644522 3:0.130781 4:0.246023 5:0.316164 6:-0.244461 7:0.221526 8:0.250105 9:0.357098 10:0.803316 11:0.29963 12:0.267974 13:0.795848 14:0.613095 15:0.161804 16:0.837933 17:0.766075 18:0.636243 
1 1:0.771177 2:0.779809 3:-0.21702 4:0.755354 5:0.776758 6:-0.30358 7:0.733974 8:0.790111 9:0.787994 10:0.964551 11:0.887793 12:0.317647 13:0.928489 14:0.790476 15:0.561008 16:0.929536 17:0.827312 18:0.626915 
-1 1:0.242323 2:0.589418 3:-0.0644545 4:0.206621 5:0.264189 6:-0.283971 7:0.166313 8:0.227307 9:0.258626 10:0.796455 11:0.276202 12:0.401307 13:0.765859 14:0.705952 15:0.0875332 16:0.774516 17:0.804042 18:0.588274 
-1 1:0.682197 2:0.729158 3:-0.193353 4:0.675703 5:0.735376 6:-0.283107 7:0.640835 8:0.730492 9:0.828861 10:0.879931 11:0.755857 12:0.337255 13:0.911188 14:0.769048 15:0.53183 16:0.916618 17:0.856705 18:0.738841 
-1 1:0.819607 2:0.640095 3:-0.372425 4:0.845169 5:0.8707 6:-0.302763 7:0.820312 8:0.792881 9:0.589867 10:0.929102 11:0.928483 12:0.362092 13:0.937716 14:0.855952 15:0.543767 16:0.908397 17:0.924066 18:0.720187 
1 1:0.849804 2:0.618612 3:-0.460191 4:0.859269 5:0.741657 6:-0.253546 7:0.860054 8:0.800102 9:0.625718 10:0.959977 11:0.930949 12:0.545098 13:0.94579 14:0.897619 15:0.360743 16:0.928362 17:0.875077 18:0.808128 
1 1:0.620825 2:0.681645 3:-0.298084 4:0.628078 5:0.549342 6:-0.36111 7:0.61948 8:0.584002 9:0.539481 10:0.89251 11:0.707768 12:0.649673 13:0.889273 14:0.814286 15:0.522546 16:0.868467 17:0.816289 18:0.608261 
1 1:0.305807 2:0.259857 3:-0.408809 4:0.348455 5:0.545473 6:-0.201738 7:0.279249 8:0.276429 9:0.198682 10:0.863922 11:0.74476 12:0.213072 13:0.851211 14:0.575 15:0.225464 16:0.884909 17:0.774648 18:0.788141 
-1 1:0.501026 2:0.478685 3:-0.462512 4:0.567128 5:0.837377 6:-0.0941334 7:0.497565 8:0.536198 9:0.692137 10:0.919954 11:0.732429 12:0.566013 13:0.876586 14:0.625 15:0.515915 16:0.886083 17:0.833435 18:0.617588 
-1 1:0.814856 2:0.581792 3:-0.573335 4:0.835563 5:0.740513 6:-0.469414 7:0.866031 8:0.805971 9:0.7049 10:0.931389 11:0.94328 12:0.662745 13:0.882353 14:0.838095 15:0.790451 16:0.888432 17:0.843233 18:0.718854 
-1 1:0.790778 2:0.558629 3:-0.511966 4:0.80065 5:0.687401 6:-0.47232 7:0.824749 8:0.779675 9:0.666631 10:0.910806 11:0.872996 12:0.424837 13:0.926182 14:0.820238 15:0.891247 16:0.870816 17:0.851806 18:0.766822 
1 1:-0.154996 2:-0.287618 3:-0.847611 4:-0.143701 5:-0.219439 6:-0.767919 7:-0.146025 8:-0.157844 9:-0.278841 10:0.596341 11:0.548705 12:0.15817 13:0.567474 14:0.6 15:0.48939 16:0.557252 17:0.686467 18:0.592272 
-1 1:0.920803 2:0.678034 3:-0.409085 4:0.931989 5:0.954488 6:-0.25278 7:0.941246 8:0.960991 9:0.802535 10:0.945111 11:0.874229 12:0.54902 13:0.95271 14:0.783333 15:0.68435 16:0.888432 17:0.959584 18:0.70553 
-1 1:0.783943 2:0.546276 3:-0.541039 4:0.823794 5:0.676725 6:-0.44285 7:0.819459 8:0.784873 9:0.619626 10:0.917667 11:0.917386 12:0.701961 13:0.936563 14:0.903571 15:0.611406 16:0.883735 17:0.908145 18:0.7002 
-1 1:0.588035 2:0.60473 3:-0.356752 4:0.609698 5:0.586173 6:-0.22212 7:0.571431 8:0.557938 9:0.484042 10:0.910806 11:0.766954 12:0.360784 13:0.899654 14:0.783333 15:0.168435 16:0.860247 17:0.816289 18:0.852099 
-1 1:0.655151 2:0.739107 3:-0.30554 4:0.667125 5:0.575772 6:-0.357591 7:0.64354 8:0.619284 9:0.627823 10:0.841052 11:0.578298 12:0.534641 13:0.875433 14:0.805952 15:0.419098 16:0.835584 17:0.828536 18:0.862758 
-1 1:0.0643017 2:0.145329 3:-0.223701 4:0.0622728 5:0.20665 6:-0.0100952 7:0.0321436 8:0.0168475 9:-0.00155972 10:0.753002 11:0.445129 12:-0.175163 13:0.777393 14:0.502381 15:-0.420424 16:0.753376 17:0.774648 18:0.861426 
-1 1:0.237083 2:0.272189 3:-0.430449 4:0.279201 5:0.636636 6:-0.0712954 7:0.21805 8:0.31284 9:0.521726 10:0.757576 11:0.750925 12:0.398693 13:0.749712 14:0.583333 15:0.502653 16:0.73576 17:0.752603 18:0.613591 
1 1:0.84961 2:0.660247 3:-0.536626 4:0.876753 5:0.765759 6:-0.427026 7:0.868464 8:0.892633 9:0.742827 10:0.93482 11:0.818742 12:0.728105 13:0.934256 14:0.878571 15:0.751989 16:0.899002 17:0.897122 18:0.861426 
-1 1:0.784453 2:0.709731 3:-0.375868 4:0.80938 5:0.728161 6:-0.250104 7:0.778624 8:0.769324 9:0.573095 10:0.885649 11:0.747226 12:0.436601 13:0.930796 14:0.828571 15:0.346154 16:0.889607 17:0.888549 18:0.792139 
1 1:0.795056 2:0.646838 3:-0.526497 4:0.835169 5:0.850346 6:-0.287418 7:0.78372 8:0.814994 9:0.825729 10:0.950829 11:0.807645 12:0.760784 13:0.93887 14:0.816667 15:0.753316 16:0.868467 17:0.827312 18:0.628248 
-1 1:0.217166 2:0.283269 3:-0.456909 4:0.274785 5:0.64025 6:0.0101117 7:0.194134 8:0.2747 9:0.532374 10:0.78502 11:0.707768 12:0.524183 13:0.773933 14:0.565476 15:0.448276 16:0.741632 17:0.78812 18:0.594937 
-1 1:0.106154 2:0.215297 3:-0.203312 4:0.158215 5:0.559046 6:0.0815658 7:0.0832304 8:0.15835 9:0.225713 10:0.834191 11:0.653514 12:-0.169935 13:0.841984 14:0.311905 15:0.104775 16:0.817968 17:0.740355 18:0.377748 
1 1:0.161289 2:0.575098 3:0.065856 4:0.130818 5:0.243532 6:-0.271066 7:0.115252 8:0.182534 9:0.360265 10:0.811321 11:0.325524 12:0.261438 13:0.824683 14:0.620238 15:-0.00265252 16:0.815619 17:0.756277 18:0.512325 
-1 1:0.832145 2:0.565429 3:-0.641991 4:0.854614 5:0.685164 6:-0.536478 7:0.867182 8:0.800684 9:0.581721 10:0.907376 11:0.781751 12:0.611765 13:0.910035 14:0.842857 15:0.820955 16:0.914269 17:0.879976 18:0.888075 
1 1:-0.30749 2:0.026453 3:0.0574431 4:-0.300495 5:0.0430034 6:0.418857 7:-0.355517 8:-0.32993 9:-0.209334 10:0.486564 11:-0.0604192 12:-0.542484 13:0.490196 14:0.0119048 15:-0.675066 16:0.517322 17:0.773423 18:0.456362 
-1 1:0.885072 2:0.770513 3:-0.426443 4:0.893424 5:0.809548 6:-0.407324 7:0.874454 8:0.869716 9:0.829867 10:0.939394 11:0.812577 12:0.771242 13:0.94233 14:0.784524 15:0.827586 16:0.909571 17:0.840784 18:0.698867 
-1 1:0.756461 2:0.585923 3:-0.535843 4:0.813752 5:0.882289 6:-0.192243 7:0.791583 8:0.812163 9:0.726226 10:0.909663 11:0.864365 12:0.691503 13:0.946943 14:0.834524 15:0.724138 16:0.899002 17:0.872627 18:0.726849 
1 1:0.683519 2:0.593686 3:-0.514077 4:0.738589 5:0.821631 6:-0.179594 7:0.691301 8:0.725153 9:0.806127 10:0.925672 11:0.81381 12:0.491503 13:0.953864 14:0.841667 15:0.61008 16:0.88256 17:0.848132 18:0.777482 
-1 1:0.548181 2:0.335478 3:-0.577452 4:0.55458 5:0.472929 6:-0.518919 7:0.548388 8:0.528461 9:0.486385 10:0.855918 11:0.771887 12:0.513725 13:0.811995 14:0.70119 15:0.611406 16:0.816794 17:0.802817 18:0.730846 
1 1:0.796406 2:0.570721 3:-0.446748 4:0.829991 5:0.877394 6:-0.237295 7:0.787524 8:0.790881 9:0.585194 10:0.930246 11:0.82984 12:0.619608 13:0.926182 14:0.834524 15:0.554377 16:0.909571 17:0.826087 18:0.774817 
1 1:-0.226122 2:-0.189759 3:-0.529719 4:-0.199997 5:-0.131918 6:-0.526552 7:-0.21937 8:-0.20852 9:0.0362382 10:0.798742 11:0.559803 12:0.0130719 13:0.799308 14:0.580952 15:0.140584 16:0.779213 17:0.766075 18:0.337775 
1 1:-0.23678 2:0.657067 3:0.508245 4:-0.27778 5:0.000789023 6:-0.0272783 7:-0.352378 8:-0.229027 9:0.0766965 10:0.559748 11:-0.191122 12:0.0261438 13:0.529412 14:0.311905 15:-0.261273 16:0.547857 17:0.592162 18:0.1499 
-1 1:0.645321 2:0.431924 3:-0.584755 4:0.681575 5:0.564528 6:-0.501693 7:0.676243 8:0.64932 9:0.569072 10:0.870783 11:0.890259 12:0.6 13:0.904268 14:0.815476 15:0.692308 16:0.849677 17:0.828536 18:0.656229 
-1 1:0.238186 2:0.137456 3:-0.544451 4:0.237322 5:0.207296 6:-0.492351 7:0.231535 8:0.23242 9:0.41011 10:0.849057 11:0.679408 12:0.294118 13:0.835063 14:0.725 15:0.423077 16:0.778039 17:0.866503 18:0.50433 
1 1:0.0835641 2:0.272615 3:-0.27186 4:0.0947732 5:0.212474 6:-0.085087 7:0.0491117 8:0.0622412 9:0.0732407 10:0.791881 11:0.46979 12:0.048366 13:0.874279 14:0.508333 15:-0.262599 16:0.790957 17:0.723209 18:0.576282 
-1 1:0.339682 2:0.323063 3:-0.299246 4:0.356202 5:0.37418 6:-0.0193127 7:0.341056 8:0.311936 9:0.209566 10:0.823899 11:0.647349 12:0.0235294 13:0.82699 14:0.640476 15:-0.266578 16:0.816794 17:0.733007 18:0.725516 
-1 1:0.422799 2:0.37776 3:-0.347508 4:0.440665 5:0.694692 6:-0.142648 7:0.405096 8:0.424752 9:0.326351 10:0.901658 11:0.831073 12:0.160784 13:0.836217 14:0.57381 15:0.340849 16:0.847328 17:0.844458 18:0.505663 
-1 1:0.768052 2:0.623606 3:-0.514465 4:0.829479 5:0.853474 6:-0.224191 7:0.77453 8:0.758214 9:0.7264 10:0.940537 11:0.811344 12:0.756863 13:0.920415 14:0.838095 15:0.779841 16:0.891955 17:0.79057 18:0.672219 
1 1:0.283927 2:0.267559 3:-0.358811 4:0.293814 5:0.346169 6:-0.167839 7:0.273232 8:0.234291 9:0.201515 10:0.871927 11:0.68434 12:0.105882 13:0.835063 14:0.716667 15:-0.155172 16:0.889607 17:0.867728 18:0.608261 
1 1:-0.0139665 2:0.062449 3:-0.483527 4:0.00840651 5:0.198332 6:-0.40472 7:-0.034317 8:0.0813314 9:0.452007 10:0.511721 11:0.49815 12:0.220915 13:0.525952 14:0.49881 15:0.290451 16:0.449207 17:0.546846 18:0.427049 
1 1:0.734627 2:0.55178 3:-0.519883 4:0.747819 5:0.745339 6:-0.339914 7:0.727304 8:0.658645 9:0.579817 10:0.905089 11:0.784217 12:0.532026 13:0.914648 14:0.817857 15:0.69496 16:0.884909 17:0.810165 18:0.860093 
1 1:0.80269 2:0.601466 3:-0.450049 4:0.822895 5:0.854901 6:-0.253288 7:0.807697 8:0.762082 9:0.645152 10:0.941681 11:0.80148 12:0.649673 13:0.913495 14:0.789286 15:0.466844 16:0.897827 17:0.92774 18:0.75483 
1 1:0.676777 2:0.591779 3:-0.42562 4:0.682634 5:0.619348 6:-0.214482 7:0.669865 8:0.665573 9:0.542995 10:0.922241 11:0.786683 12:0.490196 13:0.907728 14:0.796429 15:0.193634 16:0.906048 17:0.868953 18:0.830779 
-1 1:0.535262 2:0.631948 3:-0.158463 4:0.544598 5:0.642216 6:-0.328098 7:0.478947 8:0.572901 9:0.670179 10:0.901658 11:0.794081 12:0.335948 13:0.912341 14:0.734524 15:0.450928 16:0.907223 17:0.812615 18:0.773484 
-1 1:-0.0157549 2:0.100762 3:-0.222759 4:-0.00075139 5:0.521553 6:0.0448159 7:-0.0668162 8:0.00777381 9:0.110041 10:0.805603 11:0.64365 12:-0.176471 13:0.815456 14:0.230952 15:0.030504 16:0.798004 17:0.7624 18:0.351099 
-1 1:0.51615 2:0.32194 3:-0.557634 4:0.544671 5:0.446652 6:-0.491409 7:0.547649 8:0.496154 9:0.403262 10:0.817038 11:0.796547 12:0.366013 13:0.854671 14:0.754762 15:0.724138 16:0.820317 17:0.779547 18:0.646902 
1 1:0.819053 2:0.610062 3:-0.459666 4:0.843837 5:0.72478 6:-0.342089 7:0.839024 8:0.79675 9:0.590447 10:0.922241 11:0.942047 12:0.496732 13:0.971165 14:0.869048 15:0.445623 16:0.887258 17:0.818739 18:0.845436 
1 1:0.847277 2:0.65715 3:-0.397795 4:0.866816 5:0.882238 6:-0.260914 7:0.845425 8:0.833631 9:0.760802 10:0.898228 11:0.847102 12:0.47451 13:0.926182 14:0.830952 15:0.713528 16:0.873165 17:0.828536 18:0.656229 
1 1:0.348614 2:0.304741 3:-0.321682 4:0.36366 5:0.611245 6:-0.177626 7:0.327588 8:0.368442 9:0.301813 10:0.932533 11:0.774353 12:0.0522876 13:0.876586 14:0.575 15:0.330239 16:0.879037 17:0.838334 18:0.560293 
-0.1043196535881532 1:0.0730772 2:0.643409 3:0.327204 4:0.0815954 5:0.501272 6:-0.0207205 7:-0.0398416 8:0.194783 9:0.731695 10:0.655803 11:0.382244 12:0.00261438 13:0.67474 14:0.485714 15:-0.0198939 16:0.578391 17:0.684017 18:0.425716 
-1 1:0.393667 2:0.370441 3:-0.342244 4:0.409318 5:0.404506 6:-0.156551 7:0.382814 8:0.330532 9:0.289084 10:0.875357 11:0.705302 12:0.169935 13:0.862745 14:0.759524 15:-0.0623342 16:0.835584 17:0.864054 18:0.781479 
1 1:0.318225 2:0.197228 3:-0.58474 4:0.324649 5:0.246449 6:-0.519712 7:0.326251 8:0.319787 9:0.340213 10:0.766724 11:0.690506 12:0.402614 13:0.775087 14:0.661905 15:0.462865 16:0.747504 17:0.726883 18:0.63491 
1 1:-0.151887 2:-0.0241282 3:-0.480997 4:-0.127091 5:0.0724724 6:-0.383712 7:-0.16177 8:-0.00836534 9:0.340377 10:0.492281 11:0.430333 12:0.166013 13:0.493656 14:0.472619 15:0.165782 16:0.449207 17:0.624005 18:0.245836 
-1 1:0.243497 2:0.592608 3:-0.0656462 4:0.210166 5:0.298661 6:-0.265334 7:0.17899 8:0.207829 9:0.345828 10:0.650086 11:0.194821 12:0.243137 13:0.612457 14:0.514286 15:0.112732 16:0.578391 17:0.717085 18:0.621586 
1 1:0.866249 2:0.643416 3:-0.424759 4:0.913433 5:0.929086 6:-0.306496 7:0.895269 8:0.86688 9:0.776564 10:0.947399 11:0.881628 12:0.43268 13:0.931949 14:0.803571 15:0.713528 16:0.902525 17:0.862829 18:0.718854 
1 1:0.613776 2:0.459492 3:-0.556863 4:0.620039 5:0.556557 6:-0.461485 7:0.618918 8:0.650135 9:0.600339 10:0.884505 11:0.812577 12:0.579085 13:0.89504 14:0.792857 15:0.659151 16:0.884909 17:0.894672 18:0.822785 
-1 1:0.415901 2:0.312832 3:-0.499386 4:0.44549 5:0.556697 6:-0.295071 7:0.386554 8:0.388808 9:0.24139 10:0.842196 11:0.734895 12:0.300654 13:0.848904 14:0.713095 15:0.342175 16:0.842631 17:0.808941 18:0.680213 
-1 1:0.833055 2:0.554978 3:-0.627495 4:0.839079 5:0.644282 6:-0.5381 7:0.863941 8:0.797936 9:0.548423 10:0.929102 11:0.874229 12:0.755556 13:0.94925 14:0.797619 15:0.765252 16:0.916618 17:0.830986 18:0.682878 
1 1:0.662875 2:0.545322 3:-0.500507 4:0.706812 5:0.838632 6:-0.157592 7:0.652879 8:0.677443 9:0.763967 10:0.897084 11:0.864365 12:0.533333 13:0.886967 14:0.795238 15:0.619363 16:0.907223 17:0.826087 18:0.692205 
-1 1:0.490773 2:0.663463 3:-0.138848 4:0.500523 5:0.599335 6:-0.297318 7:0.441631 8:0.516526 9:0.670419 10:0.894797 11:0.759556 12:0.422222 13:0.908881 14:0.752381 15:0.395225 16:0.854375 17:0.83466 18:0.748168 
1 1:0.463766 2:0.413047 3:-0.387238 4:0.488873 5:0.492805 6:-0.199124 7:0.47816 8:0.421643 9:0.31028 10:0.796455 11:0.704069 12:0.168627 13:0.808535 14:0.797619 15:-0.0185676 16:0.849677 17:0.76485 18:0.7002 
-0.2210667359386548 1:0.454997 2:0.272077 3:-0.564758 4:0.464545 5:0.41114 6:-0.511977 7:0.461115 8:0.464116 9:0.41615 10:0.883362 11:0.877928 12:0.435294 13:0.890427 14:0.794048 15:0.48939 16:0.847328 17:0.839559 18:0.654897 
-1 1:0.230291 2:0.403019 3:-0.00849825 4:0.266803 5:0.837236 6:0.279936 7:0.182585 8:0.273252 9:0.334947 10:0.531161 11:0.556104 12:-0.228758 13:0.476355 14:0.202381 15:-0.114058 16:0.435115 17:0.588487 18:0.423051 
1 1:0.929505 2:0.793817 3:-0.428703 4:0.934019 5:0.863061 6:-0.387661 7:0.940827 8:0.930645 9:0.806785 10:0.93825 11:0.872996 12:0.54902 13:0.981546 14:0.886905 15:0.745358 16:0.929536 17:0.890998 18:0.642905 
-1 1:0.714749 2:0.629692 3:-0.473482 4:0.762647 5:0.871305 6:-0.132763 7:0.734468 8:0.771497 9:0.79139 10:0.902802 11:0.837238 12:0.615686 13:0.915802 14:0.845238 15:0.592838 16:0.874339 17:0.823637 18:0.69487 
-1 1:0.12007 2:-0.0405312 3:-0.781984 4:0.143364 5:0.0286293 6:-0.676415 7:0.146859 8:0.11595 9:-0.050923 10:0.847913 11:0.779285 12:0.504575 13:0.850058 14:0.782143 15:0.846154 16:0.826189 17:0.7624 18:0.89074 
1 1:0.815447 2:0.596655 3:-0.421778 4:0.845812 5:0.730345 6:-0.312454 7:0.850604 8:0.787026 9:0.623682 10:0.942824 11:0.882861 12:0.45098 13:0.913495 14:0.888095 15:0.433687 16:0.928362 17:0.840784 18:0.774817 
1 1:0.00969904 2:0.0452573 3:-0.445984 4:0.0190347 5:0.0775614 6:-0.450251 7:0.00460304 8:0.0461814 9:0.284628 10:0.277301 11:0.355117 12:0.130719 13:0.304498 14:0.364286 15:0.102122 16:0.230769 17:0.4109 18:0.289807 
-1 1:0.785618 2:0.601413 3:-0.446049 4:0.82378 5:0.707692 6:-0.28691 7:0.809288 8:0.74454 9:0.575859 10:0.925672 11:0.991369 12:0.521569 13:0.985006 14:0.953571 15:0.338196 16:0.890781 17:0.900796 18:0.894737 
-1 1:0.573881 2:0.642511 3:-0.240012 4:0.5692 5:0.630546 6:-0.327813 7:0.50841 8:0.563084 9:0.713298 10:0.865066 11:0.831073 12:0.482353 13:0.933103 14:0.834524 15:0.460212 16:0.86377 17:0.819963 18:0.838774 
-1 1:0.575328 2:0.633533 3:-0.327232 4:0.57814 5:0.561781 6:-0.219563 7:0.562966 8:0.561178 9:0.505927 10:0.874214 11:0.702836 12:0.332026 13:0.889273 14:0.784524 15:0.132626 16:0.848503 17:0.838334 18:0.693538 
-1 1:0.730322 2:0.760624 3:-0.309474 4:0.733633 5:0.672892 6:-0.346517 7:0.724057 8:0.726083 9:0.588766 10:0.871927 11:0.630086 12:0.566013 13:0.923875 14:0.836905 15:0.680371 16:0.876688 17:0.873852 18:0.76016 
-1 1:0.829436 2:0.624258 3:-0.547235 4:0.859079 5:0.773322 6:-0.421456 7:0.855804 8:0.85138 9:0.844928 10:0.933676 11:0.797781 12:0.807843 13:0.906574 14:0.802381 15:0.604775 16:0.899002 17:0.819963 18:0.656229 
1 1:0.826306 2:0.619115 3:-0.499059 4:0.848818 5:0.714888 6:-0.277937 7:0.840829 8:0.776395 9:0.620784 10:0.946255 11:0.810111 12:0.534641 13:0.955017 14:0.838095 15:0.420424 16:0.921315 17:0.833435 18:0.653564 
-1 1:0.967382 2:0.684985 3:-0.460435 4:0.959781 5:0.957524 6:-0.309893 7:0.970777 8:0.929424 9:0.842675 10:0.945111 11:0.965475 12:0.377778 13:0.936563 14:0.742857 15:0.724138 16:0.942454 17:0.954685 18:0.652232 
-1 1:0.521295 2:0.333286 3:-0.580661 4:0.524988 5:0.443491 6:-0.490188 7:0.535971 8:0.51129 9:0.438297 10:0.859348 11:0.833539 12:0.524183 13:0.859285 14:0.771429 15:0.64191 16:0.86377 17:0.7624 18:0.786809 
-1 1:0.148914 2:0.0572712 3:-0.577647 4:0.175583 5:0.139224 6:-0.56755 7:0.170532 8:0.170347 9:0.172812 10:0.720983 11:0.646116 12:0.14902 13:0.717416 14:0.603571 15:0.469496 16:0.685261 17:0.725658 18:0.584277 
-1 1:0.602393 2:0.490862 3:-0.535897 4:0.621543 5:0.616688 6:-0.431727 7:0.633312 8:0.685634 9:0.739332 10:0.885649 11:0.900123 12:0.457516 13:0.901961 14:0.758333 15:0.671088 16:0.869642 17:0.859155 18:0.813458 
-1 1:0.636851 2:0.492321 3:-0.543138 4:0.690393 5:0.728646 6:-0.276374 7:0.633094 8:0.612265 9:0.486449 10:0.909663 11:0.808878 12:0.477124 13:0.933103 14:0.784524 15:0.511936 16:0.910746 17:0.902021 18:0.737508 
1 1:0.135283 2:-0.0475291 3:-0.780963 4:0.151265 5:0.056367 6:-0.662122 7:0.143683 8:0.130726 9:-0.0524544 10:0.613493 11:0.545006 12:0.403922 13:0.577855 14:0.57619 15:0.435013 16:0.559601 17:0.600735 18:0.4497 
-1 1:0.757055 2:0.542964 3:-0.520405 4:0.748672 5:0.634188 6:-0.486721 7:0.779858 8:0.72697 9:0.596157 10:0.887936 11:0.859433 12:0.51634 13:0.867359 14:0.809524 15:0.763926 16:0.91192 17:0.800367 18:0.732179 
-1 1:0.85721 2:0.635496 3:-0.532415 4:0.892629 5:0.832805 6:-0.332662 7:0.87174 8:0.82135 9:0.639671 10:0.943968 11:0.818742 12:0.491503 13:0.912341 14:0.829762 15:0.550398 16:0.897827 17:0.85793 18:0.75483 
1 1:0.270828 2:0.242667 3:-0.29407 4:0.287433 5:0.594367 6:-0.101356 7:0.257142 8:0.283111 9:0.256386 10:0.821612 11:0.823674 12:0.048366 13:0.810842 14:0.517857 15:0.241379 16:0.814445 17:0.802817 18:0.518987 
1 1:0.901004 2:0.706602 3:-0.478599 4:0.902576 5:0.810349 6:-0.271493 7:0.890188 8:0.839157 9:0.697213 10:0.95769 11:0.802713 12:0.607843 13:0.899654 14:0.871429 15:0.415119 16:0.899002 17:0.965707 18:0.678881 
1 1:-0.679673 2:-0.376353 3:-0.420037 4:-0.659857 5:-0.357324 6:-0.444309 7:-0.715322 8:-0.505994 9:0.164513 10:0.086335 11:-0.0863132 12:-0.389542 13:0.0449827 14:-0.075 15:-0.277188 16:-0.0217264 17:0.153705 18:-0.200533 
1 1:-0.193604 2:-0.325468 3:-0.845957 4:-0.183616 5:-0.254675 6:-0.785241 7:-0.182785 8:-0.207424 9:-0.31691 10:0.559748 11:0.510481 12:0.152941 13:0.568627 14:0.617857 15:0.453581 16:0.533764 17:0.627679 18:0.529647 
1 1:0.852818 2:0.731013 3:-0.407561 4:0.873318 5:0.817912 6:-0.406608 7:0.852134 8:0.837433 9:0.789566 10:0.947399 11:0.871763 12:0.713725 13:0.943483 14:0.846429 15:0.814324 16:0.944803 17:0.862829 18:0.842771 
-1 1:0.567586 2:0.37529 3:-0.568596 4:0.577099 5:0.471283 6:-0.514192 7:0.568174 8:0.539143 9:0.438695 10:0.829617 11:0.778052 12:0.380392 13:0.83045 14:0.834524 15:0.874005 16:0.814445 17:0.854256 18:0.693538 
1 1:0.737064 2:0.514152 3:-0.567917 4:0.757664 5:0.702238 6:-0.354809 7:0.742081 8:0.708219 9:0.550001 10:0.916524 11:0.803946 12:0.705882 13:0.910035 14:0.830952 15:0.681698 16:0.916618 17:0.829761 18:0.756163 
1 1:-0.231425 2:0.484209 3:0.45282 4:-0.252407 5:0.243735 6:-0.0742583 7:-0.377056 8:-0.0964944 9:0.478017 10:0.568897 11:0.155364 12:-0.143791 13:0.630911 14:0.194048 15:-0.255968 16:0.606577 17:0.60196 18:0.235177 
-1 1:0.828579 2:0.753386 3:-0.343709 4:0.81185 5:0.773061 6:-0.350516 7:0.805035 8:0.800138 9:0.767565 10:0.898228 11:0.771887 12:0.581699 13:0.935409 14:0.871429 15:0.724138 16:0.907223 17:0.899571 18:0.734843 
1 1:0.873752 2:0.679564 3:-0.542462 4:0.913594 5:0.892662 6:-0.291359 7:0.908842 8:0.886436 9:0.756288 10:0.927959 11:0.900123 12:0.796078 13:0.893887 14:0.804762 15:0.751989 16:0.937757 17:0.840784 18:0.681546 
1 1:0.183 2:0.241767 3:-0.368513 4:0.233984 5:0.545646 6:-0.0821914 7:0.137976 8:0.156551 9:0.139088 10:0.558605 11:0.51418 12:-0.048366 13:0.574394 14:0.404762 15:0.0371353 16:0.519671 17:0.598285 18:0.433711 
1 1:0.707015 2:0.484587 3:-0.544174 4:0.738516 5:0.656645 6:-0.469661 7:0.745583 8:0.725116 9:0.573036 10:0.902802 11:0.863132 12:0.581699 13:0.923875 14:0.779762 15:0.822281 16:0.871991 17:0.823637 18:0.892072 
1 1:0.480091 2:0.516669 3:-0.383573 4:0.495433 5:0.499676 6:-0.272899 7:0.48209 8:0.429577 9:0.348479 10:0.844483 11:0.658446 12:0.304575 13:0.829296 14:0.759524 15:0.218833 16:0.817968 17:0.853031 18:0.621586 
1 1:0.879579 2:0.66809 3:-0.440468 4:0.900532 5:0.909877 6:-0.316696 7:0.890662 8:0.865526 9:0.683433 10:0.961121 11:0.944513 12:0.564706 13:0.979239 14:0.765476 15:0.725464 16:0.881386 17:0.888549 18:0.70553 
-1 1:0.880331 2:0.587892 3:-0.641005 4:0.883898 5:0.730423 6:-0.510774 7:0.923336 8:0.829325 9:0.6159 10:0.95769 11:0.839704 12:0.709804 13:0.923875 14:0.827381 15:0.632626 16:0.901351 17:0.848132 18:0.678881 
-1 1:0.627653 2:0.33712 3:-0.731982 4:0.64107 5:0.484904 6:-0.561215 7:0.643795 8:0.584371 9:0.345227 10:0.922241 11:0.795314 12:0.777778 13:0.916955 14:0.854762 15:0.812997 16:0.901351 17:0.911819 18:0.740173 
1 1:0.76876 2:0.717493 3:-0.350691 4:0.763588 5:0.766799 6:-0.38995 7:0.739112 8:0.748924 9:0.760553 10:0.910806 11:0.787916 12:0.620915 13:0.930796 14:0.809524 15:0.61008 16:0.927187 17:0.92774 18:0.790806 
-1 1:0.484946 2:0.530379 3:-0.374133 4:0.490675 5:0.51777 6:-0.226247 7:0.481789 8:0.466978 9:0.397868 10:0.874214 11:0.651048 12:0.43268 13:0.875433 14:0.8 15:0.0755968 16:0.860247 17:0.886099 18:0.81479 
1 1:0.911404 2:0.765128 3:-0.350685 4:0.92544 5:0.887993 6:-0.352061 7:0.912484 8:0.886187 9:0.864089 10:0.935963 11:0.818742 12:0.620915 13:0.946943 14:0.925 15:0.676393 16:0.931885 17:0.780772 18:0.7495 
-1 1:0.4204 2:0.486166 3:-0.398476 4:0.49879 5:0.872128 6:0.0926343 7:0.406566 8:0.505805 9:0.793247 10:0.877644 11:0.764488 12:0.496732 13:0.862745 14:0.60119 15:0.412467 16:0.862595 17:0.800367 18:0.546969 
1 1:0.64122 2:0.445142 3:-0.584004 4:0.662376 5:0.572411 6:-0.478982 7:0.659571 8:0.619241 9:0.566292 10:0.906232 11:0.837238 12:0.690196 13:0.927336 14:0.877381 15:0.712202 16:0.921315 17:0.851806 18:0.770819 
-1 1:0.91014 2:0.760376 3:-0.373049 4:0.933974 5:0.860925 6:-0.406457 7:0.90189 8:0.946427 9:0.830375 10:0.95769 11:0.816276 12:0.645752 13:0.935409 14:0.813095 15:0.655172 16:0.942454 17:0.910594 18:0.830779 
1 1:0.869028 2:0.661529 3:-0.454078 4:0.907801 5:0.914886 6:-0.286407 7:0.882487 8:0.840447 9:0.67662 10:0.972556 11:0.887793 12:0.667974 13:0.934256 14:0.80119 15:0.558355 16:0.900176 17:0.851806 18:0.806795 
1 1:0.666295 2:0.554852 3:-0.497338 4:0.717243 5:0.844398 6:-0.172214 7:0.673565 8:0.706265 9:0.739378 10:0.924528 11:0.810111 12:0.611765 13:0.886967 14:0.807143 15:0.572944 16:0.880211 17:0.875077 18:0.696203 
1 1:0.694778 2:0.406504 3:-0.6921 4:0.693555 5:0.541453 6:-0.562643 7:0.718122 8:0.660558 9:0.44761 10:0.916524 11:0.833539 12:0.684967 13:0.956171 14:0.830952 15:0.696286 16:0.909571 17:0.90692 18:0.818787 
-1 1:0.516323 2:0.682684 3:-0.172972 4:0.5112 5:0.498687 6:-0.308488 7:0.46786 8:0.505554 9:0.434998 10:0.875357 11:0.493218 12:0.60915 13:0.863899 14:0.782143 15:0.359416 16:0.815619 17:0.818739 18:0.726849 
1 1:0.683407 2:0.519572 3:-0.425616 4:0.696663 5:0.8077 6:-0.271315 7:0.684891 8:0.689166 9:0.645585 10:0.916524 11:0.929716 12:0.354248 13:0.967705 14:0.758333 15:0.627321 16:0.907223 17:0.884874 18:0.648235 
-1 1:0.674962 2:0.502388 3:-0.437848 4:0.688454 5:0.814429 6:-0.208724 7:0.674693 8:0.626219 9:0.526987 10:0.923385 11:0.908755 12:0.449673 13:0.926182 14:0.596429 15:0.558355 16:0.914269 17:0.866503 18:0.738841 
-1 1:0.127164 2:0.299979 3:0.064766 4:0.1611 5:0.790639 6:0.293902 7:0.083633 8:0.159504 9:0.334741 10:0.510577 11:0.459926 12:-0.29281 13:0.468281 14:0.134524 15:-0.0888594 16:0.431591 17:0.630129 18:0.27515 
1 1:0.343313 2:0.225271 3:-0.582254 4:0.339869 5:0.281026 6:-0.530364 7:0.367342 8:0.361135 9:0.316712 10:0.755289 11:0.74106 12:0.445752 13:0.757785 14:0.730952 15:0.496021 16:0.742807 17:0.730557 18:0.638907 
1 1:0.379794 2:0.61523 3:-0.171429 4:0.365226 5:0.350573 6:-0.317096 7:0.341597 8:0.35789 9:0.369771 10:0.747284 11:0.381011 12:0.384314 13:0.739331 14:0.671429 15:0.295756 16:0.688784 17:0.728108 18:0.664224 
1 1:0.671376 2:0.538582 3:-0.420836 4:0.68321 5:0.77124 6:-0.257755 7:0.665921 8:0.64353 9:0.610225 10:0.890223 11:0.865598 12:0.305882 13:0.921569 14:0.710714 15:0.420424 16:0.891955 17:0.882425 18:0.673551 
1 1:0.764268 2:0.56211 3:-0.54797 4:0.778641 5:0.71246 6:-0.403443 7:0.790142 8:0.787375 9:0.804712 10:0.922241 11:0.797781 12:0.647059 13:0.946943 14:0.854762 15:0.698939 16:0.915443 17:0.851806 18:0.637575 
1 1:0.185929 2:0.225846 3:-0.339566 4:0.199206 5:0.2744 6:-0.0221335 7:0.177655 8:0.179716 9:0.0938921 10:0.8502 11:0.61529 12:-0.0183007 13:0.831603 14:0.642857 15:-0.342175 16:0.870816 17:0.780772 18:0.690873 
-1 1:0.490889 2:0.338331 3:-0.546398 4:0.518308 5:0.420609 6:-0.511706 7:0.519039 8:0.499582 9:0.450002 10:0.857061 11:0.718866 12:0.448366 13:0.824683 14:0.802381 15:0.645889 16:0.807399 17:0.867728 18:0.658894 
-1 1:0.725354 2:0.58629 3:-0.322492 4:0.762858 5:0.855316 6:-0.227783 7:0.721413 8:0.72201 9:0.570052 10:0.930246 11:0.884094 12:0.379085 13:0.89158 14:0.820238 15:0.582228 16:0.897827 17:0.867728 18:0.63491 
-1 1:0.83835 2:0.841341 3:-0.386428 4:0.855921 5:0.735569 6:-0.379724 7:0.839846 8:0.812049 9:0.697641 10:0.881075 11:0.691739 12:0.833987 13:0.907728 14:0.813095 15:0.766578 16:0.850851 17:0.817514 18:0.710859 
1 1:0.585826 2:0.593547 3:-0.396532 4:0.600487 5:0.583543 6:-0.185196 7:0.590296 8:0.587023 9:0.468993 10:0.939394 11:0.739827 12:0.384314 13:0.912341 14:0.841667 15:0.145889 16:0.897827 17:0.856705 18:0.756163 
1 1:0.317002 2:0.324627 3:-0.523475 4:0.386498 5:0.673414 6:-0.138853 7:0.319622 8:0.401718 9:0.562444 10:0.8502 11:0.792848 12:0.555556 13:0.815456 14:0.616667 15:0.541114 16:0.817968 17:0.781996 18:0.656229 
1 1:0.450686 2:0.204328 3:-0.728169 4:0.467079 5:0.316802 6:-0.606168 7:0.4626 8:0.442548 9:0.264792 10:0.881075 11:0.768187 12:0.694118 13:0.873126 14:0.789286 15:0.69496 16:0.8532 17:0.854256 18:0.716189 
-1 1:0.859528 2:0.849951 3:-0.303531 4:0.844951 5:0.755224 6:-0.335894 7:0.859735 8:0.859785 9:0.771485 10:0.932533 11:0.7127 12:0.656209 13:0.905421 14:0.795238 15:0.649867 16:0.913095 17:0.840784 18:0.684211 
0.8262300408931845 1:0.0489039 2:0.127383 3:-0.350816 4:0.102097 5:0.480355 6:-0.0429914 7:-0.00987888 8:0.0303256 9:0.0545182 10:0.538022 11:0.373613 12:-0.0235294 13:0.50519 14:0.364286 15:-0.0928382 16:0.504404 17:0.566442 18:0.475017 
-1 1:0.236404 2:0.283001 3:-0.277034 4:0.251205 5:0.349543 6:-0.0453862 7:0.235229 8:0.217634 9:0.12331 10:0.76215 11:0.496917 12:-0.0261438 13:0.778547 14:0.560714 15:-0.236074 16:0.76512 17:0.791794 18:0.598934 
-1 1:0.877096 2:0.54782 3:-0.631387 4:0.894414 5:0.692056 6:-0.507136 7:0.890503 8:0.859631 9:0.626331 10:0.966838 11:0.855734 12:0.656209 13:0.913495 14:0.834524 15:0.802387 16:0.904874 17:0.854256 18:0.773484 
1 1:0.564532 2:0.462629 3:-0.420618 4:0.582158 5:0.531118 6:-0.234635 7:0.569495 8:0.503487 9:0.3867 10:0.860492 11:0.855734 12:0.371242 13:0.847751 14:0.855952 15:0.168435 16:0.864944 17:0.821188 18:0.736176 
1 1:0.948304 2:0.671032 3:-0.426127 4:0.951648 5:0.967665 6:-0.339675 7:0.949718 8:0.927419 9:0.698296 10:0.922241 11:0.868064 12:0.453595 13:0.899654 14:0.840476 15:0.657825 16:0.889607 17:0.92774 18:0.864091 
-1 1:0.616525 2:0.539843 3:-0.477915 4:0.684636 5:0.832248 6:-0.208751 7:0.643886 8:0.695301 9:0.786383 10:0.907376 11:0.852035 12:0.571242 13:0.929642 14:0.77619 15:0.758621 16:0.883735 17:0.893448 18:0.578947 
1 1:0.869545 2:0.791909 3:-0.448014 4:0.891361 5:0.736702 6:-0.246238 7:0.868577 8:0.84395 9:0.708171 10:0.91538 11:0.817509 12:0.419608 13:0.940023 14:0.870238 15:0.388594 16:0.887258 17:0.917942 18:0.736176 
-1 1:0.307357 2:0.62115 3:-0.0823455 4:0.283151 5:0.338715 6:-0.309067 7:0.26634 8:0.276448 9:0.339076 10:0.83076 11:0.355117 12:0.379085 13:0.816609 14:0.675 15:0.15252 16:0.79448 17:0.750153 18:0.529647 
1 1:0.270721 2:0.262764 3:-0.329968 4:0.269795 5:0.331684 6:-0.107658 7:0.244348 8:0.226725 9:0.232265 10:0.847913 11:0.625154 12:-0.0666667 13:0.813149 14:0.730952 15:-0.266578 16:0.837933 17:0.78812 18:0.63491 
1 1:-0.0451456 2:0.0709753 3:-0.344146 4:0.00665079 5:0.42608 6:-0.0370533 7:-0.0921598 8:-0.0704311 9:-0.0213088 10:0.587193 11:0.353884 12:-0.138562 13:0.538639 14:0.317857 15:-0.17374 16:0.52202 17:0.636252 18:0.432378 
1 1:0.484639 2:0.387401 3:-0.412197 4:0.522896 5:0.702318 6:-0.203403 7:0.49265 8:0.477809 9:0.487306 10:0.862779 11:0.848335 12:0.321569 13:0.878893 14:0.635714 15:0.364721 16:0.874339 17:0.844458 18:0.714857 
-1 1:0.518121 2:0.438405 3:-0.349231 4:0.523029 5:0.544325 6:-0.133073 7:0.524669 8:0.453396 9:0.38309 10:0.860492 11:0.796547 12:0.287582 13:0.856978 14:0.775 15:-0.0742706 16:0.844979 17:0.822413 18:0.709527 
-1 1:0.697027 2:0.568613 3:-0.423554 4:0.709434 5:0.671565 6:-0.162875 7:0.698809 8:0.652016 9:0.532531 10:0.919954 11:0.810111 12:0.339869 13:0.877739 14:0.817857 15:0.11008 16:0.841456 17:0.819963 18:0.836109 
1 1:0.0488873 2:0.103852 3:-0.378386 4:0.0973751 5:0.443806 6:-0.106235 7:0.00526004 8:0.0263959 9:0.0394879 10:0.80789 11:0.557337 12:-0.0457516 13:0.768166 14:0.492857 15:-0.096817 16:0.782736 17:0.785671 18:0.736176 
1 1:0.516854 2:0.440665 3:-0.557909 4:0.565287 5:0.678138 6:-0.199031 7:0.515576 8:0.566828 9:0.584675 10:0.887936 11:0.810111 12:0.701961 13:0.852364 14:0.767857 15:0.554377 16:0.850851 17:0.748928 18:0.698867 
0.7173307433492755 1:0.350258 2:0.33355 3:-0.292076 4:0.384047 5:0.658749 6:-0.0913346 7:0.33958 8:0.373353 9:0.337562 10:0.831904 11:0.776819 12:0.101961 13:0.821223 14:0.521429 15:0.274536 16:0.788608 17:0.796693 18:0.538974 
1 1:0.75808 2:0.708112 3:-0.375255 4:0.772558 5:0.735661 6:-0.370809 7:0.737258 8:0.742847 9:0.686402 10:0.945111 11:0.815043 12:0.503268 13:0.937716 14:0.897619 15:0.643236 16:0.897827 17:0.819963 18:0.901399 
1 1:0.751743 2:0.549816 3:-0.536149 4:0.791525 5:0.681897 6:-0.410515 7:0.771264 8:0.760248 9:0.668312 10:0.905089 11:0.836005 12:0.656209 13:0.943483 14:0.864286 15:0.741379 16:0.921315 17:0.908145 18:0.845436 
-1 1:0.747074 2:0.474234 3:-0.661002 4:0.742307 5:0.586835 6:-0.570264 7:0.763331 8:0.723553 9:0.489402 10:0.929102 11:0.855734 12:0.766013 13:0.919262 14:0.853571 15:0.730769 16:0.886083 17:0.850582 18:0.816123 
1 1:0.615735 2:0.510933 3:-0.394908 4:0.649817 5:0.730922 6:-0.276399 7:0.618668 8:0.623986 9:0.538363 10:0.947399 11:0.875462 12:0.322876 13:0.901961 14:0.730952 15:0.47878 16:0.877863 17:0.917942 18:0.592272 
1 1:0.657784 2:0.721407 3:-0.312246 4:0.657358 5:0.567361 6:-0.382745 7:0.654219 8:0.636547 9:0.561832 10:0.923385 11:0.585697 12:0.718954 13:0.915802 14:0.875 15:0.588859 16:0.881386 17:0.875077 18:0.75483 
1 1:0.379478 2:0.617533 3:-0.206361 4:0.354985 5:0.379893 6:-0.292189 7:0.346515 8:0.367489 9:0.38252 10:0.882218 11:0.466091 12:0.49281 13:0.829296 14:0.732143 15:0.176393 16:0.814445 17:0.752603 18:0.822785 
-1 1:0.329398 2:0.13173 3:-0.744455 4:0.343758 5:0.219971 6:-0.639922 7:0.3547 8:0.316518 9:0.172264 10:0.89251 11:0.802713 12:0.568627 13:0.904268 14:0.807143 15:0.602122 16:0.867293 17:0.822413 18:0.829447 
1 1:0.779985 2:0.631856 3:-0.428076 4:0.801826 5:0.886158 6:-0.195048 7:0.753262 8:0.73002 9:0.57591 10:0.909663 11:0.843403 12:0.375163 13:0.911188 14:0.72619 15:0.450928 16:0.907223 17:0.895897 18:0.833444 
-1 1:0.204217 2:0.549826 3:0.0515791 4:0.212478 5:0.470079 6:-0.237413 7:0.12145 8:0.270495 9:0.618543 10:0.865066 11:0.532676 12:0.0993464 13:0.825836 14:0.567857 15:0.160477 16:0.848503 17:0.726883 18:0.316456 
1 1:-0.00607808 2:0.068135 3:-0.335755 4:0.0219146 5:0.453576 6:0.0453119 7:-0.0492843 8:0.0445217 9:0.0808589 10:0.876501 11:0.641184 12:-0.0405229 13:0.803922 14:0.291667 15:0.00132626 16:0.832061 17:0.747704 18:0.331113 
-1 1:0.488329 2:0.559873 3:-0.315279 4:0.509198 5:0.511592 6:-0.116875 7:0.471909 8:0.431856 9:0.468289 10:0.870783 11:0.62762 12:0.354248 13:0.900807 14:0.790476 15:-0.061008 16:0.873165 17:0.886099 18:0.597602 
-1 1:0.785747 2:0.70648 3:-0.395932 4:0.800032 5:0.720457 6:-0.264061 7:0.774041 8:0.768518 9:0.651106 10:0.870783 11:0.748459 12:0.393464 13:0.923875 14:0.741667 15:0.251989 16:0.864944 17:0.851806 18:0.657562 
1 1:0.0273959 2:-0.131778 3:-0.820323 4:0.0326016 5:-0.0624773 6:-0.73678 7:0.0362615 8:0.0225168 9:-0.135995 10:0.544883 11:0.517879 12:0.266667 13:0.553633 14:0.534524 15:0.596817 16:0.541985 17:0.571341 18:0.517655 
1 1:0.913497 2:0.698491 3:-0.527277 4:0.920033 5:0.784198 6:-0.302208 7:0.903089 8:0.872184 9:0.703714 10:0.959977 11:0.832306 12:0.569935 13:0.913495 14:0.879762 15:0.417772 16:0.910746 17:0.884874 18:0.789474 
-1 1:0.93933 2:0.70637 3:-0.459196 4:0.953181 5:0.853081 6:-0.319132 7:0.93583 8:0.855469 9:0.627614 10:0.962264 11:0.921085 12:0.500654 13:0.926182 14:0.870238 15:0.582228 16:0.89313 17:0.90692 18:0.953364 
-1 1:0.53124 2:0.44103 3:-0.410923 4:0.545939 5:0.516322 6:-0.196999 7:0.543474 8:0.505482 9:0.374244 10:0.874214 11:0.722565 12:0.150327 13:0.88812 14:0.82381 15:0.00795756 16:0.857898 17:0.81139 18:0.644237 
-1 1:0.798584 2:0.840788 3:-0.266277 4:0.835134 5:0.723102 6:-0.34298 7:0.798741 8:0.788839 9:0.626246 10:0.925672 11:0.639951 12:0.656209 13:0.93887 14:0.782143 15:0.611406 16:0.894304 17:0.848132 18:0.812125 
-1 1:-0.013956 2:0.0374899 3:-0.535096 4:0.0101619 5:0.14304 6:-0.451438 7:-0.0185845 8:0.0688146 9:0.406738 10:0.640938 11:0.564735 12:0.312418 13:0.666667 14:0.591667 15:0.412467 16:0.600705 17:0.587263 18:0.550966 
1 1:0.183148 2:0.216359 3:-0.314042 4:0.202694 5:0.269953 6:-0.0640124 7:0.16856 8:0.163361 9:0.0978569 10:0.852487 11:0.600493 12:-0.0248366 13:0.823529 14:0.686905 15:-0.289125 16:0.841456 17:0.850582 18:0.657562 
1 1:0.731121 2:0.7009 3:-0.249558 4:0.719957 5:0.734409 6:-0.378036 7:0.708149 8:0.694448 9:0.727099 10:0.95426 11:0.797781 12:0.45098 13:0.94925 14:0.761905 15:0.616711 16:0.897827 17:0.867728 18:0.75483 
1 1:0.203469 2:0.210243 3:-0.323993 4:0.215668 5:0.287809 6:-0.0735742 7:0.204029 8:0.176095 9:0.1667 10:0.874214 11:0.662145 12:-0.0457516 13:0.862745 14:0.64881 15:-0.248011 16:0.806224 17:0.804042 18:0.638907 
0.4872430115571261 1:-0.491929 2:-0.265003 3:-0.468518 4:-0.466022 5:-0.199825 6:-0.433715 7:-0.521139 8:-0.332843 9:0.220262 10:0.356204 11:0.215783 12:-0.121569 13:0.391003 14:0.172619 15:-0.112732 16:0.354081 17:0.375383 18:-0.0153231 
1 1:0.75955 2:0.524561 3:-0.550939 4:0.750619 5:0.606873 6:-0.491218 7:0.773306 8:0.721269 9:0.567968 10:0.882218 11:0.831073 12:0.55817 13:0.910035 14:0.875 15:0.698939 16:0.881386 17:0.856705 18:0.756163 
-1 1:0.176322 2:0.159663 3:-0.445177 4:0.21655 5:0.460632 6:-0.196456 7:0.137551 8:0.158761 9:0.114571 10:0.773585 11:0.580764 12:0.152941 13:0.750865 14:0.580952 15:0.165782 16:0.755725 17:0.763625 18:0.778814 
1 1:0.324768 2:0.25993 3:-0.593219 4:0.348663 5:0.348869 6:-0.449236 7:0.336588 8:0.357867 9:0.457969 10:0.841052 11:0.704069 12:0.588235 13:0.845444 14:0.77619 15:0.526525 16:0.854375 17:0.789345 18:0.614923 
1 1:0.909577 2:0.839211 3:-0.420934 4:0.911277 5:0.802105 6:-0.335004 7:0.915815 8:0.954643 9:0.723796 10:0.895941 11:0.749692 12:0.773856 13:0.915802 14:0.816667 15:0.675066 16:0.917792 17:0.848132 18:0.776149 
1 1:0.948467 2:0.831476 3:-0.413615 4:0.959978 5:0.769987 6:-0.408615 7:0.917674 8:0.893346 9:0.708054 10:0.922241 11:0.718866 12:0.724183 13:0.940023 14:0.85 15:0.685676 16:0.884909 17:0.842009 18:0.840107 
1 1:0.35766 2:0.14623 3:-0.749377 4:0.382251 5:0.258248 6:-0.635621 7:0.37491 8:0.350856 9:0.204843 10:0.905089 11:0.80148 12:0.513725 13:0.858131 14:0.788095 15:0.810345 16:0.870816 17:0.877526 18:0.894737 
1 1:0.556177 2:0.56487 3:-0.379698 4:0.564082 5:0.513603 6:-0.205245 7:0.53929 8:0.567721 9:0.422744 10:0.884505 11:0.74476 12:0.397386 13:0.907728 14:0.897619 15:0.0795756 16:0.891955 17:0.849357 18:0.730846 
-1 1:0.537127 2:0.27599 3:-0.701827 4:0.537852 5:0.425584 6:-0.606201 7:0.554641 8:0.512394 9:0.242076 10:0.891366 11:0.752158 12:0.815686 13:0.898501 14:0.835714 15:0.753316 16:0.835584 17:0.800367 18:0.797468 
1 1:-0.449541 2:0.558897 3:0.666101 4:-0.489583 5:-0.166064 6:-0.0325627 7:-0.57373 8:-0.423057 9:-0.0175271 10:0.202973 11:-0.346486 12:-0.0601307 13:0.156863 14:0.00119048 15:-0.376658 16:0.126248 17:0.312921 18:-0.02998 
1 1:0.607613 2:0.500833 3:-0.467738 4:0.631204 5:0.6048 6:-0.239972 7:0.641306 8:0.59124 9:0.533917 10:0.86964 11:0.812577 12:0.545098 13:0.885813 14:0.935714 15:0.148541 16:0.894304 17:0.870178 18:0.762825 
1 1:0.959154 2:0.701297 3:-0.502585 4:0.981656 5:0.858024 6:-0.286695 7:0.970519 8:0.896583 9:0.730601 10:0.926815 11:0.864365 12:0.620915 13:0.975779 14:0.820238 15:0.397878 16:0.900176 17:0.808941 18:0.777482 
-1 1:0.836658 2:0.552754 3:-0.628577 4:0.850226 5:0.691068 6:-0.519037 7:0.849593 8:0.764126 9:0.582746 10:0.908519 11:0.94328 12:0.647059 13:0.930796 14:0.821429 15:0.835544 16:0.931885 17:0.817514 18:0.804131 
-1 1:0.337875 2:0.373029 3:-0.477238 4:0.406471 5:0.778982 6:-2.69098e-005 7:0.325748 8:0.425817 9:0.635394 10:0.84677 11:0.715166 12:0.543791 13:0.845444 14:0.62381 15:0.469496 16:0.842631 17:0.81139 18:0.610926 
1 1:0.771974 2:0.548751 3:-0.559802 4:0.795148 5:0.68144 6:-0.446647 7:0.826876 8:0.767941 9:0.664984 10:0.921098 11:0.811344 12:0.664052 13:0.89504 14:0.832143 15:0.606101 16:0.906048 17:0.842009 18:0.792139 
1 1:0.382214 2:0.232123 3:-0.579215 4:0.398304 5:0.305302 6:-0.532426 7:0.402545 8:0.395852 9:0.411276 10:0.887936 11:0.807645 12:0.383007 13:0.868512 14:0.790476 15:0.518568 16:0.819143 17:0.774648 18:0.681546 
-1 1:0.321155 2:0.363039 3:-0.427333 4:0.375578 5:0.777136 6:0.04955 7:0.290556 8:0.414131 9:0.684087 10:0.877644 11:0.774353 12:0.312418 13:0.863899 14:0.658333 15:0.388594 16:0.843805 17:0.812615 18:0.584277 
-1 1:0.53679 2:0.369791 3:-0.554288 4:0.541841 5:0.445962 6:-0.472743 7:0.543105 8:0.550083 9:0.4494 10:0.898228 11:0.84217 12:0.637908 13:0.88812 14:0.805952 15:0.56366 16:0.895479 17:0.7624 18:0.709527 
-1 1:0.321607 2:0.240132 3:-0.523261 4:0.353758 5:0.389575 6:-0.432682 7:0.330662 8:0.352994 9:0.562054 10:0.845626 11:0.743527 12:0.368627 13:0.901961 14:0.714286 15:0.535809 16:0.821491 17:0.821188 18:0.746835 
1 1:0.518899 2:0.474876 3:-0.469233 4:0.558847 5:0.799319 6:-0.0592936 7:0.51591 8:0.587327 9:0.78123 10:0.876501 11:0.837238 12:0.522876 13:0.890427 14:0.75 15:0.594164 16:0.886083 17:0.800367 18:0.633578 
-1 1:0.722846 2:0.501336 3:-0.564126 4:0.740635 5:0.564855 6:-0.493686 7:0.745796 8:0.726929 9:0.655372 10:0.870783 11:0.940814 12:0.575163 13:0.870819 14:0.8 15:0.823607 16:0.910746 17:0.806491 18:0.626915 
-1 1:0.506673 2:0.4794 3:-0.29701 4:0.498931 5:0.49189 6:-0.0648429 7:0.506169 8:0.473281 9:0.35754 10:0.885649 11:0.808878 12:0.0143791 13:0.860438 14:0.786905 15:-0.0742706 16:0.837933 17:0.830986 18:0.672219 
-1 1:0.508882 2:0.42121 3:-0.41497 4:0.525944 5:0.497088 6:-0.140962 7:0.502275 8:0.461944 9:0.436616 10:0.879931 11:0.765721 12:0.183007 13:0.908881 14:0.807143 15:-0.0596817 16:0.871991 17:0.824862 18:0.80946 
-1 1:0.730953 2:0.502221 3:-0.573325 4:0.75084 5:0.62439 6:-0.472435 7:0.756385 8:0.717881 9:0.609901 10:0.946255 11:0.852035 12:0.686275 13:0.925029 14:0.87381 15:0.732095 16:0.881386 17:0.859155 18:0.76549 
1 1:-0.39204 2:-0.199621 3:-0.497908 4:-0.374301 5:-0.133205 6:-0.43206 7:-0.418366 8:-0.245233 9:0.241195 10:0.46255 11:0.31566 12:-0.0522876 13:0.471742 14:0.327381 15:-0.030504 16:0.436289 17:0.491733 18:0.0699534 
-1 1:0.827438 2:0.674692 3:-0.492416 4:0.883718 5:0.890386 6:-0.240999 7:0.848013 8:0.826433 9:0.783068 10:0.937107 11:0.817509 12:0.568627 13:0.897347 14:0.830952 15:0.806366 16:0.908397 17:0.804042 18:0.75483 
-1 1:0.522571 2:0.552506 3:-0.381352 4:0.518167 5:0.549158 6:-0.247997 7:0.512391 8:0.49325 9:0.420734 10:0.839909 11:0.676942 12:0.355556 13:0.898501 14:0.759524 15:0.200265 16:0.860247 17:0.773423 18:0.738841 
1 1:0.608 2:0.43507 3:-0.551772 4:0.641429 5:0.659839 6:-0.348316 7:0.605375 8:0.59982 9:0.38453 10:0.932533 11:0.827374 12:0.552941 13:0.88812 14:0.811905 15:0.440318 16:0.890781 17:0.878751 18:0.789474 
-1 1:0.523081 2:0.289246 3:-0.738049 4:0.539349 5:0.408718 6:-0.574711 7:0.53646 8:0.487288 9:0.313449 10:0.887936 11:0.78545 12:0.55817 13:0.914648 14:0.821429 15:0.710875 16:0.83441 17:0.833435 18:0.864091 
-1 1:0.657097 2:0.481432 3:-0.533198 4:0.67702 5:0.608033 6:-0.476224 7:0.668345 8:0.685189 9:0.695995 10:0.91538 11:0.8582 12:0.616993 13:0.903114 14:0.809524 15:0.720159 16:0.883735 17:0.817514 18:0.774817 
1 1:0.217061 2:0.541632 3:0.095772 4:0.199633 5:0.417215 6:-0.245733 7:0.126758 8:0.258618 9:0.645008 10:0.828473 11:0.471023 12:0.141176 13:0.808535 14:0.565476 15:0.103448 16:0.780388 17:0.746479 18:0.356429 
1 1:0.585314 2:0.32975 3:-0.711171 4:0.602402 5:0.455324 6:-0.576238 7:0.59341 8:0.581165 9:0.379269 10:0.91538 11:0.797781 12:0.738562 13:0.907728 14:0.745238 15:0.70557 16:0.850851 17:0.81384 18:0.877415 
-1 1:0.138892 2:0.5131 3:0.0792006 4:0.124545 5:0.454875 6:-0.224474 7:0.0533699 8:0.197213 9:0.557755 10:0.801029 11:0.489519 12:0.0980392 13:0.802768 14:0.583333 15:0.118037 16:0.807399 17:0.784446 18:0.416389 
-1 1:0.83963 2:0.627704 3:-0.563917 4:0.870554 5:0.760574 6:-0.394126 7:0.867691 8:0.850379 9:0.702176 10:0.913093 11:0.880395 12:0.602614 13:0.915802 14:0.792857 15:0.700265 16:0.921315 17:0.799143 18:0.822785 
1 1:0.919828 2:0.603561 3:-0.627241 4:0.952119 5:0.738192 6:-0.523041 7:0.945866 8:0.91353 9:0.622668 10:0.970269 11:0.795314 12:0.76732 13:0.929642 14:0.927381 15:0.812997 16:0.928362 17:0.859155 18:0.788141 
1 1:0.575576 2:0.470619 3:-0.365966 4:0.584002 5:0.607229 6:-0.111753 7:0.588884 8:0.522865 9:0.461355 10:0.871927 11:0.775586 12:0.265359 13:0.875433 14:0.832143 15:-0.0318302 16:0.864944 17:0.791794 18:0.745503 
-1 1:0.450141 2:0.426631 3:-0.549811 4:0.495262 5:0.716863 6:-0.102814 7:0.445136 8:0.494541 9:0.591834 10:0.855918 11:0.704069 12:0.575163 13:0.841984 14:0.661905 15:0.693634 16:0.807399 17:0.819963 18:0.685543 
-1 1:-0.528504 2:0.417216 3:0.666622 4:-0.556948 5:0.107846 6:0.0567981 7:-0.714137 8:-0.361468 9:0.46297 10:0.278445 11:-0.177559 12:-0.278431 13:0.391003 14:-0.195238 15:-0.485411 16:0.520846 17:0.217391 18:-0.213857 
-1 1:0.397551 2:0.550251 3:0.0175668 4:0.414731 5:0.597202 6:0.266077 7:0.380703 8:0.339527 9:0.344424 10:0.511721 11:0.37238 12:-0.159477 13:0.517878 14:0.367857 15:-0.393899 16:0.483265 17:0.568892 18:0.725516 
1 1:0.307926 2:0.104048 3:-0.769218 4:0.32629 5:0.177689 6:-0.654767 7:0.327996 8:0.28131 9:0.153286 10:0.865066 11:0.790382 12:0.628758 13:0.886967 14:0.838095 15:0.744032 16:0.895479 17:0.805266 18:0.793471 
-1 1:0.908704 2:0.816063 3:-0.382793 4:0.909044 5:0.773287 6:-0.36278 7:0.896757 8:0.882001 9:0.739899 10:0.901658 11:0.7164 12:0.74902 13:0.914648 14:0.788095 15:0.586207 16:0.902525 17:0.807716 18:0.977348 
1 1:-0.104962 2:0.476358 3:0.270948 4:-0.12205 5:0.292999 6:-0.170484 7:-0.21761 8:0.00527029 9:0.504612 10:0.712979 11:0.23058 12:-0.0640523 13:0.698962 14:0.279762 15:-0.148541 16:0.763946 17:0.608083 18:0.127249 
-1 1:-0.010965 2:-0.168892 3:-0.809264 4:0.00906171 5:-0.0934595 6:-0.714193 7:0.00179378 8:-0.0229823 9:-0.165097 10:0.747284 11:0.68434 12:0.40915 13:0.745098 14:0.746429 15:0.497347 16:0.738109 17:0.714636 18:0.752165 
1 1:0.528104 2:0.687729 3:-0.128199 4:0.534807 5:0.491576 6:-0.312013 7:0.488611 8:0.506782 9:0.467815 10:0.841052 11:0.559803 12:0.469281 13:0.874279 14:0.734524 15:0.287798 16:0.888432 17:0.799143 18:0.638907 
-1 1:0.717448 2:0.581154 3:-0.486689 4:0.775414 5:0.851298 6:-0.143022 7:0.734466 8:0.742555 9:0.86194 10:0.914237 11:0.861899 12:0.71634 13:0.910035 14:0.759524 15:0.809019 16:0.867293 17:0.833435 18:0.693538 
1 1:0.379794 2:0.375432 3:-0.390606 4:0.392317 5:0.444082 6:-0.100617 7:0.384018 8:0.343682 9:0.241211 10:0.900515 11:0.668311 12:0.0875817 13:0.904268 14:0.777381 15:-0.1313 16:0.864944 17:0.898347 18:0.678881 
1 1:0.562293 2:0.617655 3:-0.30246 4:0.533416 5:0.503846 6:-0.350068 7:0.525306 8:0.536347 9:0.382658 10:0.822756 11:0.574599 12:0.669281 13:0.836217 14:0.789286 15:0.502653 16:0.785085 17:0.733007 18:0.737508 
1 1:0.632075 2:0.547514 3:-0.444601 4:0.700936 5:0.873604 6:-0.129577 7:0.652932 8:0.670777 9:0.734773 10:0.919954 11:0.843403 12:0.555556 13:0.907728 14:0.747619 15:0.643236 16:0.89313 17:0.842009 18:0.737508 
-1 1:0.626197 2:0.470891 3:-0.509599 4:0.668202 5:0.713218 6:-0.287944 7:0.646426 8:0.610673 9:0.402608 10:0.919954 11:0.755857 12:0.528105 13:0.914648 14:0.758333 15:0.547745 16:0.904874 17:0.816289 18:0.761492 
1 1:0.401719 2:0.338346 3:-0.510075 4:0.434453 5:0.572675 6:-0.282955 7:0.390444 8:0.376368 9:0.307809 10:0.882218 11:0.762022 12:0.34902 13:0.871972 14:0.670238 15:0.314324 16:0.837933 17:0.851806 18:0.712192 
0.02013886815875402 1:-0.439434 2:0.00949513 3:-0.238575 4:-0.330532 5:0.644496 6:0.612069 7:-0.513601 8:-0.237185 9:0.552633 10:0.390509 11:0.272503 12:0.0496732 13:0.333333 14:-0.0380952 15:0.0172414 16:0.35643 17:0.470912 18:0.192538 
1 1:0.852493 2:0.677513 3:-0.515528 4:0.90474 5:0.914682 6:-0.260872 7:0.872171 8:0.863534 9:0.787605 10:0.881075 11:0.912454 12:0.823529 13:0.935409 14:0.811905 15:0.876658 16:0.91192 17:0.844458 18:0.758827 
1 1:0.338959 2:0.419006 3:-0.0781971 4:0.362103 5:0.85303 6:0.185109 7:0.302152 8:0.352556 9:0.465669 10:0.692396 11:0.670777 12:-0.105882 13:0.707036 14:0.334524 15:0.0371353 16:0.704052 17:0.724434 18:0.429714 
-1 1:0.544515 2:0.41936 3:-0.292493 4:0.563983 5:0.758966 6:-0.144632 7:0.544791 8:0.536614 9:0.544702 10:0.899371 11:0.871763 12:0.231373 13:0.893887 14:0.627381 15:0.346154 16:0.883735 17:0.826087 18:0.664224 
1 1:0.289858 2:0.547517 3:-0.062647 4:0.267099 5:0.469972 6:-0.222153 7:0.2129 8:0.365742 9:0.572257 10:0.863922 11:0.584464 12:0.185621 13:0.851211 14:0.652381 15:0.189655 16:0.821491 17:0.681568 18:0.480346 
-1 1:0.83124 2:0.62907 3:-0.379551 4:0.821405 5:0.903495 6:-0.231213 7:0.837759 8:0.799016 9:0.707588 10:0.921098 11:0.916153 12:0.32549 13:0.911188 14:0.77619 15:0.614058 16:0.874339 17:0.916718 18:0.736176 
1 1:0.784923 2:0.778342 3:-0.379896 4:0.796297 5:0.684062 6:-0.370953 7:0.799255 8:0.771801 9:0.677929 10:0.890223 11:0.657213 12:0.792157 13:0.922722 14:0.844048 15:0.742706 16:0.879037 17:0.853031 18:0.785476 
1 1:-0.144447 2:-0.293232 3:-0.836275 4:-0.139811 5:-0.213428 6:-0.784825 7:-0.131563 8:-0.178017 9:-0.266373 10:0.836478 11:0.758323 12:0.262745 13:0.859285 14:0.782143 15:0.52122 16:0.796829 17:0.846908 18:0.734843 
-1 1:0.836476 2:0.658198 3:-0.420789 4:0.879484 5:0.862911 6:-0.208062 7:0.83076 8:0.834316 9:0.608848 10:0.897084 11:0.840937 12:0.449673 13:0.912341 14:0.784524 15:0.488064 16:0.917792 17:0.889773 18:0.773484 
-1 1:0.722873 2:0.569548 3:-0.460964 4:0.753982 5:0.763072 6:-0.244476 7:0.72152 8:0.694017 9:0.532273 10:0.921098 11:0.81381 12:0.347712 13:0.889273 14:0.740476 15:0.421751 16:0.909571 17:0.915493 18:0.752165 
-1 1:0.818066 2:0.614391 3:-0.518578 4:0.830012 5:0.74776 6:-0.393758 7:0.84256 8:0.804375 9:0.774842 10:0.903945 11:0.800247 12:0.686275 13:0.926182 14:0.816667 15:0.750663 16:0.888432 17:0.853031 18:0.693538 
1 1:0.665347 2:0.475318 3:-0.559154 4:0.659632 5:0.560741 6:-0.483926 7:0.693838 8:0.613674 9:0.582933 10:0.889079 11:0.755857 12:0.673203 13:0.877739 14:0.811905 15:0.713528 16:0.88256 17:0.843233 18:0.800133 
1 1:0.609549 2:0.72335 3:-0.310098 4:0.59257 5:0.520579 6:-0.394416 7:0.588446 8:0.575335 9:0.509779 10:0.898228 11:0.572133 12:0.675817 13:0.850058 14:0.789286 15:0.607427 16:0.844979 17:0.839559 18:0.725516 
-1 1:0.853673 2:0.633218 3:-0.512229 4:0.890765 5:0.87786 6:-0.236192 7:0.870155 8:0.856114 9:0.84507 10:0.890223 11:0.854501 12:0.700654 13:0.935409 14:0.828571 15:0.755968 16:0.866119 17:0.826087 18:0.873418 
1 1:0.643004 2:0.458827 3:-0.579102 4:0.661483 5:0.547498 6:-0.504308 7:0.683705 8:0.646255 9:0.589647 10:0.895941 11:0.860666 12:0.486275 13:0.907728 14:0.816667 15:0.660477 16:0.850851 17:0.93019 18:0.654897 
-1 1:0.852026 2:0.624524 3:-0.417148 4:0.884767 5:0.765067 6:-0.256396 7:0.88151 8:0.823886 9:0.645625 10:0.921098 11:0.845869 12:0.581699 13:0.912341 14:0.888095 15:0.476127 16:0.904874 17:0.861604 18:0.742838 
1 1:0.468565 2:0.34622 3:-0.522217 4:0.494082 5:0.572436 6:-0.320568 7:0.448903 8:0.410025 9:0.288281 10:0.847913 11:0.792848 12:0.36732 13:0.860438 14:0.710714 15:0.356764 16:0.847328 17:0.815064 18:0.842771 
1 1:0.259611 2:0.239495 3:-0.346301 4:0.301661 5:0.543983 6:-0.132671 7:0.210461 8:0.22345 9:0.176182 10:0.883362 11:0.701603 12:0.0156863 13:0.854671 14:0.59881 15:0.0994695 16:0.857898 17:0.815064 18:0.702865 
-1 1:0.415959 2:0.331372 3:-0.571947 4:0.44818 5:0.469521 6:-0.465423 7:0.422192 8:0.465223 9:0.533935 10:0.847913 11:0.734895 12:0.462745 13:0.856978 14:0.690476 15:0.484085 16:0.826189 17:0.76485 18:0.636243 
1 1:0.834925 2:0.762107 3:-0.421942 4:0.861263 5:0.789121 6:-0.380852 7:0.853016 8:0.826836 9:0.837925 10:0.932533 11:0.827374 12:0.673203 13:0.910035 14:0.834524 15:0.908488 16:0.907223 17:0.840784 18:0.764157 
1 1:-0.0227087 2:0.00164596 3:-0.439341 4:-0.0111808 5:0.0536286 6:-0.457098 7:-0.0244161 8:-0.000550321 9:0.27466 10:0.229274 11:0.267571 12:0.0313725 13:0.205306 14:0.290476 15:0.0291777 16:0.160305 17:0.319045 18:0.243171 
1 1:-0.161472 2:0.289825 3:-0.0544537 4:-0.162611 5:0.125635 6:0.106488 7:-0.219052 8:-0.181156 9:-0.114627 10:0.65466 11:0.0850801 12:-0.121569 13:0.61015 14:0.217857 15:-0.546419 16:0.566647 17:0.712186 18:0.408394 
1 1:0.705869 2:0.549032 3:-0.456735 4:0.715758 5:0.776205 6:-0.205677 7:0.677067 8:0.746704 9:0.77048 10:0.878788 11:0.812577 12:0.623529 13:0.927336 14:0.74881 15:0.856764 16:0.850851 17:0.806491 18:0.660227 
1 1:0.542567 2:0.415434 3:-0.546107 4:0.551476 5:0.539498 6:-0.441435 7:0.552903 8:0.568958 9:0.656931 10:0.908519 11:0.84217 12:0.444444 13:0.886967 14:0.836905 15:0.627321 16:0.900176 17:0.862829 18:0.646902 
-1 1:-0.187925 2:0.0836449 3:-0.340817 4:-0.0860603 5:0.580879 6:0.25856 7:-0.218725 8:-0.0488591 9:0.533792 10:0.644368 11:0.408138 12:0.176471 13:0.629758 14:0.236905 15:0.198939 16:0.665297 17:0.680343 18:0.393738 
1 1:0.845353 2:0.7719 3:-0.29887 4:0.865285 5:0.835393 6:-0.344269 7:0.83711 8:0.8658 9:0.808292 10:0.927959 11:0.837238 12:0.546405 13:0.899654 14:0.9 15:0.557029 16:0.91192 17:0.862829 18:0.713524 
1 1:0.561719 2:0.420797 3:-0.424121 4:0.584849 5:0.743641 6:-0.19843 7:0.554039 8:0.555212 9:0.433587 10:0.91195 11:0.890259 12:0.322876 13:0.923875 14:0.682143 15:0.496021 16:0.868467 17:0.850582 18:0.698867 
1 1:0.734421 2:0.767776 3:-0.389648 4:0.726338 5:0.65132 6:-0.351593 7:0.731306 8:0.682418 9:0.546123 10:0.919954 11:0.65598 12:0.772549 13:0.903114 14:0.827381 15:0.554377 16:0.844979 17:0.81384 18:0.748168 
1 1:0.656917 2:0.638857 3:-0.340519 4:0.668472 5:0.666944 6:-0.356644 7:0.634319 8:0.683949 9:0.618849 10:0.908519 11:0.815043 12:0.568627 13:0.948097 14:0.835714 15:0.523873 16:0.889607 17:0.872627 18:0.69487 
1 1:0.0151601 2:0.0145281 3:-0.563001 4:0.024158 5:0.130674 6:-0.478263 7:-0.00830399 8:0.0941705 9:0.366733 10:0.754145 11:0.669544 12:0.220915 13:0.787774 14:0.729762 15:0.366048 16:0.7569 17:0.778322 18:0.452365 
-1 1:0.387283 2:0.333851 3:-0.353276 4:0.430435 5:0.635122 6:-0.0898425 7:0.367064 8:0.364865 9:0.319918 10:0.902802 11:0.745993 12:0.156863 13:0.8812 14:0.588095 15:0.197613 16:0.886083 17:0.850582 18:0.677548 
-1 1:0.456991 2:0.41799 3:-0.314572 4:0.493591 5:0.733512 6:-0.150881 7:0.456774 8:0.494835 9:0.398971 10:0.919954 11:0.865598 12:0.117647 13:0.851211 14:0.586905 15:0.319629 16:0.907223 17:0.85793 18:0.512325 
1 1:0.0339886 2:0.542977 3:0.0771085 4:0.00763603 5:0.132243 6:-0.251182 7:-0.0357343 8:0.0181897 9:0.151284 10:0.795312 11:0.154131 12:0.24183 13:0.763552 14:0.579762 15:-0.00132626 16:0.743981 17:0.685242 18:0.433711 
-1 1:0.719039 2:0.635796 3:-0.426736 4:0.737173 5:0.657248 6:-0.268244 7:0.710304 8:0.6583 9:0.505653 10:0.902802 11:0.696671 12:0.563399 13:0.908881 14:0.842857 15:0.413793 16:0.879037 17:0.808941 18:0.870753 
1 1:0.819656 2:0.627061 3:-0.480019 4:0.857962 5:0.850924 6:-0.290183 7:0.830182 8:0.852629 9:0.67838 10:0.924528 11:0.887793 12:0.49281 13:0.920415 14:0.79881 15:0.636605 16:0.923664 17:0.835885 18:0.725516 
-1 1:0.809733 2:0.516661 3:-0.634921 4:0.806931 5:0.662821 6:-0.514278 7:0.821316 8:0.785665 9:0.544131 10:0.930246 11:0.821208 12:0.601307 13:0.958478 14:0.835714 15:0.779841 16:0.924839 17:0.851806 18:0.750833 
-1 1:-0.359932 2:0.629165 3:0.578922 4:-0.422145 5:-0.0813165 6:0.0246636 7:-0.497897 8:-0.34093 9:0.037117 10:0.199543 11:-0.398274 12:-0.0666667 13:0.176471 14:-0.0166667 15:-0.403183 16:0.114504 17:0.331292 18:-0.0246502 
1 1:-0.435484 2:-0.137074 3:-0.127323 4:-0.400331 5:0.347216 6:0.239488 7:-0.492031 8:-0.365383 9:-0.121912 10:0.579188 11:0.140567 12:-0.393464 13:0.515571 14:-0.233333 15:-0.285146 16:0.567821 17:0.633803 18:0.0313125 
-1 1:-0.227397 2:0.0670298 3:-0.323631 4:-0.133245 5:0.597207 6:0.377655 7:-0.273157 8:-0.0763188 9:0.525573 10:0.725557 11:0.446363 12:0.14902 13:0.66436 14:0.180952 15:0.116711 16:0.772167 17:0.620331 18:0.391073 
-1 1:0.0507103 2:0.307671 3:-0.172451 4:0.0558675 5:0.225911 6:-0.0840164 7:0.00704527 8:0.0280583 9:0.0264177 10:0.740423 11:0.307028 12:0.020915 13:0.740484 14:0.452381 15:-0.318302 16:0.691133 17:0.717085 18:0.590939 
1 1:0.190735 2:0.374533 3:-0.311655 4:0.19977 5:0.298482 6:-0.128829 7:0.161417 8:0.156602 9:0.161833 10:0.83076 11:0.472256 12:0.203922 13:0.853518 14:0.625 15:-0.224138 16:0.8532 17:0.830986 18:0.698867 
-1 1:0.381596 2:0.240771 3:-0.528993 4:0.390814 5:0.30614 6:-0.549529 7:0.399648 8:0.409399 9:0.34858 10:0.837621 11:0.811344 12:0.479739 13:0.822376 14:0.845238 15:0.701592 16:0.793306 17:0.826087 18:0.716189 
1 1:0.561636 2:0.613749 3:-0.321418 4:0.578752 5:0.625134 6:-0.325058 7:0.53599 8:0.60074 9:0.632553 10:0.900515 11:0.765721 12:0.448366 13:0.906574 14:0.786905 15:0.640584 16:0.907223 17:0.789345 18:0.64024 
-1 1:0.774347 2:0.605481 3:-0.391774 4:0.788098 5:0.857733 6:-0.26151 7:0.793747 8:0.760942 9:0.691966 10:0.907376 11:0.900123 12:0.347712 13:0.915802 14:0.746429 15:0.636605 16:0.917792 17:0.877526 18:0.801466 
-1 1:0.58324 2:0.546596 3:-0.46668 4:0.651177 5:0.868369 6:-0.0340202 7:0.591115 8:0.635862 9:0.756985 10:0.91195 11:0.818742 12:0.522876 13:0.901961 14:0.736905 15:0.545093 16:0.866119 17:0.823637 18:0.616256 
1 1:0.435668 2:0.943773 3:0.161453 4:0.390037 5:0.49242 6:-0.0865454 7:0.345645 8:0.411415 9:0.552048 10:0.556318 11:0.123305 12:0.313725 13:0.50173 14:0.504762 15:0.0994695 16:0.459777 17:0.638702 18:0.606929 
-1 1:-0.247249 2:-0.120688 3:-0.482607 4:-0.231539 5:-0.0519651 6:-0.433308 7:-0.273661 8:-0.125185 9:0.251513 10:0.744997 11:0.478422 12:-0.0143791 13:0.770473 14:0.508333 15:0.128647 16:0.747504 17:0.643601 18:0.196536 
-1 1:-0.227166 2:0.0746665 3:0.0900908 4:-0.225726 5:0.110972 6:0.428455 7:-0.293227 8:-0.281344 9:-0.154784 10:0.396226 11:-0.0628853 12:-0.504575 13:0.415225 14:0.00595238 15:-0.664456 16:0.458602 17:0.590937 18:0.365756 
1 1:0.193718 2:0.163512 3:-0.541856 4:0.212929 5:0.265909 6:-0.44113 7:0.192823 8:0.269864 9:0.442522 10:0.860492 11:0.774353 12:0.20915 13:0.831603 14:0.685714 15:0.362069 16:0.857898 17:0.736681 18:0.576282 
-1 1:0.665616 2:0.62547 3:-0.385723 4:0.653277 5:0.623403 6:-0.212096 7:0.632294 8:0.599695 9:0.49808 10:0.878788 11:0.707768 12:0.388235 13:0.907728 14:0.79881 15:0.257294 16:0.867293 17:0.833435 18:0.793471 
-1 1:0.621426 2:0.517283 3:-0.388483 4:0.664637 5:0.813015 6:-0.194236 7:0.631112 8:0.627097 9:0.49292 10:0.903945 11:0.871763 12:0.342484 13:0.901961 14:0.635714 15:0.411141 16:0.891955 17:0.838334 18:0.654897 
1 1:0.823756 2:0.679784 3:-0.479546 4:0.842128 5:0.726272 6:-0.35567 7:0.829809 8:0.799682 9:0.645235 10:0.941681 11:0.775586 12:0.54902 13:0.907728 14:0.860714 15:0.452255 16:0.894304 17:0.826087 18:0.82012 
1 1:0.688194 2:0.433429 3:-0.68546 4:0.706632 5:0.536811 6:-0.573956 7:0.714017 8:0.650045 9:0.444015 10:0.949686 11:0.860666 12:0.572549 13:0.928489 14:0.795238 15:0.893899 16:0.921315 17:0.799143 18:0.792139 
1 1:1 2:0.80666 3:-0.437222 4:0.99578 5:0.90271 6:-0.412225 7:0.985848 8:0.964846 9:0.834828 10:0.941681 11:0.942047 12:0.666667 13:0.94925 14:0.813095 15:0.840849 16:0.938931 17:0.903246 18:0.792139 
-1 1:0.466758 2:0.629961 3:-0.196177 4:0.452836 5:0.435411 6:-0.324416 7:0.431139 8:0.459219 9:0.425913 10:0.825043 11:0.483354 12:0.545098 13:0.820069 14:0.727381 15:0.419098 16:0.836759 17:0.79057 18:0.724184 
-1 1:-0.00174638 2:0.268679 3:-0.221642 4:-0.00150105 5:0.187529 6:-0.105758 7:-0.0473645 8:-0.0158998 9:0.00336833 10:0.759863 11:0.335388 12:0.0509804 13:0.756632 14:0.479762 15:-0.35809 16:0.733412 17:0.7624 18:0.545636 
-1 1:0.566743 2:0.736915 3:-0.223227 4:0.555963 5:0.550713 6:-0.321414 7:0.530921 8:0.547962 9:0.495859 10:0.878788 11:0.55857 12:0.750327 13:0.897347 14:0.778571 15:0.355438 16:0.862595 17:0.822413 18:0.925383 
-1 1:0.686504 2:0.53036 3:-0.397441 4:0.697591 5:0.65069 6:-0.182966 7:0.700286 8:0.636828 9:0.506742 10:0.927959 11:0.8582 12:0.341176 13:0.890427 14:0.910714 15:0.160477 16:0.917792 17:0.851806 18:0.82545 
1 1:0.641457 2:0.53693 3:-0.406815 4:0.656615 5:0.57377 6:-0.138963 7:0.660712 8:0.597071 9:0.569376 10:0.890223 11:0.833539 12:0.249673 13:0.918108 14:0.830952 15:0.061008 16:0.897827 17:0.882425 18:0.672219 
1 1:0.628312 2:0.510671 3:-0.38647 4:0.636835 5:0.648852 6:-0.182527 7:0.651728 8:0.602598 9:0.494351 10:0.931389 11:0.776819 12:0.315033 13:0.889273 14:0.777381 15:0.127321 16:0.889607 17:0.85793 18:0.82545 
-1 1:0.317415 2:0.259101 3:-0.517863 4:0.335134 5:0.366386 6:-0.429481 7:0.316611 8:0.377334 9:0.540744 10:0.86964 11:0.711467 12:0.422222 13:0.846597 14:0.702381 15:0.420424 16:0.864944 17:0.828536 18:0.557628 
1 1:-0.391893 2:0.0156547 3:-0.228346 4:-0.286516 5:0.678033 6:0.593992 7:-0.464728 8:-0.192088 9:0.575125 10:0.43968 11:0.286067 12:0.0875817 13:0.399077 14:0.0107143 15:0.00265252 16:0.388139 17:0.492958 18:0.200533 
1 1:0.445754 2:0.35471 3:-0.568135 4:0.467842 5:0.45211 6:-0.46276 7:0.453124 8:0.495227 9:0.561089 10:0.874214 11:0.737361 12:0.443137 13:0.866205 14:0.763095 15:0.685676 16:0.844979 17:0.830986 18:0.69487 
0.6168846889157681 1:0.652669 2:0.511227 3:-0.383154 4:0.677241 5:0.788376 6:-0.232042 7:0.63034 8:0.640197 9:0.57497 10:0.922241 11:0.939581 12:0.379085 13:0.914648 14:0.691667 15:0.476127 16:0.918967 17:0.801592 18:0.596269 
1 1:0.664037 2:0.49485 3:-0.511803 4:0.683775 5:0.61691 6:-0.410394 7:0.669142 8:0.687786 9:0.703498 10:0.926815 11:0.827374 12:0.513725 13:0.910035 14:0.805952 15:0.456233 16:0.880211 17:0.848132 18:0.76549 
1 1:-0.0492893 2:0.0815851 3:-0.243554 4:-0.0386046 5:0.109884 6:-0.0108833 7:-0.0610026 8:-0.071013 9:-0.0602128 10:0.80446 11:0.363748 12:-0.231373 13:0.795848 14:0.453571 15:-0.411141 16:0.796829 17:0.76485 18:0.653564 
1 1:0.788024 2:0.497187 3:-0.6634 4:0.823301 5:0.615604 6:-0.570491 7:0.805886 8:0.787045 9:0.558053 10:0.925672 11:0.796547 12:0.70719 13:0.991926 14:0.841667 15:0.973475 16:0.906048 17:0.866503 18:0.918721 
1 1:0.621027 2:0.453063 3:-0.574166 4:0.642698 5:0.569387 6:-0.479938 7:0.640885 8:0.664757 9:0.617974 10:0.91195 11:0.836005 12:0.654902 13:0.877739 14:0.807143 15:0.683024 16:0.874339 17:0.786895 18:0.649567 
1 1:0.284951 2:0.321192 3:-0.306244 4:0.304657 5:0.343583 6:-0.0683245 7:0.293249 8:0.272109 9:0.191806 10:0.82733 11:0.607891 12:-0.0627451 13:0.841984 14:0.703571 15:-0.249337 16:0.813271 17:0.78812 18:0.661559 
1 1:0.703099 2:0.571157 3:-0.451824 4:0.741515 5:0.78189 6:-0.23026 7:0.700652 8:0.692083 9:0.548169 10:0.949686 11:0.864365 12:0.513725 13:0.936563 14:0.825 15:0.47878 16:0.944803 17:0.842009 18:0.841439 
-1 1:-0.184688 2:0.699227 3:0.518223 4:-0.250685 5:0.0244268 6:-0.0310489 7:-0.313511 8:-0.180999 9:0.138866 10:0.225843 11:-0.294698 12:-0.0196078 13:0.176471 14:0.158333 15:-0.262599 16:0.116853 17:0.357012 18:0.111259 
-1 1:0.734968 2:0.662642 3:-0.382703 4:0.748795 5:0.695986 6:-0.268663 7:0.714807 8:0.703683 9:0.608396 10:0.917667 11:0.763255 12:0.547712 13:0.934256 14:0.807143 15:0.34748 16:0.891955 17:0.845683 18:0.708195 
-1 1:0.51772 2:0.297304 3:-0.717971 4:0.51465 5:0.362926 6:-0.608396 7:0.54283 8:0.471033 9:0.31992 10:0.879931 11:0.827374 12:0.469281 13:0.861592 14:0.803571 15:0.823607 16:0.832061 17:0.839559 18:0.792139 
1 1:-0.28403 2:0.595499 3:0.529722 4:-0.331956 5:-0.0351929 6:-0.0635408 7:-0.408615 8:-0.276869 9:0.104497 10:0.507147 11:-0.237978 12:0.0169935 13:0.504037 14:0.203571 15:-0.269231 16:0.499706 17:0.593386 18:0.161892 
1 1:-0.531469 2:-0.300908 3:-0.468509 4:-0.511576 5:-0.25259 6:-0.43291 7:-0.565577 8:-0.386281 9:0.200526 10:0.35506 11:0.163995 12:-0.23268 13:0.347174 14:0.145238 15:-0.179045 16:0.332942 17:0.358236 18:-0.0699534 
1 1:0.802051 2:0.741783 3:-0.351006 4:0.809437 5:0.706124 6:-0.322242 7:0.778427 8:0.784609 9:0.690924 10:0.898228 11:0.750925 12:0.54902 13:0.912341 14:0.861905 15:0.729443 16:0.881386 17:0.90447 18:0.806795 
-1 1:0.702141 2:0.629255 3:-0.427405 4:0.715206 5:0.634048 6:-0.32189 7:0.710144 8:0.700281 9:0.599393 10:0.881075 11:0.733662 12:0.51634 13:0.890427 14:0.820238 15:0.367374 16:0.883735 17:0.855481 18:0.728181 
1 1:0.818474 2:0.846916 3:-0.299574 4:0.811409 5:0.697467 6:-0.342387 7:0.799591 8:0.82784 9:0.58712 10:0.937107 11:0.726264 12:0.571242 13:0.957324 14:0.789286 15:0.583554 16:0.880211 17:0.846908 18:0.777482 
-1 1:0.300466 2:0.257377 3:-0.406973 4:0.342147 5:0.556768 6:-0.22906 7:0.272364 8:0.271174 9:0.125472 10:0.86964 11:0.715166 12:0.145098 13:0.851211 14:0.627381 15:0.137931 16:0.832061 17:0.842009 18:0.808128 
-1 1:0.747846 2:0.713629 3:-0.259954 4:0.748738 5:0.763716 6:-0.313853 7:0.694328 8:0.752099 9:0.770203 10:0.916524 11:0.836005 12:0.449673 13:0.927336 14:0.854762 15:0.583554 16:0.888432 17:0.872627 18:0.665556 
-1 1:0.771418 2:0.556397 3:-0.526906 4:0.785604 5:0.707473 6:-0.407196 7:0.785632 8:0.781974 9:0.711258 10:0.917667 11:0.855734 12:0.76732 13:0.911188 14:0.847619 15:0.742706 16:0.901351 17:0.848132 18:0.668221 
1 1:0.730133 2:0.555846 3:-0.492798 4:0.772357 5:0.664543 6:-0.299606 7:0.758841 8:0.668371 9:0.528838 10:0.893654 11:0.880395 12:0.533333 13:0.928489 14:0.883333 15:0.279841 16:0.88256 17:0.839559 18:0.740173 
1 1:0.8831 2:0.824849 3:-0.343558 4:0.895191 5:0.750151 6:-0.341424 7:0.894923 8:0.893905 9:0.691383 10:0.942824 11:0.754624 12:0.789542 13:0.923875 14:0.959524 15:0.538462 16:0.918967 17:0.838334 18:0.757495 
1 1:0.68422 2:0.533825 3:-0.465482 4:0.695166 5:0.605027 6:-0.309229 7:0.676555 8:0.657676 9:0.443987 10:0.883362 11:0.815043 12:0.457516 13:0.908881 14:0.879762 15:0.230769 16:0.881386 17:0.812615 18:0.800133 
-1 1:0.603653 2:0.567469 3:-0.430409 4:0.662078 5:0.861529 6:-0.0684314 7:0.590013 8:0.623391 9:0.69174 10:0.953116 11:0.863132 12:0.564706 13:0.900807 14:0.788095 15:0.639257 16:0.902525 17:0.882425 18:0.701532 
1 1:-0.0851586 2:-0.00711625 3:-0.538974 4:-0.0740031 5:0.0436475 6:-0.452251 7:-0.0997193 8:0.0234061 9:0.286325 10:0.817038 11:0.641184 12:0.0601307 13:0.818916 14:0.619048 15:0.217507 16:0.778039 17:0.747704 18:0.385743 
-1 1:0.113257 2:0.176195 3:-0.273273 4:0.120023 5:0.234458 6:-0.00446084 7:0.0956188 8:0.0528505 9:0.0840393 10:0.806747 11:0.543773 12:-0.126797 13:0.818916 14:0.571429 15:-0.346154 16:0.808573 17:0.830986 18:0.565623 
1 1:0.0622781 2:0.471664 3:0.108736 4:0.0541383 5:0.326208 6:-0.235149 7:-0.0283598 8:0.164644 9:0.469869 10:0.823899 11:0.467324 12:0.0509804 13:0.841984 14:0.486905 15:-0.0106101 16:0.816794 17:0.755052 18:0.451033 
1 1:0.534375 2:0.650487 3:-0.0298843 4:0.557864 5:0.662741 6:0.168942 7:0.533067 8:0.481801 9:0.413677 10:0.63522 11:0.480888 12:-0.0183007 13:0.66782 14:0.619048 15:-0.27321 16:0.637111 17:0.650949 18:0.76549 
-1 1:0.648005 2:0.618532 3:-0.399225 4:0.666119 5:0.622718 6:-0.268643 7:0.641588 8:0.632194 9:0.515122 10:0.866209 11:0.752158 12:0.388235 13:0.885813 14:0.791667 15:0.229443 16:0.888432 17:0.783221 18:0.758827 
1 1:0.264311 2:0.0549819 3:-0.776059 4:0.278155 5:0.16908 6:-0.650923 7:0.277574 8:0.244334 9:0.0649309 10:0.852487 11:0.786683 12:0.518954 13:0.836217 14:0.727381 15:0.685676 16:0.773341 17:0.808941 18:0.69487 
-1 1:0.863038 2:0.782827 3:-0.23026 4:0.851372 5:0.832216 6:-0.325613 7:0.82633 8:0.875613 9:0.821887 10:0.939394 11:0.747226 12:0.626144 13:0.935409 14:0.907143 15:0.615385 16:0.900176 17:0.85793 18:0.657562 
1 1:0.393282 2:0.61338 3:-0.201655 4:0.385831 5:0.361202 6:-0.29876 7:0.357815 8:0.385659 9:0.408447 10:0.842196 11:0.487053 12:0.524183 13:0.820069 14:0.730952 15:0.267905 16:0.80505 17:0.783221 18:0.770819 
1 1:0.687826 2:0.513643 3:-0.555162 4:0.69829 5:0.639373 6:-0.478322 7:0.688702 8:0.721709 9:0.672371 10:0.95769 11:0.786683 12:0.709804 13:0.931949 14:0.783333 15:0.637931 16:0.891955 17:0.868953 18:0.782811 
1 1:0.440542 2:0.570418 3:-0.167558 4:0.432064 5:0.538 6:-0.303363 7:0.383854 8:0.44289 9:0.584984 10:0.903945 11:0.727497 12:0.230065 13:0.865052 14:0.786905 15:0.330239 16:0.861421 17:0.839559 18:0.757495 
1 1:0.634867 2:0.60036 3:-0.455208 4:0.660943 5:0.617731 6:-0.247489 7:0.645628 8:0.60617 9:0.466681 10:0.940537 11:0.737361 12:0.569935 13:0.886967 14:0.827381 15:0.192308 16:0.844979 17:0.879976 18:0.748168 
1 1:0.700773 2:0.656196 3:-0.397302 4:0.716414 5:0.645249 6:-0.249033 7:0.70032 8:0.704319 9:0.540472 10:0.879931 11:0.766954 12:0.377778 13:0.897347 14:0.77619 15:0.323607 16:0.875514 17:0.897122 18:0.592272 
1 1:0.214371 2:0.241404 3:-0.396409 4:0.264702 5:0.544721 6:-0.121051 7:0.180254 8:0.182344 9:0.138178 10:0.588336 11:0.500617 12:0.0248366 13:0.565167 14:0.45 15:0.0503979 16:0.558426 17:0.597061 18:0.596269 
-1 1:-0.124467 2:-0.0370803 3:-0.544806 4:-0.112455 5:0.0516935 6:-0.439126 7:-0.135357 8:-0.0249679 9:0.301915 10:0.629503 11:0.541307 12:0.164706 13:0.640138 14:0.465476 15:0.254642 16:0.631239 17:0.702388 18:0.44437 
1 1:0.821425 2:0.615062 3:-0.479308 4:0.811903 5:0.718723 6:-0.317178 7:0.837223 8:0.748943 9:0.500699 10:0.91538 11:0.919852 12:0.500654 13:0.935409 14:0.833333 15:0.534483 16:0.948326 17:0.900796 18:0.669554 
-1 1:0.0769322 2:0.340168 3:-0.242824 4:0.0673217 5:0.249357 6:-0.0375118 7:0.0281739 8:0.0659834 9:0.0865209 10:0.849057 11:0.387176 12:0.0705882 13:0.835063 14:0.508333 15:-0.428382 16:0.78626 17:0.810165 18:0.557628 
1 1:0.419894 2:0.412805 3:-0.486532 4:0.479945 5:0.728271 6:-0.112191 7:0.425308 8:0.491686 9:0.654575 10:0.866209 11:0.823674 12:0.477124 13:0.866205 14:0.682143 15:0.526525 16:0.881386 17:0.838334 18:0.62425 
-1 1:0.724213 2:0.448431 3:-0.673734 4:0.736378 5:0.572805 6:-0.571194 7:0.750315 8:0.699385 9:0.492717 10:0.916524 11:0.808878 12:0.656209 13:0.937716 14:0.813095 15:0.823607 16:0.897827 17:0.878751 18:0.833444 
-1 1:0.771959 2:0.604675 3:-0.4285 4:0.800439 5:0.713201 6:-0.179795 7:0.797944 8:0.701021 9:0.659837 10:0.947399 11:0.763255 12:0.418301 13:0.937716 14:0.936905 15:0.20557 16:0.896653 17:0.816289 18:0.850766 
-1 1:0.793969 2:0.522458 3:-0.634658 4:0.817547 5:0.645002 6:-0.548895 7:0.817531 8:0.773343 9:0.556349 10:0.942824 11:0.827374 12:0.498039 13:0.926182 14:0.886905 15:0.679045 16:0.883735 17:0.915493 18:0.838774 
-1 1:0.778868 2:0.765625 3:-0.364429 4:0.775892 5:0.632485 6:-0.348529 7:0.77177 8:0.720828 9:0.633487 10:0.897084 11:0.598027 12:0.673203 13:0.899654 14:0.828571 15:0.672414 16:0.867293 17:0.830986 18:0.866755 
1 1:0.409784 2:0.408327 3:-0.48908 4:0.464086 5:0.74927 6:-0.101273 7:0.41055 8:0.438911 9:0.632116 10:0.900515 11:0.771887 12:0.644444 13:0.844291 14:0.711905 15:0.56366 16:0.825015 17:0.808941 18:0.720187 
1 1:0.593226 2:0.347421 3:-0.690137 4:0.606389 5:0.478555 6:-0.5702 7:0.614851 8:0.566574 9:0.381195 10:0.916524 11:0.855734 12:0.579085 13:0.908881 14:0.794048 15:0.757294 16:0.883735 17:0.872627 18:0.805463 
1 1:0.440609 2:0.329691 3:-0.508931 4:0.481495 5:0.59186 6:-0.320723 7:0.434871 8:0.409973 9:0.309851 10:0.865066 11:0.803946 12:0.466667 13:0.876586 14:0.777381 15:0.431034 16:0.8532 17:0.759951 18:0.892072 
-1 1:0.269128 2:0.32047 3:-0.510255 4:0.331677 5:0.637361 6:-0.0749825 7:0.262055 8:0.351071 9:0.505782 10:0.759863 11:0.745993 12:0.477124 13:0.749712 14:0.569048 15:0.592838 16:0.725191 17:0.729333 18:0.653564 
-1 1:0.945499 2:0.781213 3:-0.364656 4:0.960976 5:0.896667 6:-0.35917 7:0.939551 8:0.944062 9:0.845972 10:0.948542 11:0.854501 12:0.715033 13:0.955017 14:0.82381 15:0.839523 16:0.927187 17:0.821188 18:0.805463 
-1 1:0.286149 2:0.641698 3:0.0504518 4:0.262985 5:0.337195 6:-0.258049 7:0.243078 8:0.297067 9:0.380515 10:0.812464 11:0.346486 12:0.337255 13:0.836217 14:0.610714 15:0.115385 16:0.802701 17:0.778322 18:0.553631 
