svm_type nu_svr
kernel_type rbf
gamma 0.0555556
nr_class 2
total_sv 2583
rho 0.221562
probA 0.0979977
SV
1 1:0.243366 2:0.673956 3:0.20323 4:0.247886 5:0.558806 6:-0.0981303 7:0.130705 8:0.329837 9:0.735493 10:0.731275 11:0.496917 12:0.133333 13:0.782007 14:0.580952 15:0.0822281 16:0.72754 17:0.810165 18:0.506995 
-1 1:0.624666 2:0.610079 3:-0.354538 4:0.652106 5:0.667312 6:-0.179547 7:0.643406 8:0.653793 9:0.54515 10:0.894797 11:0.694205 12:0.346405 13:0.928489 14:0.791667 15:0.114058 16:0.870816 17:0.861604 18:0.729514 
-1 1:0.769079 2:0.601275 3:-0.390128 4:0.789223 5:0.902441 6:-0.186294 7:0.776482 8:0.784194 9:0.725638 10:0.973699 11:0.836005 12:0.428758 13:0.916955 14:0.70119 15:0.517241 16:0.930711 17:0.855481 18:0.556296 
-1 1:0.776046 2:0.813767 3:-0.225999 4:0.765523 5:0.64954 6:-0.350184 7:0.758091 8:0.717338 9:0.609391 10:0.898228 11:0.670777 12:0.661438 13:0.904268 14:0.755952 15:0.558355 16:0.852026 17:0.780772 18:0.721519 
-1 1:0.789324 2:0.601085 3:-0.398555 4:0.811031 5:0.859802 6:-0.196532 7:0.772496 8:0.731395 9:0.558406 10:0.91538 11:0.837238 12:0.32549 13:0.923875 14:0.728571 15:0.404509 16:0.89313 17:0.789345 18:0.786809 
-1 1:0.361196 2:0.355963 3:-0.311499 4:0.3959 5:0.726341 6:-0.0777419 7:0.351525 8:0.356858 9:0.362666 10:0.884505 11:0.726264 12:0.207843 13:0.893887 14:0.516667 15:0.228117 16:0.875514 17:0.800367 18:0.58561 
-1 1:0.862923 2:0.628394 3:-0.41451 4:0.884982 5:0.919176 6:-0.215519 7:0.851562 8:0.791765 9:0.714143 10:0.941681 11:0.854501 12:0.457516 13:0.935409 14:0.788095 15:0.437666 16:0.908397 17:0.873852 18:0.826782 
1 1:0.6851 2:0.672977 3:-0.368568 4:0.695588 5:0.682609 6:-0.402554 7:0.664189 8:0.738138 9:0.717583 10:0.950829 11:0.828607 12:0.592157 13:0.935409 14:0.85 15:0.820955 16:0.897827 17:0.855481 18:0.804131 
1 1:0.376078 2:0.483368 3:-0.306347 4:0.374802 5:0.440243 6:-0.199144 7:0.352639 8:0.328514 9:0.304838 10:0.764437 11:0.483354 12:0.300654 13:0.739331 14:0.682143 15:-0.0411141 16:0.705226 17:0.761176 18:0.738841 
1 1:0.722819 2:0.505563 3:-0.573463 4:0.730822 5:0.602039 6:-0.441418 7:0.746313 8:0.706126 9:0.555843 10:0.891366 11:0.805179 12:0.522876 13:0.859285 14:0.779762 15:0.624668 16:0.860247 17:0.844458 18:0.7002 
-1 1:0.530606 2:0.298737 3:-0.681395 4:0.534721 5:0.408069 6:-0.595128 7:0.5518 8:0.514692 9:0.350968 10:0.908519 11:0.750925 12:0.648366 13:0.858131 14:0.833333 15:0.791777 16:0.910746 17:0.865279 18:0.733511 
1 1:0.568664 2:0.635116 3:-0.282816 4:0.588317 5:0.648396 6:-0.342713 7:0.52788 8:0.614146 9:0.707709 10:0.874214 11:0.863132 12:0.32549 13:0.89158 14:0.770238 15:0.534483 16:0.879037 17:0.7624 18:0.842771 
1 1:0.718484 2:0.621315 3:-0.431756 4:0.727405 5:0.68661 6:-0.287965 7:0.719504 8:0.713489 9:0.535693 10:0.900515 11:0.774353 12:0.550327 13:0.916955 14:0.864286 15:0.429708 16:0.850851 17:0.8812 18:0.732179 
-1 1:0.101981 2:0.146587 3:-0.33789 4:0.165327 5:0.52912 6:-0.0273695 7:0.0475111 8:0.0718032 9:0.100889 10:0.408805 11:0.346486 12:-0.103268 13:0.372549 14:0.340476 15:-0.0570292 16:0.307105 17:0.489284 18:0.33511 
-1 1:0.803252 2:0.519665 3:-0.647147 4:0.800162 5:0.654216 6:-0.528948 7:0.802281 8:0.770835 9:0.570268 10:0.925672 11:0.882861 12:0.694118 13:0.931949 14:0.815476 15:0.624668 16:0.899002 17:0.876301 18:0.818787 
-1 1:0.489292 2:0.382086 3:-0.450594 4:0.521337 5:0.658094 6:-0.221264 7:0.469478 8:0.469806 9:0.399374 10:0.897084 11:0.77312 12:0.35817 13:0.89158 14:0.716667 15:0.293103 16:0.881386 17:0.816289 18:0.76016 
1 1:0.263319 2:0.198071 3:-0.476014 4:0.314011 5:0.487554 6:-0.249035 7:0.237883 8:0.244665 9:0.205933 10:0.773585 11:0.659679 12:0.20915 13:0.762399 14:0.611905 15:0.196286 16:0.731063 17:0.73913 18:0.696203 
-1 1:0.917372 2:0.660129 3:-0.435914 4:0.918567 5:0.967466 6:-0.287575 7:0.905217 8:0.87325 9:0.675611 10:0.946255 11:0.871763 12:0.640523 13:0.916955 14:0.721429 15:0.714854 16:0.945978 17:0.844458 18:0.680213 
-1 1:0.4931 2:0.396305 3:-0.502095 4:0.5098 5:0.512569 6:-0.41196 7:0.500423 8:0.550637 9:0.65127 10:0.895941 11:0.808878 12:0.484967 13:0.904268 14:0.875 15:0.537135 16:0.859072 17:0.845683 18:0.672219 
1 1:0.534695 2:0.319626 3:-0.701991 4:0.547862 5:0.43133 6:-0.596554 7:0.570966 8:0.525303 9:0.297616 10:0.900515 11:0.781751 12:0.711111 13:0.900807 14:0.852381 15:0.669761 16:0.899002 17:0.86038 18:0.728181 
-1 1:0.539918 2:0.309564 3:-0.668556 4:0.554155 5:0.394808 6:-0.599874 7:0.568218 8:0.519083 9:0.343028 10:0.883362 11:0.805179 12:0.601307 13:0.919262 14:0.786905 15:0.668435 16:0.910746 17:0.856705 18:0.810793 
1 1:0.42869 2:0.300009 3:-0.509027 4:0.464029 5:0.566397 6:-0.285421 7:0.401127 8:0.405744 9:0.265764 10:0.867353 11:0.713933 12:0.475817 13:0.875433 14:0.715476 15:0.330239 16:0.879037 17:0.843233 18:0.737508 
1 1:0.670593 2:0.668897 3:-0.310891 4:0.693002 5:0.733433 6:-0.337431 7:0.652148 8:0.698579 9:0.669575 10:0.898228 11:0.881628 12:0.457516 13:0.93887 14:0.811905 15:0.572944 16:0.908397 17:0.856705 18:0.800133 
1 1:0.935101 2:0.628487 3:-0.614651 4:0.944594 5:0.765672 6:-0.495801 7:0.964757 8:0.902944 9:0.648051 10:0.970269 11:0.824908 12:0.698039 13:0.915802 14:0.858333 15:0.746684 16:0.909571 17:0.859155 18:0.88541 
1 1:0.416421 2:0.596472 3:-0.113051 4:0.424027 5:0.535437 6:-0.272474 7:0.369906 8:0.483633 9:0.66305 10:0.877644 11:0.678175 12:0.303268 13:0.867359 14:0.795238 15:0.428382 16:0.830887 17:0.821188 18:0.616256 
-1 1:0.421689 2:0.332229 3:-0.352811 4:0.455613 5:0.674027 6:-0.15331 7:0.403406 8:0.389577 9:0.362487 10:0.899371 11:0.747226 12:0.156863 13:0.8812 14:0.640476 15:0.167109 16:0.855549 17:0.775873 18:0.794803 
-1 1:0.33338 2:0.341619 3:-0.291237 4:0.401299 5:0.69591 6:0.00715564 7:0.309917 8:0.322415 9:0.386922 10:0.853631 11:0.621455 12:0.096732 13:0.853518 14:0.546429 15:0.0132626 16:0.810922 17:0.843233 18:0.566955 
1 1:0.947472 2:0.678554 3:-0.502737 4:0.961373 5:0.882507 6:-0.307706 7:0.951311 8:0.928899 9:0.696729 10:0.959977 11:0.811344 12:0.759477 13:0.959631 14:0.819048 15:0.592838 16:0.931885 17:0.819963 18:0.770819 
-1 1:0.699982 2:0.441709 3:-0.6816 4:0.689615 5:0.594288 6:-0.535668 7:0.714599 8:0.682828 9:0.431199 10:0.927959 11:0.848335 12:0.545098 13:0.919262 14:0.828571 15:0.763926 16:0.904874 17:0.846908 18:0.812125 
1 1:0.895372 2:0.634678 3:-0.53267 4:0.912001 5:0.847593 6:-0.371728 7:0.886253 8:0.854111 9:0.658157 10:0.955403 11:0.818742 12:0.615686 13:0.940023 14:0.827381 15:0.791777 16:0.936583 17:0.86038 18:0.777482 
-1 1:0.690767 2:0.605449 3:-0.424761 4:0.719419 5:0.952068 6:-0.0693317 7:0.670619 8:0.74025 9:0.881735 10:0.914237 11:0.828607 12:0.602614 13:0.890427 14:0.833333 15:0.602122 16:0.847328 17:0.853031 18:0.638907 
1 1:0.476227 2:0.651028 3:-0.226394 4:0.439614 5:0.466629 6:-0.33881 7:0.443759 8:0.46964 9:0.415194 10:0.803316 11:0.435265 12:0.515033 13:0.7797 14:0.644048 15:0.309019 16:0.731063 17:0.755052 18:0.670886 
1 1:0.497511 2:0.277067 3:-0.600543 4:0.505596 5:0.416997 6:-0.533067 7:0.504868 8:0.473628 9:0.505608 10:0.867353 11:0.807645 12:0.6 13:0.876586 14:0.765476 15:0.722812 16:0.825015 17:0.81384 18:0.614923 
1 1:0.378922 2:0.561018 3:-0.164521 4:0.385736 5:0.527677 6:-0.317438 7:0.31294 8:0.400887 9:0.614854 10:0.838765 11:0.652281 12:0.315033 13:0.841984 14:0.74881 15:0.514589 16:0.826189 17:0.763625 18:0.773484 
1 1:0.272588 2:0.231056 3:-0.578679 4:0.2828 5:0.276658 6:-0.443265 7:0.27161 8:0.324129 9:0.463325 10:0.861635 11:0.697904 12:0.49281 13:0.84083 14:0.728571 15:0.496021 16:0.810922 17:0.767299 18:0.630913 
1 1:0.597027 2:0.379516 3:-0.54443 4:0.611296 5:0.511603 6:-0.463173 7:0.618502 8:0.597427 9:0.482164 10:0.853631 11:0.778052 12:0.475817 13:0.835063 14:0.775 15:0.720159 16:0.829712 17:0.824862 18:0.666889 
-1 1:0.746215 2:0.612525 3:-0.398865 4:0.758924 5:0.652367 6:-0.170293 7:0.750576 8:0.680414 9:0.642229 10:0.927959 11:0.780518 12:0.269281 13:0.925029 14:0.872619 15:0.107427 16:0.855549 17:0.832211 18:0.733511 
-1 1:0.916251 2:0.794726 3:-0.457612 4:0.929914 5:0.796217 6:-0.28953 7:0.9182 8:0.929728 9:0.634765 10:0.940537 11:0.76942 12:0.583007 13:0.915802 14:0.866667 15:0.522546 16:0.881386 17:0.806491 18:0.822785 
1 1:0.930172 2:0.750676 3:-0.389761 4:0.935614 5:0.855689 6:-0.331128 7:0.912753 8:0.911812 9:0.803668 10:0.933676 11:0.906289 12:0.452288 13:1 14:0.847619 15:0.655172 16:0.879037 17:0.808941 18:0.76016 
1 1:0.971377 2:0.738926 3:-0.436538 4:0.989941 5:0.915353 6:-0.311712 7:0.956523 8:0.963499 9:0.779491 10:0.978273 11:0.884094 12:0.6 13:0.935409 14:0.760714 15:0.742706 16:0.933059 17:0.861604 18:0.670886 
1 1:0.930581 2:0.710673 3:-0.452296 4:0.97574 5:0.79868 6:-0.253602 7:0.959366 8:0.860967 9:0.739449 10:0.950829 11:0.852035 12:0.667974 13:0.970012 14:0.869048 15:0.405836 16:0.948326 17:0.795468 18:0.920053 
-1 1:0.847284 2:0.683964 3:-0.461961 4:0.884058 5:0.878924 6:-0.278142 7:0.859045 8:0.815029 9:0.697031 10:0.909663 11:0.872996 12:0.551634 13:0.915802 14:0.832143 15:0.440318 16:0.88256 17:0.839559 18:0.744171 
1 1:0.865315 2:0.56 3:-0.639804 4:0.87991 5:0.681889 6:-0.49728 7:0.897626 8:0.845738 9:0.608749 10:0.909663 11:0.881628 12:0.76732 13:0.958478 14:0.879762 15:0.835544 16:0.909571 17:0.898347 18:0.745503 
-1 1:0.824309 2:0.552125 3:-0.573749 4:0.836708 5:0.702205 6:-0.462141 7:0.845049 8:0.824589 9:0.67943 10:0.914237 11:0.848335 12:0.660131 13:0.878893 14:0.884524 15:0.803714 16:0.933059 17:0.816289 18:0.76549 
-1 1:0.90231 2:0.708209 3:-0.441191 4:0.926241 5:0.933072 6:-0.328725 7:0.939737 8:0.87907 9:0.722254 10:0.993139 11:0.912454 12:0.478431 13:0.906574 14:0.766667 15:0.672414 16:0.907223 17:0.962033 18:0.756163 
1 1:0.839876 2:0.710958 3:-0.382292 4:0.848182 5:0.812422 6:-0.363663 7:0.837659 8:0.826649 9:0.843982 10:0.913093 11:0.852035 12:0.580392 13:0.901961 14:0.794048 15:0.672414 16:0.868467 17:0.865279 18:0.638907 
-1 1:0.454746 2:0.737611 3:-0.0556108 4:0.443687 5:0.447181 6:-0.293748 7:0.421748 8:0.47704 9:0.462324 10:0.855918 11:0.416769 12:0.439216 13:0.855825 14:0.685714 15:0.374005 16:0.876688 17:0.804042 18:0.701532 
-1 1:0.380907 2:0.302359 3:-0.504682 4:0.400725 5:0.427874 6:-0.41854 7:0.373428 8:0.449759 9:0.511946 10:0.882218 11:0.766954 12:0.445752 13:0.89504 14:0.746429 15:0.503979 16:0.881386 17:0.821188 18:0.688208 
1 1:0.595423 2:0.476113 3:-0.419545 4:0.61942 5:0.562938 6:-0.202104 7:0.603225 8:0.554854 9:0.440794 10:0.910806 11:0.865598 12:0.416993 13:0.923875 14:0.880952 15:0.0331565 16:0.887258 17:0.878751 18:0.704197 
-1 1:0.652974 2:0.761252 3:-0.231075 4:0.677182 5:0.611036 6:-0.361375 7:0.629312 8:0.637498 9:0.560979 10:0.868496 11:0.646116 12:0.569935 13:0.871972 14:0.79881 15:0.417772 16:0.862595 17:0.851806 18:0.816123 
1 1:0.332442 2:0.258537 3:-0.505259 4:0.369261 5:0.524016 6:-0.279133 7:0.306534 8:0.320002 9:0.192421 10:0.791881 11:0.711467 12:0.27451 13:0.806228 14:0.692857 15:0.328912 16:0.79448 17:0.778322 18:0.622918 
-1 1:0.149209 2:0.203803 3:-0.257001 4:0.208955 5:0.591322 6:0.0458246 7:0.108198 8:0.133745 9:0.188931 10:0.833047 11:0.600493 12:-0.130719 13:0.805075 14:0.378571 15:-0.140584 16:0.840282 17:0.775873 18:0.614923 
1 1:0.665885 2:0.512142 3:-0.425819 4:0.691114 5:0.596464 6:-0.27423 7:0.68432 8:0.607651 9:0.427412 10:0.909663 11:0.803946 12:0.456209 13:0.908881 14:0.839286 15:0.246684 16:0.888432 17:0.849357 18:0.778814 
1 1:0.348637 2:0.461581 3:-0.310228 4:0.355871 5:0.389281 6:-0.196191 7:0.328871 8:0.30904 9:0.207241 10:0.771298 11:0.533909 12:0.248366 13:0.78316 14:0.639286 15:-0.0636605 16:0.709924 17:0.740355 18:0.536309 
-1 1:0.64816 2:0.710282 3:-0.282811 4:0.634915 5:0.551284 6:-0.383256 7:0.618826 8:0.629689 9:0.438647 10:0.87307 11:0.583231 12:0.686275 13:0.897347 14:0.814286 15:0.497347 16:0.861421 17:0.872627 18:0.733511 
-1 1:0.853241 2:0.669544 3:-0.469008 4:0.866905 5:0.743871 6:-0.22836 7:0.871311 8:0.80501 9:0.630395 10:0.940537 11:0.800247 12:0.633987 13:0.899654 14:0.864286 15:0.30504 16:0.948326 17:0.855481 18:0.876083 
-1 1:0.857952 2:0.833643 3:-0.299083 4:0.838732 5:0.758612 6:-0.294879 7:0.83202 8:0.817753 9:0.631522 10:0.893654 11:0.686806 12:0.70719 13:0.905421 14:0.882143 15:0.442971 16:0.8532 17:0.870178 18:0.757495 
1 1:0.87881 2:0.643733 3:-0.448175 4:0.865268 5:0.718441 6:-0.287476 7:0.868773 8:0.835053 9:0.634096 10:0.939394 11:0.827374 12:0.593464 13:0.913495 14:0.864286 15:0.477454 16:0.924839 17:0.887324 18:0.693538 
1 1:0.834422 2:0.650698 3:-0.427457 4:0.844004 5:0.901578 6:-0.296068 7:0.826004 8:0.843677 9:0.623643 10:0.962264 11:0.937115 12:0.372549 13:0.896194 14:0.763095 15:0.733422 16:0.894304 17:0.842009 18:0.625583 
1 1:0.60804 2:0.416317 3:-0.529865 4:0.638681 5:0.672884 6:-0.328646 7:0.611744 8:0.574587 9:0.476485 10:0.885649 11:0.755857 12:0.534641 13:0.906574 14:0.827381 15:0.557029 16:0.89313 17:0.833435 18:0.676216 
-1 1:-0.00772096 2:0.0933881 3:-0.353581 4:0.0417022 5:0.457666 6:-0.0545528 7:-0.0532924 8:-0.0297236 9:0.00274123 10:0.603202 11:0.453761 12:-0.113725 13:0.570934 14:0.314286 15:-0.148541 16:0.553729 17:0.628904 18:0.562958 
1 1:0.437442 2:0.586231 3:-0.201689 4:0.448045 5:0.560482 6:-0.299117 7:0.392978 8:0.479971 9:0.636324 10:0.871927 11:0.755857 12:0.402614 13:0.865052 14:0.777381 15:0.522546 16:0.832061 17:0.851806 18:0.780147 
1 1:0.487982 2:0.404341 3:-0.47718 4:0.53496 5:0.622143 6:-0.248431 7:0.494715 8:0.451265 9:0.361636 10:0.885649 11:0.7127 12:0.326797 13:0.898501 14:0.67619 15:0.251989 16:0.895479 17:0.838334 18:0.698867 
-1 1:0.552567 2:0.622586 3:-0.374586 4:0.555095 5:0.54529 6:-0.161681 7:0.546732 8:0.529382 9:0.382476 10:0.887936 11:0.702836 12:0.406536 13:0.893887 14:0.858333 15:0.124668 16:0.890781 17:0.805266 18:0.718854 
1 1:0.723538 2:0.561061 3:-0.421278 4:0.73491 5:0.818042 6:-0.26861 7:0.716393 8:0.721128 9:0.555603 10:0.929102 11:0.906289 12:0.343791 13:0.901961 14:0.735714 15:0.600796 16:0.918967 17:0.897122 18:0.63491 
-1 1:0.762557 2:0.672074 3:-0.396208 4:0.773858 5:0.743962 6:-0.2681 7:0.779583 8:0.778081 9:0.661291 10:0.895941 11:0.717633 12:0.520261 13:0.912341 14:0.842857 15:0.323607 16:0.914269 17:0.853031 18:0.736176 
-1 1:0.788429 2:0.824367 3:-0.324572 4:0.801291 5:0.707776 6:-0.349733 7:0.774938 8:0.765085 9:0.633944 10:0.889079 11:0.642417 12:0.793464 13:0.8812 14:0.808333 15:0.669761 16:0.897827 17:0.875077 18:0.773484 
1 1:0.781418 2:0.577725 3:-0.391057 4:0.785791 5:0.830581 6:-0.281659 7:0.772624 8:0.796647 9:0.578999 10:0.916524 11:0.893958 12:0.326797 13:0.950404 14:0.704762 15:0.530504 16:0.889607 17:0.888549 18:0.725516 
-1 1:0.865887 2:0.574587 3:-0.650254 4:0.875405 5:0.724948 6:-0.538759 7:0.874435 8:0.807897 9:0.60293 10:0.933676 11:0.75709 12:0.602614 13:0.963091 14:0.784524 15:0.745358 16:0.929536 17:0.915493 18:0.893404 
-1 1:0.568088 2:0.324368 3:-0.684398 4:0.585534 5:0.444869 6:-0.561889 7:0.598721 8:0.555292 9:0.364774 10:0.922241 11:0.854501 12:0.610458 13:0.930796 14:0.92381 15:0.618037 16:0.920141 17:0.921617 18:0.761492 
1 1:0.472245 2:0.344152 3:-0.570578 4:0.500191 5:0.469097 6:-0.46669 7:0.472855 8:0.514757 9:0.523817 10:0.906232 11:0.800247 12:0.6 13:0.905421 14:0.789286 15:0.713528 16:0.8532 17:0.844458 18:0.750833 
-1 1:0.8456 2:0.583203 3:-0.525942 4:0.847424 5:0.717031 6:-0.454543 7:0.876567 8:0.865892 9:0.639942 10:0.907376 11:0.868064 12:0.541176 13:0.918108 14:0.859524 15:0.799735 16:0.862595 17:0.870178 18:0.740173 
-1 1:0.589597 2:0.728881 3:-0.167343 4:0.602698 5:0.609844 6:-0.32232 7:0.572863 8:0.582754 9:0.574994 10:0.87307 11:0.564735 12:0.533333 13:0.921569 14:0.794048 15:0.391247 16:0.867293 17:0.867728 18:0.554963 
1 1:0.144988 2:-0.043524 3:-0.806085 4:0.169266 5:0.0629112 6:-0.687646 7:0.164976 8:0.131938 9:-0.0200136 10:0.823899 11:0.675709 12:0.465359 13:0.803922 14:0.744048 15:0.644562 16:0.783911 17:0.763625 18:0.646902 
1 1:0.0356209 2:0.463695 3:0.11666 4:0.0223376 5:0.351931 6:-0.183982 7:-0.0692368 8:0.119318 9:0.527212 10:0.811321 11:0.389642 12:0.142484 13:0.810842 14:0.396429 15:-0.096817 16:0.799178 17:0.653399 18:0.341772 
1 1:0.328352 2:0.483581 3:-0.0445324 4:0.358039 5:0.522843 6:0.233782 7:0.324383 8:0.286453 9:0.268168 10:0.669525 11:0.435265 12:-0.192157 13:0.67128 14:0.470238 15:-0.374005 16:0.637111 17:0.69259 18:0.660227 
-1 1:0.10272 2:0.00530283 3:-0.57415 4:0.12364 5:0.1112 6:-0.541545 7:0.112534 8:0.0991206 9:0.236024 10:0.809034 11:0.762022 12:0.23268 13:0.825836 14:0.691667 15:0.343501 16:0.767469 17:0.844458 18:0.57495 
-1 1:-0.268582 2:-0.211259 3:-0.475 4:-0.25121 5:-0.154445 6:-0.448018 7:-0.272968 8:-0.243328 9:0.0864851 10:0.358491 11:0.37238 12:-0.0562092 13:0.347174 14:0.386905 15:0.0477454 16:0.318849 17:0.560318 18:0.27515 
-1 1:0.713903 2:0.740156 3:-0.304016 4:0.734431 5:0.63492 6:-0.372073 7:0.731347 8:0.670221 9:0.626955 10:0.886792 11:0.725031 12:0.611765 13:0.911188 14:0.771429 15:0.534483 16:0.862595 17:0.810165 18:0.893404 
-1 1:0.104727 2:-0.0589194 3:-0.775466 4:0.113207 5:0.0103003 6:-0.731714 7:0.118681 8:0.0883847 9:-0.0152469 10:0.859348 11:0.810111 12:0.430065 13:0.920415 14:0.740476 15:0.860743 16:0.859072 17:0.843233 18:0.781479 
-1 1:0.85409 2:0.705511 3:-0.367268 4:0.879593 5:0.804186 6:-0.296442 7:0.850374 8:0.833643 9:0.671125 10:0.886792 11:0.76942 12:0.477124 13:0.920415 14:0.783333 15:0.413793 16:0.899002 17:0.800367 18:0.717522 
-1 1:0.928801 2:0.711015 3:-0.427 4:0.924893 5:0.940872 6:-0.301533 7:0.927903 8:0.905507 9:0.737753 10:0.962264 11:0.901356 12:0.498039 13:0.89504 14:0.838095 15:0.786472 16:0.91192 17:0.919167 18:0.64557 
-1 1:0.787193 2:0.587736 3:-0.442214 4:0.79768 5:0.696586 6:-0.238414 7:0.79438 8:0.731508 9:0.590919 10:0.922241 11:0.856967 12:0.522876 13:0.926182 14:0.889286 15:0.214854 16:0.91192 17:0.83466 18:0.858761 
1 1:0.316509 2:0.441197 3:-0.0463779 4:0.351469 5:0.860979 6:0.229502 7:0.272466 8:0.363255 9:0.401445 10:0.627216 11:0.631319 12:-0.172549 13:0.583622 14:0.261905 15:-0.0437666 16:0.550206 17:0.661972 18:0.501666 
-1 1:0.843774 2:0.659143 3:-0.404904 4:0.866332 5:0.906897 6:-0.178067 7:0.842648 8:0.808507 9:0.666579 10:0.974843 11:0.84217 12:0.426144 13:0.928489 14:0.738095 15:0.421751 16:0.906048 17:0.864054 18:0.876083 
1 1:0.560103 2:0.445089 3:-0.39316 4:0.588677 5:0.730809 6:-0.153002 7:0.555535 8:0.574291 9:0.563595 10:0.935963 11:0.81381 12:0.294118 13:0.94233 14:0.664286 15:0.393899 16:0.897827 17:0.827312 18:0.620253 
-1 1:-0.0110722 2:0.143273 3:-0.228019 4:-0.00521171 5:0.135267 6:0.0998188 7:-0.028392 8:-0.0600855 9:-0.028617 10:0.747284 11:0.415536 12:-0.258824 13:0.756632 14:0.413095 15:-0.517241 16:0.731063 17:0.726883 18:0.51499 
-1 1:0.517435 2:0.560386 3:-0.359113 4:0.522882 5:0.550976 6:-0.163262 7:0.505749 8:0.522525 9:0.364121 10:0.887936 11:0.588163 12:0.342484 13:0.8812 14:0.744048 15:0.0503979 16:0.875514 17:0.784446 18:0.802798 
1 1:0.88883 2:0.644993 3:-0.447054 4:0.91573 5:0.914103 6:-0.322272 7:0.909113 8:0.89423 9:0.733487 10:0.971412 11:0.853268 12:0.456209 13:0.930796 14:0.82619 15:0.541114 16:0.915443 17:0.842009 18:0.625583 
-1 1:0.781906 2:0.745305 3:-0.289801 4:0.781729 5:0.791561 6:-0.309159 7:0.755421 8:0.768994 9:0.75816 10:0.93825 11:0.861899 12:0.512418 13:0.930796 14:0.77619 15:0.450928 16:0.940106 17:0.872627 18:0.741506 
1 1:0.219058 2:0.263335 3:-0.242678 4:0.239426 5:0.62669 6:-0.00599883 7:0.204373 8:0.245827 9:0.24264 10:0.806747 11:0.721332 12:-0.0326797 13:0.770473 14:0.453571 15:0.1313 16:0.763946 17:0.843233 18:0.529647 
-1 1:0.473247 2:0.295641 3:-0.554421 4:0.491261 5:0.412168 6:-0.495512 7:0.493679 8:0.47446 9:0.456391 10:0.833047 11:0.905055 12:0.360784 13:0.847751 14:0.741667 15:0.77321 16:0.840282 17:0.79057 18:0.726849 
-1 1:0.165764 2:0.0729644 3:-0.593244 4:0.174435 5:0.165817 6:-0.53807 7:0.188063 8:0.181475 9:0.27084 10:0.837621 11:0.77312 12:0.30719 13:0.78316 14:0.684524 15:0.465517 16:0.782736 17:0.710961 18:0.668221 
1 1:0.785966 2:0.550568 3:-0.541182 4:0.771594 5:0.641383 6:-0.485702 7:0.797371 8:0.774206 9:0.614238 10:0.894797 11:0.877928 12:0.704575 13:0.890427 14:0.884524 15:0.596817 16:0.887258 17:0.875077 18:0.829447 
-1 1:0.81888 2:0.520037 3:-0.666187 4:0.830138 5:0.670244 6:-0.527608 7:0.843967 8:0.78008 9:0.589884 10:0.945111 11:0.863132 12:0.538562 13:0.940023 14:0.805952 15:0.802387 16:0.906048 17:0.85793 18:0.80946 
-1 1:0.773065 2:0.568644 3:-0.553411 4:0.804953 5:0.705536 6:-0.466113 7:0.809857 8:0.76741 9:0.7067 10:0.893654 11:0.812577 12:0.785621 13:0.923875 14:0.797619 15:0.681698 16:0.888432 17:0.851806 18:0.813458 
1 1:0.650651 2:0.53825 3:-0.456147 4:0.654888 5:0.608685 6:-0.25187 7:0.669415 8:0.590882 9:0.507403 10:0.948542 11:0.815043 12:0.419608 13:0.914648 14:0.825 15:0.193634 16:0.900176 17:0.781996 18:0.769487 
-1 1:0.408492 2:0.377057 3:-0.266022 4:0.420794 5:0.418174 6:-0.113394 7:0.401629 8:0.347609 9:0.318596 10:0.865066 11:0.717633 12:0.0313725 13:0.859285 14:0.754762 15:-0.151194 16:0.832061 17:0.746479 18:0.764157 
-1 1:0.727639 2:0.551256 3:-0.417277 4:0.765709 5:0.800749 6:-0.300776 7:0.720781 8:0.713089 9:0.599968 10:0.924528 11:0.856967 12:0.40915 13:0.923875 14:0.746429 15:0.580902 16:0.89313 17:0.823637 18:0.804131 
1 1:0.881076 2:0.667966 3:-0.484874 4:0.89481 5:0.808598 6:-0.293226 7:0.901514 8:0.831119 9:0.632191 10:0.941681 11:0.889026 12:0.70719 13:0.94233 14:0.869048 15:0.415119 16:0.901351 17:0.877526 18:0.774817 
0.173269702773337 1:0.810604 2:0.612615 3:-0.43818 4:0.834308 5:0.863817 6:-0.294424 7:0.811458 8:0.808679 9:0.70367 10:0.942824 11:0.896424 12:0.559477 13:0.985006 14:0.767857 15:0.782493 16:0.881386 17:0.876301 18:0.94537 
1 1:0.688119 2:0.423834 3:-0.670252 4:0.719535 5:0.585442 6:-0.561502 7:0.735911 8:0.683046 9:0.43719 10:0.916524 11:0.852035 12:0.546405 13:0.916955 14:0.841667 15:0.702918 16:0.895479 17:0.829761 18:0.784144 
-1 1:0.898667 2:0.583736 3:-0.641272 4:0.906288 5:0.740358 6:-0.521694 7:0.92269 8:0.864161 9:0.68434 10:0.948542 11:0.836005 12:0.585621 13:0.933103 14:0.815476 15:0.65252 16:0.924839 17:0.823637 18:0.830779 
1 1:0.721607 2:0.537037 3:-0.516042 4:0.727266 5:0.73335 6:-0.373732 7:0.718072 8:0.70156 9:0.528435 10:0.908519 11:0.815043 12:0.437908 13:0.906574 14:0.753571 15:0.558355 16:0.907223 17:0.908145 18:0.878748 
1 1:0.615604 2:0.493416 3:-0.426059 4:0.625863 5:0.769871 6:-0.245872 7:0.608487 8:0.605633 9:0.550302 10:0.91538 11:0.895191 12:0.338562 13:0.904268 14:0.613095 15:0.549072 16:0.873165 17:0.845683 18:0.70553 
-1 1:0.510115 2:0.414758 3:-0.53547 4:0.514989 5:0.501512 6:-0.44389 7:0.492595 8:0.541034 9:0.617428 10:0.89251 11:0.81381 12:0.437908 13:0.908881 14:0.721429 15:0.567639 16:0.868467 17:0.864054 18:0.665556 
-1 1:0.502269 2:0.478473 3:-0.468818 4:0.555535 5:0.832442 6:-0.0157453 7:0.497202 8:0.541127 9:0.65814 10:0.858205 11:0.800247 12:0.458824 13:0.927336 14:0.653571 15:0.600796 16:0.861421 17:0.846908 18:0.630913 
-1 1:0.534009 2:0.470383 3:-0.323176 4:0.542496 5:0.560215 6:-0.129561 7:0.551941 8:0.495944 9:0.38904 10:0.867353 11:0.771887 12:0.219608 13:0.858131 14:0.804762 15:-0.0835544 16:0.837933 17:0.843233 18:0.704197 
-1 1:0.447613 2:0.496492 3:-0.386206 4:0.458462 5:0.465928 6:-0.217039 7:0.430527 8:0.423216 9:0.318913 10:0.906232 11:0.642417 12:0.354248 13:0.836217 14:0.767857 15:0.0119363 16:0.871991 17:0.758726 18:0.637575 
1 1:0.125025 2:0.101236 3:-0.569509 4:0.149506 5:0.226265 6:-0.491596 7:0.122208 8:0.200076 9:0.409687 10:0.730132 11:0.663379 12:0.375163 13:0.760092 14:0.713095 15:0.438992 16:0.714621 17:0.706062 18:0.56429 
1 1:0.788482 2:0.712589 3:-0.395938 4:0.801202 5:0.697058 6:-0.336634 7:0.805105 8:0.759876 9:0.578228 10:0.886792 11:0.822441 12:0.520261 13:0.937716 14:0.807143 15:0.425729 16:0.868467 17:0.81384 18:0.721519 
1 1:0.644863 2:0.527258 3:-0.556114 4:0.681496 5:0.780954 6:-0.17327 7:0.639065 8:0.647281 9:0.614144 10:0.935963 11:0.827374 12:0.471895 13:0.892734 14:0.77381 15:0.778515 16:0.870816 17:0.810165 18:0.680213 
-1 1:0.612887 2:0.353025 3:-0.705549 4:0.636506 5:0.484408 6:-0.595924 7:0.646043 8:0.599205 9:0.446451 10:0.93825 11:0.8582 12:0.798693 13:0.89504 14:0.782143 15:0.777188 16:0.909571 17:0.877526 18:0.774817 
1 1:0.608717 2:0.485057 3:-0.524812 4:0.675801 5:0.773968 6:-0.24057 7:0.611188 8:0.646606 9:0.617104 10:0.867353 11:0.843403 12:0.576471 13:0.89504 14:0.745238 15:0.615385 16:0.879037 17:0.868953 18:0.758827 
-1 1:0.801981 2:0.588978 3:-0.48181 4:0.829373 5:0.831233 6:-0.259351 7:0.815455 8:0.795188 9:0.571782 10:0.942824 11:0.791615 12:0.52549 13:0.922722 14:0.740476 15:0.614058 16:0.902525 17:0.88365 18:1 
-1 1:0.886749 2:0.807517 3:-0.391219 4:0.905746 5:0.771502 6:-0.364653 7:0.917516 8:0.867032 9:0.736452 10:0.913093 11:0.678175 12:0.857516 13:0.95271 14:0.85119 15:0.753316 16:0.909571 17:0.850582 18:0.785476 
-1 1:-0.109374 2:-0.0713384 3:-0.447641 4:-0.0988856 5:-0.0217803 6:-0.452722 7:-0.116551 8:-0.0789803 9:0.222308 10:0.0463122 11:0.136868 12:0.0457516 13:0.0484429 14:0.170238 15:0.0318302 16:-0.0252496 17:0.202694 18:0.26449 
-1 1:0.722105 2:0.789182 3:-0.196045 4:0.744569 5:0.740725 6:-0.292867 7:0.695108 8:0.750356 9:0.803175 10:0.865066 11:0.827374 12:0.401307 13:0.878893 14:0.796429 15:0.628647 16:0.907223 17:0.799143 18:0.622918 
-1 1:0.176784 2:0.166458 3:-0.539412 4:0.192161 5:0.244085 6:-0.425909 7:0.172584 8:0.25056 9:0.472587 10:0.834191 11:0.721332 12:0.301961 13:0.813149 14:0.717857 15:0.302387 16:0.826189 17:0.759951 18:0.521652 
1 1:0.228903 2:0.533122 3:-0.0267591 4:0.250267 5:0.466261 6:-0.22914 7:0.166473 8:0.312246 9:0.648262 10:0.820469 11:0.612824 12:0.185621 13:0.813149 14:0.610714 15:0.188329 16:0.789783 17:0.753827 18:0.451033 
1 1:0.468519 2:0.526321 3:-0.353235 4:0.471192 5:0.48731 6:-0.214418 7:0.459515 8:0.453695 9:0.298037 10:0.781589 11:0.638718 12:0.388235 13:0.788927 14:0.736905 15:0.115385 16:0.800352 17:0.742805 18:0.805463 
1 1:0.789087 2:0.62436 3:-0.437548 4:0.80557 5:0.711345 6:-0.297535 7:0.787157 8:0.706957 9:0.549782 10:0.950829 11:0.815043 12:0.333333 13:0.906574 14:0.889286 15:0.316976 16:0.916618 17:0.917942 18:0.852099 
-1 1:0.614225 2:0.553063 3:-0.427899 4:0.65466 5:0.907503 6:-0.0700533 7:0.606664 8:0.658773 9:0.785759 10:0.925672 11:0.792848 12:0.568627 13:0.868512 14:0.783333 15:0.604775 16:0.899002 17:0.884874 18:0.641572 
1 1:0.824454 2:0.617104 3:-0.411671 4:0.839719 5:0.897698 6:-0.28294 7:0.819941 8:0.831741 9:0.554396 10:0.930246 11:0.902589 12:0.422222 13:0.901961 14:0.747619 15:0.669761 16:0.901351 17:0.897122 18:0.800133 
1 1:0.686083 2:0.555374 3:-0.559288 4:0.718539 5:0.662872 6:-0.414493 7:0.722201 8:0.737309 9:0.604632 10:0.926815 11:0.837238 12:0.627451 13:0.869666 14:0.811905 15:0.742706 16:0.891955 17:0.861604 18:0.706862 
1 1:0.815038 2:0.768266 3:-0.397052 4:0.839027 5:0.735958 6:-0.377535 7:0.831041 8:0.779215 9:0.636525 10:0.867353 11:0.760789 12:0.784314 13:0.950404 14:0.791667 15:0.708223 16:0.888432 17:0.90692 18:0.798801 
1 1:0.872613 2:0.630763 3:-0.523961 4:0.883847 5:0.710098 6:-0.457136 7:0.897031 8:0.863082 9:0.677464 10:0.930246 11:0.827374 12:0.694118 13:0.926182 14:0.835714 15:0.732095 16:0.903699 17:0.8812 18:0.7002 
1 1:0.406463 2:0.157782 3:-0.746329 4:0.41992 5:0.284207 6:-0.654773 7:0.41784 8:0.381061 9:0.242599 10:0.894797 11:0.784217 12:0.537255 13:0.886967 14:0.736905 15:0.779841 16:0.862595 17:0.793019 18:0.846769 
-1 1:0.56734 2:0.448751 3:-0.372048 4:0.579225 5:0.518416 6:-0.214848 7:0.575063 8:0.513162 9:0.413674 10:0.901658 11:0.806412 12:0.324183 13:0.88466 14:0.875 15:0.140584 16:0.881386 17:0.853031 18:0.713524 
-1 1:0.610805 2:0.415295 3:-0.557472 4:0.631374 5:0.523127 6:-0.485058 7:0.627054 8:0.573778 9:0.517538 10:0.875357 11:0.865598 12:0.63268 13:0.865052 14:0.784524 15:0.576923 16:0.861421 17:0.889773 18:0.706862 
1 1:0.62261 2:0.572769 3:-0.437212 4:0.636249 5:0.608638 6:-0.301508 7:0.633609 8:0.604226 9:0.498665 10:0.884505 11:0.651048 12:0.45098 13:0.927336 14:0.82619 15:0.401857 16:0.864944 17:0.876301 18:0.738841 
-1 1:0.500117 2:0.456218 3:-0.418951 4:0.550651 5:0.874987 6:0.0130751 7:0.478355 8:0.56841 9:0.684119 10:0.919954 11:0.78545 12:0.529412 13:0.871972 14:0.694048 15:0.503979 16:0.906048 17:0.817514 18:0.553631 
1 1:0.881203 2:0.718048 3:-0.521526 4:0.92254 5:0.794335 6:-0.268443 7:0.930118 8:0.867124 9:0.623549 10:0.929102 11:0.847102 12:0.69281 13:0.916955 14:0.803571 15:0.364721 16:0.903699 17:0.876301 18:0.918721 
-1 1:0.376473 2:0.371053 3:-0.279977 4:0.417173 5:0.674389 6:-0.0114964 7:0.353629 8:0.336571 9:0.309487 10:0.870783 11:0.699137 12:0.0588235 13:0.862745 14:0.589286 15:0.00530504 16:0.881386 17:0.870178 18:0.725516 
-1 1:0.766867 2:0.832133 3:-0.192158 4:0.776545 5:0.732592 6:-0.306474 7:0.762478 8:0.767304 9:0.691267 10:0.895941 11:0.610358 12:0.664052 13:0.88812 14:0.825 15:0.550398 16:0.868467 17:0.848132 18:0.750833 
1 1:0.316585 2:0.308352 3:-0.345476 4:0.332189 5:0.637641 6:-0.117863 7:0.291438 8:0.327296 9:0.325585 10:0.823899 11:0.815043 12:0.128105 13:0.803922 14:0.446429 15:0.208223 16:0.793306 17:0.805266 18:0.590939 
-1 1:0.261523 2:0.644522 3:0.130781 4:0.246023 5:0.316164 6:-0.244461 7:0.221526 8:0.250105 9:0.357098 10:0.803316 11:0.29963 12:0.267974 13:0.795848 14:0.613095 15:0.161804 16:0.837933 17:0.766075 18:0.636243 
-1 1:0.771177 2:0.779809 3:-0.21702 4:0.755354 5:0.776758 6:-0.30358 7:0.733974 8:0.790111 9:0.787994 10:0.964551 11:0.887793 12:0.317647 13:0.928489 14:0.790476 15:0.561008 16:0.929536 17:0.827312 18:0.626915 
1 1:0.651878 2:0.601218 3:-0.382346 4:0.681941 5:0.603006 6:-0.234151 7:0.66845 8:0.641539 9:0.514163 10:0.910806 11:0.699137 12:0.475817 13:0.905421 14:0.784524 15:0.265252 16:0.881386 17:0.855481 18:0.650899 
0.08776785081557234 1:-0.801675 2:0.529578 3:1 4:-0.868533 5:-0.393186 6:0.105767 7:-0.972364 8:-0.774293 9:-0.183713 10:-0.759863 11:-0.742293 12:-0.248366 13:-0.882353 14:-0.778571 15:-0.689655 16:-0.980035 17:-0.79057 18:-0.637575 
-1 1:0.790102 2:0.756121 3:-0.352759 4:0.812971 5:0.697123 6:-0.347221 7:0.781561 8:0.790527 9:0.687623 10:0.942824 11:0.731196 12:0.8 13:0.874279 14:0.77381 15:0.513263 16:0.875514 17:0.81139 18:0.780147 
-1 1:-0.0967817 2:0.200553 3:-0.312137 4:0.00981411 5:0.753627 6:0.347349 7:-0.129801 8:0.0686659 9:0.62687 10:0.376787 11:0.406905 12:0.273203 13:0.333333 14:0.215476 15:0.221485 16:0.301233 17:0.528475 18:0.348434 
1 1:0.878752 2:0.825187 3:-0.370456 4:0.872529 5:0.758967 6:-0.393349 7:0.876412 8:0.864157 9:0.734892 10:0.890223 11:0.731196 12:0.794771 13:0.912341 14:0.792857 15:0.698939 16:0.884909 17:0.794244 18:0.789474 
1 1:0.819607 2:0.640095 3:-0.372425 4:0.845169 5:0.8707 6:-0.302763 7:0.820312 8:0.792881 9:0.589867 10:0.929102 11:0.928483 12:0.362092 13:0.937716 14:0.855952 15:0.543767 16:0.908397 17:0.924066 18:0.720187 
-1 1:0.620825 2:0.681645 3:-0.298084 4:0.628078 5:0.549342 6:-0.36111 7:0.61948 8:0.584002 9:0.539481 10:0.89251 11:0.707768 12:0.649673 13:0.889273 14:0.814286 15:0.522546 16:0.868467 17:0.816289 18:0.608261 
1 1:0.941539 2:0.723113 3:-0.483633 4:0.956886 5:0.840139 6:-0.347215 7:0.960937 8:0.880708 9:0.756062 10:0.940537 11:0.875462 12:0.671895 13:0.930796 14:0.971429 15:0.473475 16:0.927187 17:0.862829 18:0.804131 
1 1:0.211571 2:0.234437 3:-0.310698 4:0.213385 5:0.270014 6:-0.07833 7:0.189997 8:0.196486 9:0.14997 10:0.78502 11:0.651048 12:-0.150327 13:0.787774 14:0.62619 15:-0.222812 16:0.814445 17:0.785671 18:0.772152 
1 1:0.6246 2:0.437591 3:-0.546774 4:0.632419 5:0.677996 6:-0.327243 7:0.621949 8:0.600844 9:0.438759 10:0.910806 11:0.836005 12:0.606536 13:0.922722 14:0.717857 15:0.562334 16:0.870816 17:0.796693 18:0.701532 
-1 1:0.783943 2:0.546276 3:-0.541039 4:0.823794 5:0.676725 6:-0.44285 7:0.819459 8:0.784873 9:0.619626 10:0.917667 11:0.917386 12:0.701961 13:0.936563 14:0.903571 15:0.611406 16:0.883735 17:0.908145 18:0.7002 
-1 1:0.588035 2:0.60473 3:-0.356752 4:0.609698 5:0.586173 6:-0.22212 7:0.571431 8:0.557938 9:0.484042 10:0.910806 11:0.766954 12:0.360784 13:0.899654 14:0.783333 15:0.168435 16:0.860247 17:0.816289 18:0.852099 
-1 1:0.639304 2:0.481721 3:-0.514375 4:0.66201 5:0.610626 6:-0.433489 7:0.642327 8:0.650223 9:0.699208 10:0.91538 11:0.827374 12:0.481046 13:0.95271 14:0.815476 15:0.801061 16:0.891955 17:0.856705 18:0.686875 
-1 1:0.745517 2:0.789016 3:-0.309913 4:0.731185 5:0.660651 6:-0.381873 7:0.705844 8:0.730025 9:0.568148 10:0.902802 11:0.668311 12:0.673203 13:0.923875 14:0.761905 15:0.724138 16:0.861421 17:0.830986 18:0.698867 
1 1:0.894358 2:0.668026 3:-0.472095 4:0.89777 5:0.807059 6:-0.289443 7:0.89874 8:0.834574 9:0.690063 10:0.918811 11:0.879162 12:0.579085 13:0.920415 14:0.880952 15:0.28382 16:0.899002 17:0.806491 18:0.918721 
-1 1:0.716446 2:0.620092 3:-0.442708 4:0.752392 5:0.915646 6:-0.154443 7:0.708865 8:0.745664 9:0.80957 10:0.921098 11:0.834772 12:0.666667 13:0.918108 14:0.764286 15:0.608753 16:0.869642 17:0.877526 18:0.722851 
-1 1:0.84961 2:0.660247 3:-0.536626 4:0.876753 5:0.765759 6:-0.427026 7:0.868464 8:0.892633 9:0.742827 10:0.93482 11:0.818742 12:0.728105 13:0.934256 14:0.878571 15:0.751989 16:0.899002 17:0.897122 18:0.861426 
1 1:0.886227 2:0.661781 3:-0.477105 4:0.903475 5:0.77713 6:-0.267445 7:0.903017 8:0.876022 9:0.624651 10:0.941681 11:0.816276 12:0.551634 13:0.916955 14:0.920238 15:0.401857 16:0.913095 17:0.769749 18:0.713524 
-1 1:0.784453 2:0.709731 3:-0.375868 4:0.80938 5:0.728161 6:-0.250104 7:0.778624 8:0.769324 9:0.573095 10:0.885649 11:0.747226 12:0.436601 13:0.930796 14:0.828571 15:0.346154 16:0.889607 17:0.888549 18:0.792139 
-1 1:0.709413 2:0.796735 3:-0.208819 4:0.721005 5:0.65029 6:-0.330358 7:0.690225 8:0.692921 9:0.610161 10:0.898228 11:0.611591 12:0.654902 13:0.901961 14:0.757143 15:0.497347 16:0.868467 17:0.871402 18:0.682878 
1 1:0.442335 2:0.605717 3:-0.163885 4:0.458854 5:0.615997 6:-0.302272 7:0.392768 8:0.514446 9:0.685986 10:0.853631 11:0.706535 12:0.207843 13:0.853518 14:0.719048 15:0.453581 16:0.776864 17:0.761176 18:0.681546 
1 1:0.866753 2:0.752333 3:-0.386723 4:0.845109 5:0.834762 6:-0.387916 7:0.826177 8:0.86864 9:0.827115 10:0.965695 11:0.87053 12:0.518954 13:0.933103 14:0.795238 15:0.787798 16:0.918967 17:0.818739 18:0.784144 
-1 1:0.687133 2:0.531144 3:-0.339435 4:0.678445 5:0.822204 6:-0.14092 7:0.668581 8:0.641749 9:0.612165 10:0.914237 11:0.82984 12:0.326797 13:0.899654 14:0.62619 15:0.359416 16:0.883735 17:0.859155 18:0.722851 
0.9118619021298537 1:0.548181 2:0.335478 3:-0.577452 4:0.55458 5:0.472929 6:-0.518919 7:0.548388 8:0.528461 9:0.486385 10:0.855918 11:0.771887 12:0.513725 13:0.811995 14:0.70119 15:0.611406 16:0.816794 17:0.802817 18:0.730846 
-1 1:0.796406 2:0.570721 3:-0.446748 4:0.829991 5:0.877394 6:-0.237295 7:0.787524 8:0.790881 9:0.585194 10:0.930246 11:0.82984 12:0.619608 13:0.926182 14:0.834524 15:0.554377 16:0.909571 17:0.826087 18:0.774817 
-1 1:0.0346578 2:0.158249 3:-0.182844 4:0.0491818 5:0.157736 6:0.0506411 7:0.0207098 8:-0.00443044 9:0.00609774 10:0.80446 11:0.447596 12:-0.233987 13:0.723183 14:0.488095 15:-0.453581 16:0.754551 17:0.751378 18:0.484344 
1 1:0.890715 2:0.673358 3:-0.45507 4:0.918539 5:0.788652 6:-0.322336 7:0.910514 8:0.861407 9:0.639503 10:0.909663 11:0.843403 12:0.594771 13:0.937716 14:0.870238 15:0.408488 16:0.915443 17:0.911819 18:0.794803 
1 1:0.645321 2:0.431924 3:-0.584755 4:0.681575 5:0.564528 6:-0.501693 7:0.676243 8:0.64932 9:0.569072 10:0.870783 11:0.890259 12:0.6 13:0.904268 14:0.815476 15:0.692308 16:0.849677 17:0.828536 18:0.656229 
-1 1:0.238186 2:0.137456 3:-0.544451 4:0.237322 5:0.207296 6:-0.492351 7:0.231535 8:0.23242 9:0.41011 10:0.849057 11:0.679408 12:0.294118 13:0.835063 14:0.725 15:0.423077 16:0.778039 17:0.866503 18:0.50433 
-1 1:0.339682 2:0.323063 3:-0.299246 4:0.356202 5:0.37418 6:-0.0193127 7:0.341056 8:0.311936 9:0.209566 10:0.823899 11:0.647349 12:0.0235294 13:0.82699 14:0.640476 15:-0.266578 16:0.816794 17:0.733007 18:0.725516 
1 1:0.422799 2:0.37776 3:-0.347508 4:0.440665 5:0.694692 6:-0.142648 7:0.405096 8:0.424752 9:0.326351 10:0.901658 11:0.831073 12:0.160784 13:0.836217 14:0.57381 15:0.340849 16:0.847328 17:0.844458 18:0.505663 
1 1:0.768052 2:0.623606 3:-0.514465 4:0.829479 5:0.853474 6:-0.224191 7:0.77453 8:0.758214 9:0.7264 10:0.940537 11:0.811344 12:0.756863 13:0.920415 14:0.838095 15:0.779841 16:0.891955 17:0.79057 18:0.672219 
-1 1:0.422951 2:0.190251 3:-0.717645 4:0.437268 5:0.322629 6:-0.644507 7:0.440687 8:0.393437 9:0.246553 10:0.930246 11:0.848335 12:0.560784 13:0.892734 14:0.770238 15:0.876658 16:0.856723 17:0.840784 18:0.846769 
1 1:0.734627 2:0.55178 3:-0.519883 4:0.747819 5:0.745339 6:-0.339914 7:0.727304 8:0.658645 9:0.579817 10:0.905089 11:0.784217 12:0.532026 13:0.914648 14:0.817857 15:0.69496 16:0.884909 17:0.810165 18:0.860093 
-1 1:0.80269 2:0.601466 3:-0.450049 4:0.822895 5:0.854901 6:-0.253288 7:0.807697 8:0.762082 9:0.645152 10:0.941681 11:0.80148 12:0.649673 13:0.913495 14:0.789286 15:0.466844 16:0.897827 17:0.92774 18:0.75483 
-1 1:0.676777 2:0.591779 3:-0.42562 4:0.682634 5:0.619348 6:-0.214482 7:0.669865 8:0.665573 9:0.542995 10:0.922241 11:0.786683 12:0.490196 13:0.907728 14:0.796429 15:0.193634 16:0.906048 17:0.868953 18:0.830779 
1 1:0.731187 2:0.583004 3:-0.439463 4:0.752821 5:0.610631 6:-0.291563 7:0.750725 8:0.716286 9:0.495534 10:0.906232 11:0.853268 12:0.556863 13:0.931949 14:0.890476 15:0.34748 16:0.866119 17:0.870178 18:0.862758 
1 1:0.722394 2:0.773295 3:-0.343547 4:0.74646 5:0.623462 6:-0.396757 7:0.699109 8:0.670016 9:0.574236 10:0.930246 11:0.654747 12:0.636601 13:0.911188 14:0.809524 15:0.661804 16:0.862595 17:0.774648 18:0.762825 
1 1:0.819053 2:0.610062 3:-0.459666 4:0.843837 5:0.72478 6:-0.342089 7:0.839024 8:0.79675 9:0.590447 10:0.922241 11:0.942047 12:0.496732 13:0.971165 14:0.869048 15:0.445623 16:0.887258 17:0.818739 18:0.845436 
-1 1:0.847277 2:0.65715 3:-0.397795 4:0.866816 5:0.882238 6:-0.260914 7:0.845425 8:0.833631 9:0.760802 10:0.898228 11:0.847102 12:0.47451 13:0.926182 14:0.830952 15:0.713528 16:0.873165 17:0.828536 18:0.656229 
1 1:0.83878 2:0.639399 3:-0.432937 4:0.855416 5:0.872438 6:-0.287719 7:0.829767 8:0.829798 9:0.577409 10:0.942824 11:0.901356 12:0.371242 13:0.883506 14:0.753571 15:0.669761 16:0.880211 17:0.882425 18:0.7002 
1 1:0.318225 2:0.197228 3:-0.58474 4:0.324649 5:0.246449 6:-0.519712 7:0.326251 8:0.319787 9:0.340213 10:0.766724 11:0.690506 12:0.402614 13:0.775087 14:0.661905 15:0.462865 16:0.747504 17:0.726883 18:0.63491 
1 1:0.945489 2:0.703026 3:-0.511602 4:0.948982 5:0.850376 6:-0.355325 7:0.949123 8:0.892864 9:0.735306 10:0.967982 11:0.833539 12:0.56732 13:0.936563 14:0.838095 15:0.774536 16:0.94128 17:0.817514 18:0.738841 
1 1:0.494415 2:0.420857 3:-0.554188 4:0.55524 5:0.720781 6:-0.212186 7:0.517154 8:0.554612 9:0.647034 10:0.878788 11:0.802713 12:0.611765 13:0.844291 14:0.74881 15:0.68435 16:0.868467 17:0.823637 18:0.741506 
1 1:0.415901 2:0.312832 3:-0.499386 4:0.44549 5:0.556697 6:-0.295071 7:0.386554 8:0.388808 9:0.24139 10:0.842196 11:0.734895 12:0.300654 13:0.848904 14:0.713095 15:0.342175 16:0.842631 17:0.808941 18:0.680213 
1 1:0.806621 2:0.600942 3:-0.473225 4:0.826913 5:0.753432 6:-0.281086 7:0.830092 8:0.761261 9:0.559666 10:0.923385 11:0.840937 12:0.675817 13:0.943483 14:0.822619 15:0.298408 16:0.918967 17:0.83466 18:0.826782 
-1 1:0.833055 2:0.554978 3:-0.627495 4:0.839079 5:0.644282 6:-0.5381 7:0.863941 8:0.797936 9:0.548423 10:0.929102 11:0.874229 12:0.755556 13:0.94925 14:0.797619 15:0.765252 16:0.916618 17:0.830986 18:0.682878 
-1 1:0.725405 2:0.557485 3:-0.530369 4:0.765982 5:0.706884 6:-0.420124 7:0.77447 8:0.795947 9:0.71099 10:0.909663 11:0.831073 12:0.652288 13:0.908881 14:0.867857 15:0.671088 16:0.896653 17:0.864054 18:0.882745 
-1 1:0.0251458 2:-0.0258295 3:-0.531218 4:0.0331069 5:0.0745335 6:-0.555236 7:0.0269273 8:0.0586203 9:0.199315 10:0.80789 11:0.654747 12:0.189542 13:0.791234 14:0.703571 15:0.314324 16:0.815619 17:0.808941 18:0.477682 
-1 1:0.662875 2:0.545322 3:-0.500507 4:0.706812 5:0.838632 6:-0.157592 7:0.652879 8:0.677443 9:0.763967 10:0.897084 11:0.864365 12:0.533333 13:0.886967 14:0.795238 15:0.619363 16:0.907223 17:0.826087 18:0.692205 
-1 1:0.302065 2:0.630207 3:0.000407277 4:0.282639 5:0.325695 6:-0.247716 7:0.265614 8:0.309693 9:0.39737 10:0.795312 11:0.352651 12:0.362092 13:0.856978 14:0.664286 15:0.165782 16:0.788608 17:0.86038 18:0.534977 
1 1:0.463766 2:0.413047 3:-0.387238 4:0.488873 5:0.492805 6:-0.199124 7:0.47816 8:0.421643 9:0.31028 10:0.796455 11:0.704069 12:0.168627 13:0.808535 14:0.797619 15:-0.0185676 16:0.849677 17:0.76485 18:0.7002 
-1 1:0.454997 2:0.272077 3:-0.564758 4:0.464545 5:0.41114 6:-0.511977 7:0.461115 8:0.464116 9:0.41615 10:0.883362 11:0.877928 12:0.435294 13:0.890427 14:0.794048 15:0.48939 16:0.847328 17:0.839559 18:0.654897 
1 1:0.929505 2:0.793817 3:-0.428703 4:0.934019 5:0.863061 6:-0.387661 7:0.940827 8:0.930645 9:0.806785 10:0.93825 11:0.872996 12:0.54902 13:0.981546 14:0.886905 15:0.745358 16:0.929536 17:0.890998 18:0.642905 
-1 1:0.714749 2:0.629692 3:-0.473482 4:0.762647 5:0.871305 6:-0.132763 7:0.734468 8:0.771497 9:0.79139 10:0.902802 11:0.837238 12:0.615686 13:0.915802 14:0.845238 15:0.592838 16:0.874339 17:0.823637 18:0.69487 
-1 1:0.12007 2:-0.0405312 3:-0.781984 4:0.143364 5:0.0286293 6:-0.676415 7:0.146859 8:0.11595 9:-0.050923 10:0.847913 11:0.779285 12:0.504575 13:0.850058 14:0.782143 15:0.846154 16:0.826189 17:0.7624 18:0.89074 
1 1:0.815447 2:0.596655 3:-0.421778 4:0.845812 5:0.730345 6:-0.312454 7:0.850604 8:0.787026 9:0.623682 10:0.942824 11:0.882861 12:0.45098 13:0.913495 14:0.888095 15:0.433687 16:0.928362 17:0.840784 18:0.774817 
-1 1:0.00969904 2:0.0452573 3:-0.445984 4:0.0190347 5:0.0775614 6:-0.450251 7:0.00460304 8:0.0461814 9:0.284628 10:0.277301 11:0.355117 12:0.130719 13:0.304498 14:0.364286 15:0.102122 16:0.230769 17:0.4109 18:0.289807 
-1 1:0.464016 2:0.495469 3:-0.348117 4:0.479708 5:0.489208 6:-0.217652 7:0.434357 8:0.450936 9:0.319062 10:0.878788 11:0.648582 12:0.239216 13:0.88466 14:0.810714 15:0.0132626 16:0.841456 17:0.824862 18:0.781479 
-1 1:0.562413 2:0.328858 3:-0.673792 4:0.591281 5:0.439472 6:-0.581219 7:0.600974 8:0.538264 9:0.328476 10:0.929102 11:0.816276 12:0.508497 13:0.925029 14:0.845238 15:0.757294 16:0.91192 17:0.781996 18:0.788141 
1 1:0.530033 2:0.603648 3:-0.259005 4:0.533272 5:0.577136 6:-0.35469 7:0.478407 8:0.543425 9:0.595164 10:0.919954 11:0.723798 12:0.535948 13:0.880046 14:0.790476 15:0.452255 16:0.829712 17:0.864054 18:0.688208 
1 1:0.785618 2:0.601413 3:-0.446049 4:0.82378 5:0.707692 6:-0.28691 7:0.809288 8:0.74454 9:0.575859 10:0.925672 11:0.991369 12:0.521569 13:0.985006 14:0.953571 15:0.338196 16:0.890781 17:0.900796 18:0.894737 
1 1:0.573881 2:0.642511 3:-0.240012 4:0.5692 5:0.630546 6:-0.327813 7:0.50841 8:0.563084 9:0.713298 10:0.865066 11:0.831073 12:0.482353 13:0.933103 14:0.834524 15:0.460212 16:0.86377 17:0.819963 18:0.838774 
1 1:0.866349 2:0.763178 3:-0.389919 4:0.872827 5:0.804902 6:-0.420034 7:0.859109 8:0.849726 9:0.88088 10:0.950829 11:0.913687 12:0.601307 13:0.95271 14:0.853571 15:0.722812 16:0.949501 17:0.888549 18:0.817455 
1 1:0.169466 2:-0.0203762 3:-0.785426 4:0.189721 5:0.0684398 6:-0.700203 7:0.188903 8:0.161123 9:-0.0351728 10:0.782733 11:0.725031 12:0.469281 13:0.777393 14:0.725 15:0.574271 16:0.73576 17:0.774648 18:0.708195 
-1 1:-0.0930698 2:0.0386067 3:-0.291504 4:-0.0331251 5:0.409603 6:2.78157e-005 7:-0.161184 8:-0.108947 9:-0.0478739 10:0.369926 11:0.225647 12:-0.206536 13:0.352941 14:0.196429 15:-0.220159 16:0.295361 17:0.432945 18:0.411059 
1 1:0.829436 2:0.624258 3:-0.547235 4:0.859079 5:0.773322 6:-0.421456 7:0.855804 8:0.85138 9:0.844928 10:0.933676 11:0.797781 12:0.807843 13:0.906574 14:0.802381 15:0.604775 16:0.899002 17:0.819963 18:0.656229 
-1 1:0.891308 2:0.680052 3:-0.45864 4:0.869019 5:0.795831 6:-0.246929 7:0.913909 8:0.819993 9:0.644324 10:0.919954 11:0.866831 12:0.505882 13:0.896194 14:0.885714 15:0.356764 16:0.88256 17:0.826087 18:0.652232 
1 1:0.967382 2:0.684985 3:-0.460435 4:0.959781 5:0.957524 6:-0.309893 7:0.970777 8:0.929424 9:0.842675 10:0.945111 11:0.965475 12:0.377778 13:0.936563 14:0.742857 15:0.724138 16:0.942454 17:0.954685 18:0.652232 
1 1:0.918579 2:0.620332 3:-0.632522 4:0.928134 5:0.753035 6:-0.522916 7:0.956793 8:0.888064 9:0.731509 10:0.93482 11:0.880395 12:0.575163 13:0.940023 14:0.777381 15:0.769231 16:0.913095 17:0.85793 18:0.865423 
-1 1:0.602393 2:0.490862 3:-0.535897 4:0.621543 5:0.616688 6:-0.431727 7:0.633312 8:0.685634 9:0.739332 10:0.885649 11:0.900123 12:0.457516 13:0.901961 14:0.758333 15:0.671088 16:0.869642 17:0.859155 18:0.813458 
1 1:0.757055 2:0.542964 3:-0.520405 4:0.748672 5:0.634188 6:-0.486721 7:0.779858 8:0.72697 9:0.596157 10:0.887936 11:0.859433 12:0.51634 13:0.867359 14:0.809524 15:0.763926 16:0.91192 17:0.800367 18:0.732179 
1 1:0.85721 2:0.635496 3:-0.532415 4:0.892629 5:0.832805 6:-0.332662 7:0.87174 8:0.82135 9:0.639671 10:0.943968 11:0.818742 12:0.491503 13:0.912341 14:0.829762 15:0.550398 16:0.897827 17:0.85793 18:0.75483 
-1 1:0.152516 2:-0.0217235 3:-0.779133 4:0.167563 5:0.0586902 6:-0.69813 7:0.173186 8:0.12935 9:0.0502937 10:0.889079 11:0.799014 12:0.513725 13:0.875433 14:0.782143 15:0.677719 16:0.862595 17:0.892223 18:0.750833 
1 1:0.852818 2:0.731013 3:-0.407561 4:0.873318 5:0.817912 6:-0.406608 7:0.852134 8:0.837433 9:0.789566 10:0.947399 11:0.871763 12:0.713725 13:0.943483 14:0.846429 15:0.814324 16:0.944803 17:0.862829 18:0.842771 
1 1:0.567586 2:0.37529 3:-0.568596 4:0.577099 5:0.471283 6:-0.514192 7:0.568174 8:0.539143 9:0.438695 10:0.829617 11:0.778052 12:0.380392 13:0.83045 14:0.834524 15:0.874005 16:0.814445 17:0.854256 18:0.693538 
1 1:0.737064 2:0.514152 3:-0.567917 4:0.757664 5:0.702238 6:-0.354809 7:0.742081 8:0.708219 9:0.550001 10:0.916524 11:0.803946 12:0.705882 13:0.910035 14:0.830952 15:0.681698 16:0.916618 17:0.829761 18:0.756163 
1 1:0.828579 2:0.753386 3:-0.343709 4:0.81185 5:0.773061 6:-0.350516 7:0.805035 8:0.800138 9:0.767565 10:0.898228 11:0.771887 12:0.581699 13:0.935409 14:0.871429 15:0.724138 16:0.907223 17:0.899571 18:0.734843 
1 1:0.873752 2:0.679564 3:-0.542462 4:0.913594 5:0.892662 6:-0.291359 7:0.908842 8:0.886436 9:0.756288 10:0.927959 11:0.900123 12:0.796078 13:0.893887 14:0.804762 15:0.751989 16:0.937757 17:0.840784 18:0.681546 
-1 1:0.183 2:0.241767 3:-0.368513 4:0.233984 5:0.545646 6:-0.0821914 7:0.137976 8:0.156551 9:0.139088 10:0.558605 11:0.51418 12:-0.048366 13:0.574394 14:0.404762 15:0.0371353 16:0.519671 17:0.598285 18:0.433711 
-1 1:0.707015 2:0.484587 3:-0.544174 4:0.738516 5:0.656645 6:-0.469661 7:0.745583 8:0.725116 9:0.573036 10:0.902802 11:0.863132 12:0.581699 13:0.923875 14:0.779762 15:0.822281 16:0.871991 17:0.823637 18:0.892072 
1 1:0.824481 2:0.62052 3:-0.463261 4:0.840376 5:0.895917 6:-0.266696 7:0.832146 8:0.831576 9:0.690414 10:0.91538 11:0.912454 12:0.526797 13:0.929642 14:0.778571 15:0.559682 16:0.890781 17:0.853031 18:0.732179 
-1 1:0.346112 2:0.293368 3:-0.52082 4:0.355794 5:0.373336 6:-0.42341 7:0.343079 8:0.423878 9:0.555917 10:0.887936 11:0.775586 12:0.372549 13:0.859285 14:0.72381 15:0.452255 16:0.83441 17:0.800367 18:0.625583 
-1 1:0.826649 2:0.769355 3:-0.388148 4:0.838338 5:0.744665 6:-0.20985 7:0.835423 8:0.770968 9:0.590526 10:0.918811 11:0.742293 12:0.644444 13:0.88812 14:0.844048 15:0.351459 16:0.933059 17:0.892223 18:0.716189 
-1 1:0.880331 2:0.587892 3:-0.641005 4:0.883898 5:0.730423 6:-0.510774 7:0.923336 8:0.829325 9:0.6159 10:0.95769 11:0.839704 12:0.709804 13:0.923875 14:0.827381 15:0.632626 16:0.901351 17:0.848132 18:0.678881 
1 1:0.76876 2:0.717493 3:-0.350691 4:0.763588 5:0.766799 6:-0.38995 7:0.739112 8:0.748924 9:0.760553 10:0.910806 11:0.787916 12:0.620915 13:0.930796 14:0.809524 15:0.61008 16:0.927187 17:0.92774 18:0.790806 
-1 1:0.911404 2:0.765128 3:-0.350685 4:0.92544 5:0.887993 6:-0.352061 7:0.912484 8:0.886187 9:0.864089 10:0.935963 11:0.818742 12:0.620915 13:0.946943 14:0.925 15:0.676393 16:0.931885 17:0.780772 18:0.7495 
-1 1:0.4204 2:0.486166 3:-0.398476 4:0.49879 5:0.872128 6:0.0926343 7:0.406566 8:0.505805 9:0.793247 10:0.877644 11:0.764488 12:0.496732 13:0.862745 14:0.60119 15:0.412467 16:0.862595 17:0.800367 18:0.546969 
1 1:0.403446 2:0.235791 3:-0.572296 4:0.426342 5:0.3204 6:-0.511741 7:0.427073 8:0.376822 9:0.352098 10:0.835334 11:0.720099 12:0.311111 13:0.83391 14:0.736905 15:0.600796 16:0.801527 17:0.833435 18:0.744171 
1 1:0.780125 2:0.760429 3:-0.366014 4:0.791026 5:0.67995 6:-0.34798 7:0.776507 8:0.758257 9:0.709365 10:0.921098 11:0.68434 12:0.660131 13:0.89504 14:0.810714 15:0.632626 16:0.852026 17:0.898347 18:0.673551 
-1 1:0.64122 2:0.445142 3:-0.584004 4:0.662376 5:0.572411 6:-0.478982 7:0.659571 8:0.619241 9:0.566292 10:0.906232 11:0.837238 12:0.690196 13:0.927336 14:0.877381 15:0.712202 16:0.921315 17:0.851806 18:0.770819 
1 1:0.536167 2:0.618032 3:-0.289493 4:0.55319 5:0.605433 6:-0.3148 7:0.491077 8:0.564478 9:0.693528 10:0.91538 11:0.819975 12:0.433987 13:0.903114 14:0.807143 15:0.391247 16:0.884909 17:0.799143 18:0.734843 
1 1:0.91014 2:0.760376 3:-0.373049 4:0.933974 5:0.860925 6:-0.406457 7:0.90189 8:0.946427 9:0.830375 10:0.95769 11:0.816276 12:0.645752 13:0.935409 14:0.813095 15:0.655172 16:0.942454 17:0.910594 18:0.830779 
-1 1:0.869028 2:0.661529 3:-0.454078 4:0.907801 5:0.914886 6:-0.286407 7:0.882487 8:0.840447 9:0.67662 10:0.972556 11:0.887793 12:0.667974 13:0.934256 14:0.80119 15:0.558355 16:0.900176 17:0.851806 18:0.806795 
-1 1:0.666295 2:0.554852 3:-0.497338 4:0.717243 5:0.844398 6:-0.172214 7:0.673565 8:0.706265 9:0.739378 10:0.924528 11:0.810111 12:0.611765 13:0.886967 14:0.807143 15:0.572944 16:0.880211 17:0.875077 18:0.696203 
1 1:0.694778 2:0.406504 3:-0.6921 4:0.693555 5:0.541453 6:-0.562643 7:0.718122 8:0.660558 9:0.44761 10:0.916524 11:0.833539 12:0.684967 13:0.956171 14:0.830952 15:0.696286 16:0.909571 17:0.90692 18:0.818787 
-1 1:0.416413 2:0.260665 3:-0.515827 4:0.430188 5:0.377671 6:-0.468857 7:0.414973 8:0.42496 9:0.49829 10:0.862779 11:0.779285 12:0.337255 13:0.88812 14:0.763095 15:0.507958 16:0.846154 17:0.856705 18:0.730846 
-1 1:-0.313816 2:-0.250686 3:-0.489423 4:-0.296982 5:-0.183286 6:-0.455583 7:-0.312779 8:-0.285713 9:0.0885863 10:0.273871 11:0.273736 12:-0.069281 13:0.290657 14:0.322619 15:-0.0384615 16:0.216676 17:0.45744 18:0.245836 
-1 1:0.231352 2:0.236667 3:-0.301296 4:0.283276 5:0.553702 6:-0.0857563 7:0.203193 8:0.193757 9:0.155322 10:0.878788 11:0.675709 12:0.0156863 13:0.846597 14:0.542857 15:0.139257 16:0.849677 17:0.856705 18:0.796136 
0.9443545593564658 1:0.474652 2:0.867886 3:0.224768 4:0.483277 5:0.794369 6:-0.0345353 7:0.363739 8:0.564648 9:0.898211 10:0.692396 11:0.642417 12:0.0366013 13:0.681661 14:0.682143 15:0.240053 16:0.584263 17:0.752603 18:0.674883 
1 1:0.875258 2:0.787143 3:-0.417027 4:0.855641 5:0.712188 6:-0.359653 7:0.856372 8:0.859552 9:0.65086 10:0.927959 11:0.626387 12:0.864052 13:0.920415 14:0.765476 15:0.718833 16:0.897827 17:0.779547 18:0.829447 
-1 1:0.596635 2:0.505707 3:-0.433827 4:0.657397 5:0.721454 6:-0.218901 7:0.591988 8:0.576889 9:0.464485 10:0.909663 11:0.850801 12:0.36732 13:0.910035 14:0.783333 15:0.453581 16:0.91192 17:0.889773 18:0.889407 
-1 1:0.725354 2:0.58629 3:-0.322492 4:0.762858 5:0.855316 6:-0.227783 7:0.721413 8:0.72201 9:0.570052 10:0.930246 11:0.884094 12:0.379085 13:0.89158 14:0.820238 15:0.582228 16:0.897827 17:0.867728 18:0.63491 
-1 1:0.886731 2:0.57454 3:-0.649373 4:0.888592 5:0.708917 6:-0.510859 7:0.89843 8:0.866063 9:0.590463 10:0.966838 11:0.863132 12:0.705882 13:0.921569 14:0.815476 15:0.696286 16:0.902525 17:0.838334 18:0.81479 
-1 1:0.585826 2:0.593547 3:-0.396532 4:0.600487 5:0.583543 6:-0.185196 7:0.590296 8:0.587023 9:0.468993 10:0.939394 11:0.739827 12:0.384314 13:0.912341 14:0.841667 15:0.145889 16:0.897827 17:0.856705 18:0.756163 
1 1:0.74224 2:0.456413 3:-0.692959 4:0.772589 5:0.605461 6:-0.567752 7:0.775331 8:0.718428 9:0.513584 10:0.940537 11:0.806412 12:0.626144 13:0.953864 14:0.804762 15:0.802387 16:0.928362 17:0.877526 18:0.844104 
1 1:0.530474 2:0.460414 3:-0.409735 4:0.55701 5:0.749682 6:-0.20141 7:0.53718 8:0.520362 9:0.456053 10:0.907376 11:0.935882 12:0.291503 13:0.863899 14:0.652381 15:0.539788 16:0.864944 17:0.893448 18:0.598934 
1 1:0.521821 2:0.435239 3:-0.376766 4:0.548822 5:0.534218 6:-0.151449 7:0.522272 8:0.482305 9:0.408793 10:0.89251 11:0.766954 12:0.0862745 13:0.8812 14:0.807143 15:0.0185676 16:0.840282 17:0.848132 18:0.76016 
-1 1:0.755311 2:0.693696 3:-0.415301 4:0.769974 5:0.704328 6:-0.208635 7:0.757857 8:0.75887 9:0.549429 10:0.922241 11:0.691739 12:0.568627 13:0.951557 14:0.808333 15:0.22679 16:0.921315 17:0.922841 18:0.677548 
-1 1:0.780839 2:0.741769 3:-0.420439 4:0.787726 5:0.734231 6:-0.258643 7:0.784105 8:0.7931 9:0.625453 10:0.924528 11:0.734895 12:0.508497 13:0.919262 14:0.832143 15:0.401857 16:0.887258 17:0.917942 18:0.642905 
-1 1:0.76919 2:0.504706 3:-0.663639 4:0.772676 5:0.597403 6:-0.55877 7:0.784317 8:0.743935 9:0.559737 10:0.948542 11:0.855734 12:0.620915 13:0.940023 14:0.784524 15:0.802387 16:0.916618 17:0.838334 18:0.770819 
1 1:0.551856 2:0.299062 3:-0.715644 4:0.582331 5:0.451272 6:-0.618598 7:0.587358 8:0.534653 9:0.381393 10:0.91195 11:0.789149 12:0.585621 13:0.901961 14:0.77381 15:0.718833 16:0.861421 17:0.830986 18:0.790806 
1 1:0.450686 2:0.204328 3:-0.728169 4:0.467079 5:0.316802 6:-0.606168 7:0.4626 8:0.442548 9:0.264792 10:0.881075 11:0.768187 12:0.694118 13:0.873126 14:0.789286 15:0.69496 16:0.8532 17:0.854256 18:0.716189 
-1 1:0.0489039 2:0.127383 3:-0.350816 4:0.102097 5:0.480355 6:-0.0429914 7:-0.00987888 8:0.0303256 9:0.0545182 10:0.538022 11:0.373613 12:-0.0235294 13:0.50519 14:0.364286 15:-0.0928382 16:0.504404 17:0.566442 18:0.475017 
1 1:0.236404 2:0.283001 3:-0.277034 4:0.251205 5:0.349543 6:-0.0453862 7:0.235229 8:0.217634 9:0.12331 10:0.76215 11:0.496917 12:-0.0261438 13:0.778547 14:0.560714 15:-0.236074 16:0.76512 17:0.791794 18:0.598934 
-1 1:0.877096 2:0.54782 3:-0.631387 4:0.894414 5:0.692056 6:-0.507136 7:0.890503 8:0.859631 9:0.626331 10:0.966838 11:0.855734 12:0.656209 13:0.913495 14:0.834524 15:0.802387 16:0.904874 17:0.854256 18:0.773484 
1 1:0.828701 2:0.603624 3:-0.384832 4:0.836147 5:0.723687 6:-0.187474 7:0.835219 8:0.792867 9:0.631495 10:0.923385 11:0.896424 12:0.321569 13:0.94579 14:0.87619 15:0.161804 16:0.915443 17:0.88365 18:0.673551 
-1 1:0.853268 2:0.711632 3:-0.460912 4:0.862122 5:0.795834 6:-0.239742 7:0.845593 8:0.839952 9:0.649163 10:0.918811 11:0.81381 12:0.524183 13:0.929642 14:0.860714 15:0.400531 16:0.926013 17:0.854256 18:0.613591 
1 1:0.564532 2:0.462629 3:-0.420618 4:0.582158 5:0.531118 6:-0.234635 7:0.569495 8:0.503487 9:0.3867 10:0.860492 11:0.855734 12:0.371242 13:0.847751 14:0.855952 15:0.168435 16:0.864944 17:0.821188 18:0.736176 
-1 1:0.948304 2:0.671032 3:-0.426127 4:0.951648 5:0.967665 6:-0.339675 7:0.949718 8:0.927419 9:0.698296 10:0.922241 11:0.868064 12:0.453595 13:0.899654 14:0.840476 15:0.657825 16:0.889607 17:0.92774 18:0.864091 
1 1:0.899104 2:0.671776 3:-0.448119 4:0.930008 5:0.93279 6:-0.290119 7:0.921925 8:0.886699 9:0.707643 10:0.925672 11:0.919852 12:0.402614 13:0.912341 14:0.816667 15:0.704244 16:0.91192 17:0.933864 18:0.738841 
-1 1:0.869545 2:0.791909 3:-0.448014 4:0.891361 5:0.736702 6:-0.246238 7:0.868577 8:0.84395 9:0.708171 10:0.91538 11:0.817509 12:0.419608 13:0.940023 14:0.870238 15:0.388594 16:0.887258 17:0.917942 18:0.736176 
1 1:0.270721 2:0.262764 3:-0.329968 4:0.269795 5:0.331684 6:-0.107658 7:0.244348 8:0.226725 9:0.232265 10:0.847913 11:0.625154 12:-0.0666667 13:0.813149 14:0.730952 15:-0.266578 16:0.837933 17:0.78812 18:0.63491 
1 1:0.484639 2:0.387401 3:-0.412197 4:0.522896 5:0.702318 6:-0.203403 7:0.49265 8:0.477809 9:0.487306 10:0.862779 11:0.848335 12:0.321569 13:0.878893 14:0.635714 15:0.364721 16:0.874339 17:0.844458 18:0.714857 
1 1:0.518121 2:0.438405 3:-0.349231 4:0.523029 5:0.544325 6:-0.133073 7:0.524669 8:0.453396 9:0.38309 10:0.860492 11:0.796547 12:0.287582 13:0.856978 14:0.775 15:-0.0742706 16:0.844979 17:0.822413 18:0.709527 
1 1:0.881305 2:0.739278 3:-0.384541 4:0.8706 5:0.815212 6:-0.381398 7:0.859372 8:0.870074 9:0.763259 10:0.949686 11:0.865598 12:0.533333 13:0.908881 14:0.808333 15:0.67374 16:0.908397 17:0.882425 18:0.753498 
-1 1:0.697027 2:0.568613 3:-0.423554 4:0.709434 5:0.671565 6:-0.162875 7:0.698809 8:0.652016 9:0.532531 10:0.919954 11:0.810111 12:0.339869 13:0.877739 14:0.817857 15:0.11008 16:0.841456 17:0.819963 18:0.836109 
1 1:0.729387 2:0.558108 3:-0.414168 4:0.757797 5:0.854277 6:-0.232154 7:0.730753 8:0.728673 9:0.616072 10:0.923385 11:0.852035 12:0.32549 13:0.931949 14:0.752381 15:0.570292 16:0.875514 17:0.867728 18:0.738841 
1 1:0.677254 2:0.407176 3:-0.677483 4:0.70953 5:0.517299 6:-0.555806 7:0.69795 8:0.655891 9:0.513895 10:0.925672 11:0.839704 12:0.648366 13:0.920415 14:0.804762 15:0.683024 16:0.888432 17:0.894672 18:0.784144 
-1 1:0.739689 2:0.532953 3:-0.525594 4:0.755701 5:0.693755 6:-0.415694 7:0.758161 8:0.741222 9:0.77137 10:0.885649 11:0.794081 12:0.664052 13:0.916955 14:0.827381 15:0.724138 16:0.928362 17:0.905695 18:0.813458 
0.3878652619030364 1:0.516854 2:0.440665 3:-0.557909 4:0.565287 5:0.678138 6:-0.199031 7:0.515576 8:0.566828 9:0.584675 10:0.887936 11:0.810111 12:0.701961 13:0.852364 14:0.767857 15:0.554377 16:0.850851 17:0.748928 18:0.698867 
1 1:0.350258 2:0.33355 3:-0.292076 4:0.384047 5:0.658749 6:-0.0913346 7:0.33958 8:0.373353 9:0.337562 10:0.831904 11:0.776819 12:0.101961 13:0.821223 14:0.521429 15:0.274536 16:0.788608 17:0.796693 18:0.538974 
-1 1:0.559592 2:0.460373 3:-0.429582 4:0.601505 5:0.706804 6:-0.155236 7:0.561718 8:0.508414 9:0.417392 10:0.925672 11:0.74106 12:0.275817 13:0.89504 14:0.721429 15:0.28382 16:0.880211 17:0.861604 18:0.745503 
-1 1:0.751743 2:0.549816 3:-0.536149 4:0.791525 5:0.681897 6:-0.410515 7:0.771264 8:0.760248 9:0.668312 10:0.905089 11:0.836005 12:0.656209 13:0.943483 14:0.864286 15:0.741379 16:0.921315 17:0.908145 18:0.845436 
1 1:0.615735 2:0.510933 3:-0.394908 4:0.649817 5:0.730922 6:-0.276399 7:0.618668 8:0.623986 9:0.538363 10:0.947399 11:0.875462 12:0.322876 13:0.901961 14:0.730952 15:0.47878 16:0.877863 17:0.917942 18:0.592272 
1 1:0.919942 2:0.803016 3:-0.420905 4:0.916404 5:0.885794 6:-0.374275 7:0.931836 8:0.943204 9:0.786554 10:0.987421 11:0.808878 12:0.768627 13:0.985006 14:0.796429 15:0.607427 16:0.938931 17:0.924066 18:0.889407 
-1 1:0.329398 2:0.13173 3:-0.744455 4:0.343758 5:0.219971 6:-0.639922 7:0.3547 8:0.316518 9:0.172264 10:0.89251 11:0.802713 12:0.568627 13:0.904268 14:0.807143 15:0.602122 16:0.867293 17:0.822413 18:0.829447 
-1 1:0.779985 2:0.631856 3:-0.428076 4:0.801826 5:0.886158 6:-0.195048 7:0.753262 8:0.73002 9:0.57591 10:0.909663 11:0.843403 12:0.375163 13:0.911188 14:0.72619 15:0.450928 16:0.907223 17:0.895897 18:0.833444 
-1 1:0.794232 2:0.835179 3:-0.23292 4:0.791669 5:0.745455 6:-0.315262 7:0.780618 8:0.782071 9:0.7632 10:0.917667 11:0.750925 12:0.579085 13:0.903114 14:0.79881 15:0.615385 16:0.879037 17:0.794244 18:0.816123 
-1 1:0.488329 2:0.559873 3:-0.315279 4:0.509198 5:0.511592 6:-0.116875 7:0.471909 8:0.431856 9:0.468289 10:0.870783 11:0.62762 12:0.354248 13:0.900807 14:0.790476 15:-0.061008 16:0.873165 17:0.886099 18:0.597602 
-1 1:0.682835 2:0.510423 3:-0.556461 4:0.693354 5:0.644714 6:-0.402539 7:0.69261 8:0.695179 9:0.672675 10:0.893654 11:0.823674 12:0.735948 13:0.912341 14:0.825 15:0.713528 16:0.902525 17:0.823637 18:0.714857 
1 1:0.913497 2:0.698491 3:-0.527277 4:0.920033 5:0.784198 6:-0.302208 7:0.903089 8:0.872184 9:0.703714 10:0.959977 11:0.832306 12:0.569935 13:0.913495 14:0.879762 15:0.417772 16:0.910746 17:0.884874 18:0.789474 
-1 1:0.683316 2:0.552008 3:-0.417585 4:0.709017 5:0.853029 6:-0.199591 7:0.697474 8:0.684493 9:0.590102 10:0.907376 11:0.811344 12:0.52549 13:0.913495 14:0.655952 15:0.405836 16:0.859072 17:0.854256 18:0.600266 
-1 1:0.749126 2:0.749756 3:-0.230627 4:0.759285 5:0.759118 6:-0.292087 7:0.738877 8:0.790363 9:0.757645 10:0.882218 11:0.778052 12:0.384314 13:0.899654 14:0.810714 15:0.555703 16:0.859072 17:0.805266 18:0.729514 
-1 1:0.798584 2:0.840788 3:-0.266277 4:0.835134 5:0.723102 6:-0.34298 7:0.798741 8:0.788839 9:0.626246 10:0.925672 11:0.639951 12:0.656209 13:0.93887 14:0.782143 15:0.611406 16:0.894304 17:0.848132 18:0.812125 
1 1:-0.013956 2:0.0374899 3:-0.535096 4:0.0101619 5:0.14304 6:-0.451438 7:-0.0185845 8:0.0688146 9:0.406738 10:0.640938 11:0.564735 12:0.312418 13:0.666667 14:0.591667 15:0.412467 16:0.600705 17:0.587263 18:0.550966 
1 1:0.183148 2:0.216359 3:-0.314042 4:0.202694 5:0.269953 6:-0.0640124 7:0.16856 8:0.163361 9:0.0978569 10:0.852487 11:0.600493 12:-0.0248366 13:0.823529 14:0.686905 15:-0.289125 16:0.841456 17:0.850582 18:0.657562 
-1 1:0.676387 2:0.518023 3:-0.450638 4:0.700673 5:0.621986 6:-0.263027 7:0.690995 8:0.618267 9:0.442904 10:0.913093 11:0.816276 12:0.414379 13:0.955017 14:0.936905 15:0.189655 16:0.921315 17:0.85793 18:0.806795 
-1 1:0.731121 2:0.7009 3:-0.249558 4:0.719957 5:0.734409 6:-0.378036 7:0.708149 8:0.694448 9:0.727099 10:0.95426 11:0.797781 12:0.45098 13:0.94925 14:0.761905 15:0.616711 16:0.897827 17:0.867728 18:0.75483 
1 1:0.2078 2:0.491953 3:-0.00868998 4:0.208066 5:0.452931 6:-0.220681 7:0.120135 8:0.24299 9:0.615704 10:0.841052 11:0.58693 12:0.262745 13:0.847751 14:0.645238 15:0.096817 16:0.822666 17:0.723209 18:0.505663 
-1 1:0.631572 2:0.417268 3:-0.561872 4:0.642605 5:0.529376 6:-0.486654 7:0.649837 8:0.604452 9:0.52566 10:0.843339 11:0.893958 12:0.65098 13:0.870819 14:0.819048 15:0.488064 16:0.883735 17:0.842009 18:0.774817 
-1 1:0.753861 2:0.548665 3:-0.535697 4:0.746339 5:0.671964 6:-0.40846 7:0.74451 8:0.782105 9:0.751432 10:0.927959 11:0.833539 12:0.611765 13:0.911188 14:0.783333 15:0.728117 16:0.887258 17:0.90692 18:0.818787 
-1 1:0.75955 2:0.524561 3:-0.550939 4:0.750619 5:0.606873 6:-0.491218 7:0.773306 8:0.721269 9:0.567968 10:0.882218 11:0.831073 12:0.55817 13:0.910035 14:0.875 15:0.698939 16:0.881386 17:0.856705 18:0.756163 
1 1:0.275671 2:0.600793 3:-0.0719327 4:0.235239 5:0.260632 6:-0.290728 7:0.213314 8:0.249004 9:0.335427 10:0.715266 11:0.244143 12:0.345098 13:0.694348 14:0.534524 15:0.139257 16:0.640634 17:0.74158 18:0.554963 
1 1:0.0235931 2:0.0641299 3:-0.572064 4:0.049061 5:0.167675 6:-0.469815 7:0.0104284 8:0.106179 9:0.386756 10:0.678674 11:0.5709 12:0.430065 13:0.710496 14:0.635714 15:0.316976 16:0.669994 17:0.728108 18:0.440373 
1 1:0.644805 2:0.50638 3:-0.413612 4:0.67428 5:0.787045 6:-0.200727 7:0.652429 8:0.671712 9:0.520671 10:0.906232 11:0.833539 12:0.311111 13:0.910035 14:0.677381 15:0.405836 16:0.827363 17:0.828536 18:0.688208 
1 1:0.324768 2:0.25993 3:-0.593219 4:0.348663 5:0.348869 6:-0.449236 7:0.336588 8:0.357867 9:0.457969 10:0.841052 11:0.704069 12:0.588235 13:0.845444 14:0.77619 15:0.526525 16:0.854375 17:0.789345 18:0.614923 
-1 1:0.909577 2:0.839211 3:-0.420934 4:0.911277 5:0.802105 6:-0.335004 7:0.915815 8:0.954643 9:0.723796 10:0.895941 11:0.749692 12:0.773856 13:0.915802 14:0.816667 15:0.675066 16:0.917792 17:0.848132 18:0.776149 
-1 1:0.556177 2:0.56487 3:-0.379698 4:0.564082 5:0.513603 6:-0.205245 7:0.53929 8:0.567721 9:0.422744 10:0.884505 11:0.74476 12:0.397386 13:0.907728 14:0.897619 15:0.0795756 16:0.891955 17:0.849357 18:0.730846 
1 1:0.537127 2:0.27599 3:-0.701827 4:0.537852 5:0.425584 6:-0.606201 7:0.554641 8:0.512394 9:0.242076 10:0.891366 11:0.752158 12:0.815686 13:0.898501 14:0.835714 15:0.753316 16:0.835584 17:0.800367 18:0.797468 
-1 1:0.824181 2:0.663236 3:-0.50359 4:0.873749 5:0.923804 6:-0.203074 7:0.842359 8:0.855504 9:0.839412 10:0.942824 11:0.81381 12:0.564706 13:0.93887 14:0.778571 15:0.827586 16:0.899002 17:0.781996 18:0.669554 
-1 1:-0.449541 2:0.558897 3:0.666101 4:-0.489583 5:-0.166064 6:-0.0325627 7:-0.57373 8:-0.423057 9:-0.0175271 10:0.202973 11:-0.346486 12:-0.0601307 13:0.156863 14:0.00119048 15:-0.376658 16:0.126248 17:0.312921 18:-0.02998 
-1 1:0.528263 2:0.356074 3:-0.587538 4:0.517465 5:0.416174 6:-0.483913 7:0.542657 8:0.505352 9:0.482868 10:0.879931 11:0.837238 12:0.535948 13:0.83391 14:0.738095 15:0.54244 16:0.868467 17:0.791794 18:0.785476 
1 1:0.959154 2:0.701297 3:-0.502585 4:0.981656 5:0.858024 6:-0.286695 7:0.970519 8:0.896583 9:0.730601 10:0.926815 11:0.864365 12:0.620915 13:0.975779 14:0.820238 15:0.397878 16:0.900176 17:0.808941 18:0.777482 
-1 1:0.836658 2:0.552754 3:-0.628577 4:0.850226 5:0.691068 6:-0.519037 7:0.849593 8:0.764126 9:0.582746 10:0.908519 11:0.94328 12:0.647059 13:0.930796 14:0.821429 15:0.835544 16:0.931885 17:0.817514 18:0.804131 
1 1:0.771974 2:0.548751 3:-0.559802 4:0.795148 5:0.68144 6:-0.446647 7:0.826876 8:0.767941 9:0.664984 10:0.921098 11:0.811344 12:0.664052 13:0.89504 14:0.832143 15:0.606101 16:0.906048 17:0.842009 18:0.792139 
-1 1:0.562406 2:0.327628 3:-0.665286 4:0.571238 5:0.425382 6:-0.573366 7:0.574216 8:0.536299 9:0.360839 10:0.900515 11:0.780518 12:0.601307 13:0.929642 14:0.860714 15:0.766578 16:0.902525 17:0.867728 18:0.769487 
-1 1:-0.645377 2:-0.464817 3:-0.463304 4:-0.621065 5:-0.423334 6:-0.493789 7:-0.654633 8:-0.588338 9:-0.095854 10:0.15952 11:0.138101 12:-0.236601 13:0.125721 14:0.0654762 15:-0.22679 16:0.0593071 17:0.559094 18:-0.132578 
1 1:0.411222 2:0.333937 3:-0.371928 4:0.433773 5:0.70705 6:-0.126923 7:0.392938 8:0.417715 9:0.395438 10:0.884505 11:0.795314 12:0.298039 13:0.860438 14:0.511905 15:0.286472 16:0.896653 17:0.878751 18:0.612258 
-1 1:0.408805 2:0.383663 3:-0.362021 4:0.427318 5:0.679071 6:-0.0934502 7:0.391106 8:0.422436 9:0.374724 10:0.921098 11:0.806412 12:0.202614 13:0.89504 14:0.52619 15:0.265252 16:0.864944 17:0.853031 18:0.633578 
1 1:-0.188819 2:0.0956278 3:0.0697089 4:-0.18891 5:0.134087 6:0.398456 7:-0.250951 8:-0.242599 9:-0.124978 10:0.431675 11:-0.0147965 12:-0.484967 13:0.452134 14:0.0452381 15:-0.637931 16:0.504404 17:0.593386 18:0.436376 
-0.2412162449606581 1:-0.574747 2:-0.220528 3:-0.00156077 4:-0.481463 5:0.321913 6:0.37086 7:-0.669581 8:-0.605042 9:-0.358734 10:0.157233 11:-0.149199 12:-0.603922 13:-0.011534 14:-0.32619 15:-0.571618 16:0.0968878 17:0.508879 18:0.124584 
-1 1:0.382214 2:0.232123 3:-0.579215 4:0.398304 5:0.305302 6:-0.532426 7:0.402545 8:0.395852 9:0.411276 10:0.887936 11:0.807645 12:0.383007 13:0.868512 14:0.790476 15:0.518568 16:0.819143 17:0.774648 18:0.681546 
-1 1:0.53679 2:0.369791 3:-0.554288 4:0.541841 5:0.445962 6:-0.472743 7:0.543105 8:0.550083 9:0.4494 10:0.898228 11:0.84217 12:0.637908 13:0.88812 14:0.805952 15:0.56366 16:0.895479 17:0.7624 18:0.709527 
-1 1:0.518899 2:0.474876 3:-0.469233 4:0.558847 5:0.799319 6:-0.0592936 7:0.51591 8:0.587327 9:0.78123 10:0.876501 11:0.837238 12:0.522876 13:0.890427 14:0.75 15:0.594164 16:0.886083 17:0.800367 18:0.633578 
0.20211454024267 1:-0.146779 2:0.122161 3:0.041127 4:-0.145924 5:0.16412 6:0.384391 7:-0.209693 8:-0.193769 9:-0.0826991 10:0.476272 11:0.0554871 12:-0.433987 13:0.506344 14:0.119048 15:-0.624668 16:0.525543 17:0.69259 18:0.411059 
-1 1:0.73763 2:0.581638 3:-0.550078 4:0.76247 5:0.702627 6:-0.417229 7:0.742615 8:0.765051 9:0.783452 10:0.902802 11:0.808878 12:0.569935 13:0.93887 14:0.85119 15:0.653846 16:0.877863 17:0.920392 18:0.806795 
-1 1:0.506673 2:0.4794 3:-0.29701 4:0.498931 5:0.49189 6:-0.0648429 7:0.506169 8:0.473281 9:0.35754 10:0.885649 11:0.808878 12:0.0143791 13:0.860438 14:0.786905 15:-0.0742706 16:0.837933 17:0.830986 18:0.672219 
1 1:0.697977 2:0.632356 3:-0.453969 4:0.674029 5:0.638402 6:-0.303959 7:0.696517 8:0.670332 9:0.510848 10:0.926815 11:0.752158 12:0.447059 13:0.8812 14:0.817857 15:0.385942 16:0.900176 17:0.855481 18:0.661559 
1 1:0.508882 2:0.42121 3:-0.41497 4:0.525944 5:0.497088 6:-0.140962 7:0.502275 8:0.461944 9:0.436616 10:0.879931 11:0.765721 12:0.183007 13:0.908881 14:0.807143 15:-0.0596817 16:0.871991 17:0.824862 18:0.80946 
-1 1:0.423686 2:0.203127 3:-0.712723 4:0.420067 5:0.290809 6:-0.635037 7:0.434933 8:0.407379 9:0.227522 10:0.924528 11:0.791615 12:0.533333 13:0.928489 14:0.767857 15:0.701592 16:0.883735 17:0.890998 18:0.808128 
1 1:0.432435 2:0.350958 3:-0.571203 4:0.461804 5:0.456195 6:-0.46054 7:0.453116 8:0.47846 9:0.584253 10:0.819325 11:0.749692 12:0.620915 13:0.858131 14:0.767857 15:0.538462 16:0.847328 17:0.778322 18:0.632245 
-1 1:0.588982 2:0.529367 3:-0.403427 4:0.663063 5:0.890607 6:-0.0586847 7:0.588491 8:0.656443 9:0.753856 10:0.886792 11:0.789149 12:0.495425 13:0.8812 14:0.682143 15:0.539788 16:0.914269 17:0.848132 18:0.710859 
1 1:0.774613 2:0.510411 3:-0.664939 4:0.79403 5:0.607626 6:-0.514138 7:0.795311 8:0.776274 9:0.518956 10:0.916524 11:0.808878 12:0.678431 13:0.946943 14:0.792857 15:0.710875 16:0.886083 17:0.879976 18:0.758827 
1 1:0.608 2:0.43507 3:-0.551772 4:0.641429 5:0.659839 6:-0.348316 7:0.605375 8:0.59982 9:0.38453 10:0.932533 11:0.827374 12:0.552941 13:0.88812 14:0.811905 15:0.440318 16:0.890781 17:0.878751 18:0.789474 
1 1:0.523081 2:0.289246 3:-0.738049 4:0.539349 5:0.408718 6:-0.574711 7:0.53646 8:0.487288 9:0.313449 10:0.887936 11:0.78545 12:0.55817 13:0.914648 14:0.821429 15:0.710875 16:0.83441 17:0.833435 18:0.864091 
1 1:0.585314 2:0.32975 3:-0.711171 4:0.602402 5:0.455324 6:-0.576238 7:0.59341 8:0.581165 9:0.379269 10:0.91538 11:0.797781 12:0.738562 13:0.907728 14:0.745238 15:0.70557 16:0.850851 17:0.81384 18:0.877415 
-1 1:0.895304 2:0.66021 3:-0.512158 4:0.907418 5:0.895495 6:-0.303626 7:0.894285 8:0.841268 9:0.620368 10:0.937107 11:0.810111 12:0.568627 13:0.973472 14:0.891667 15:0.655172 16:0.917792 17:0.851806 18:0.834777 
1 1:0.138892 2:0.5131 3:0.0792006 4:0.124545 5:0.454875 6:-0.224474 7:0.0533699 8:0.197213 9:0.557755 10:0.801029 11:0.489519 12:0.0980392 13:0.802768 14:0.583333 15:0.118037 16:0.807399 17:0.784446 18:0.416389 
1 1:0.83963 2:0.627704 3:-0.563917 4:0.870554 5:0.760574 6:-0.394126 7:0.867691 8:0.850379 9:0.702176 10:0.913093 11:0.880395 12:0.602614 13:0.915802 14:0.792857 15:0.700265 16:0.921315 17:0.799143 18:0.822785 
1 1:0.405093 2:0.582421 3:-0.11714 4:0.41017 5:0.537059 6:-0.260409 7:0.365019 8:0.4234 9:0.641793 10:0.866209 11:0.67201 12:0.350327 13:0.860438 14:0.738095 15:0.335544 16:0.886083 17:0.784446 18:0.577615 
-1 1:0.575576 2:0.470619 3:-0.365966 4:0.584002 5:0.607229 6:-0.111753 7:0.588884 8:0.522865 9:0.461355 10:0.871927 11:0.775586 12:0.265359 13:0.875433 14:0.832143 15:-0.0318302 16:0.864944 17:0.791794 18:0.745503 
-1 1:-0.0257897 2:0.0829659 3:-0.316229 4:0.0318717 5:0.438484 6:-0.0160525 7:-0.0800324 8:-0.0347869 9:-0.0053815 10:0.457976 11:0.351418 12:-0.12549 13:0.430219 14:0.272619 15:-0.145889 16:0.408103 17:0.518677 18:0.46569 
1 1:0.450141 2:0.426631 3:-0.549811 4:0.495262 5:0.716863 6:-0.102814 7:0.445136 8:0.494541 9:0.591834 10:0.855918 11:0.704069 12:0.575163 13:0.841984 14:0.661905 15:0.693634 16:0.807399 17:0.819963 18:0.685543 
0.1134363420175317 1:-0.528504 2:0.417216 3:0.666622 4:-0.556948 5:0.107846 6:0.0567981 7:-0.714137 8:-0.361468 9:0.46297 10:0.278445 11:-0.177559 12:-0.278431 13:0.391003 14:-0.195238 15:-0.485411 16:0.520846 17:0.217391 18:-0.213857 
1 1:0.673622 2:0.486967 3:-0.513667 4:0.700055 5:0.712285 6:-0.280498 7:0.657106 8:0.621001 9:0.513791 10:0.925672 11:0.784217 12:0.503268 13:0.918108 14:0.788095 15:0.445623 16:0.887258 17:0.805266 18:0.837442 
-1 1:0.608145 2:0.497709 3:-0.378212 4:0.617802 5:0.628712 6:-0.196512 7:0.618794 8:0.573153 9:0.412837 10:0.899371 11:0.755857 12:0.30719 13:0.926182 14:0.780952 15:0.189655 16:0.889607 17:0.875077 18:0.732179 
-1 1:0.528104 2:0.687729 3:-0.128199 4:0.534807 5:0.491576 6:-0.312013 7:0.488611 8:0.506782 9:0.467815 10:0.841052 11:0.559803 12:0.469281 13:0.874279 14:0.734524 15:0.287798 16:0.888432 17:0.799143 18:0.638907 
-1 1:0.717448 2:0.581154 3:-0.486689 4:0.775414 5:0.851298 6:-0.143022 7:0.734466 8:0.742555 9:0.86194 10:0.914237 11:0.861899 12:0.71634 13:0.910035 14:0.759524 15:0.809019 16:0.867293 17:0.833435 18:0.693538 
1 1:0.625169 2:0.598185 3:-0.396914 4:0.6269 5:0.560784 6:-0.300345 7:0.608626 8:0.595283 9:0.41439 10:0.871927 11:0.705302 12:0.334641 13:0.845444 14:0.740476 15:0.266578 16:0.809748 17:0.823637 18:0.836109 
-1 1:0.632075 2:0.547514 3:-0.444601 4:0.700936 5:0.873604 6:-0.129577 7:0.652932 8:0.670777 9:0.734773 10:0.919954 11:0.843403 12:0.555556 13:0.907728 14:0.747619 15:0.643236 16:0.89313 17:0.842009 18:0.737508 
-1 1:0.756405 2:0.728478 3:-0.443444 4:0.772774 5:0.716107 6:-0.23646 7:0.741486 8:0.724767 9:0.562082 10:0.91195 11:0.699137 12:0.51634 13:0.911188 14:0.854762 15:0.257294 16:0.915443 17:0.854256 18:0.648235 
-1 1:0.852493 2:0.677513 3:-0.515528 4:0.90474 5:0.914682 6:-0.260872 7:0.872171 8:0.863534 9:0.787605 10:0.881075 11:0.912454 12:0.823529 13:0.935409 14:0.811905 15:0.876658 16:0.91192 17:0.844458 18:0.758827 
1 1:0.338959 2:0.419006 3:-0.0781971 4:0.362103 5:0.85303 6:0.185109 7:0.302152 8:0.352556 9:0.465669 10:0.692396 11:0.670777 12:-0.105882 13:0.707036 14:0.334524 15:0.0371353 16:0.704052 17:0.724434 18:0.429714 
1 1:0.544515 2:0.41936 3:-0.292493 4:0.563983 5:0.758966 6:-0.144632 7:0.544791 8:0.536614 9:0.544702 10:0.899371 11:0.871763 12:0.231373 13:0.893887 14:0.627381 15:0.346154 16:0.883735 17:0.826087 18:0.664224 
1 1:0.685691 2:0.51331 3:-0.567514 4:0.729153 5:0.661744 6:-0.459115 7:0.719721 8:0.738548 9:0.703234 10:0.908519 11:0.887793 12:0.74902 13:0.936563 14:0.825 15:0.606101 16:0.880211 17:0.854256 18:0.781479 
-1 1:0.83124 2:0.62907 3:-0.379551 4:0.821405 5:0.903495 6:-0.231213 7:0.837759 8:0.799016 9:0.707588 10:0.921098 11:0.916153 12:0.32549 13:0.911188 14:0.77619 15:0.614058 16:0.874339 17:0.916718 18:0.736176 
-1 1:0.836476 2:0.658198 3:-0.420789 4:0.879484 5:0.862911 6:-0.208062 7:0.83076 8:0.834316 9:0.608848 10:0.897084 11:0.840937 12:0.449673 13:0.912341 14:0.784524 15:0.488064 16:0.917792 17:0.889773 18:0.773484 
-1 1:0.122291 2:0.173037 3:-0.348354 4:0.173169 5:0.500289 6:-0.0664048 7:0.07459 8:0.0867817 9:0.0726233 10:0.507147 11:0.431566 12:-0.0797386 13:0.474048 14:0.37619 15:-0.030504 16:0.456254 17:0.583588 18:0.448368 
1 1:0.795967 2:0.59716 3:-0.560757 4:0.817686 5:0.711919 6:-0.428003 7:0.808648 8:0.8297 9:0.685558 10:0.918811 11:0.77312 12:0.71634 13:0.905421 14:0.791667 15:0.570292 16:0.901351 17:0.838334 18:0.794803 
-1 1:0.535449 2:0.345532 3:-0.569784 4:0.542305 5:0.461043 6:-0.525172 7:0.571146 8:0.520144 9:0.450478 10:0.834191 11:0.799014 12:0.65098 13:0.859285 14:0.694048 15:0.798408 16:0.821491 17:0.835885 18:0.734843 
1 1:0.295045 2:0.178329 3:-0.592356 4:0.298621 5:0.234108 6:-0.525493 7:0.304484 8:0.311046 9:0.292306 10:0.730132 11:0.614057 12:0.422222 13:0.777393 14:0.696429 15:0.562334 16:0.69818 17:0.781996 18:0.64557 
-1 1:0.818066 2:0.614391 3:-0.518578 4:0.830012 5:0.74776 6:-0.393758 7:0.84256 8:0.804375 9:0.774842 10:0.903945 11:0.800247 12:0.686275 13:0.926182 14:0.816667 15:0.750663 16:0.888432 17:0.853031 18:0.693538 
-1 1:0.665347 2:0.475318 3:-0.559154 4:0.659632 5:0.560741 6:-0.483926 7:0.693838 8:0.613674 9:0.582933 10:0.889079 11:0.755857 12:0.673203 13:0.877739 14:0.811905 15:0.713528 16:0.88256 17:0.843233 18:0.800133 
1 1:0.60654 2:0.567846 3:-0.432102 4:0.623373 5:0.574813 6:-0.305516 7:0.614652 8:0.584869 9:0.419692 10:0.885649 11:0.723798 12:0.407843 13:0.880046 14:0.794048 15:0.351459 16:0.835584 17:0.866503 18:0.756163 
-1 1:0.811088 2:0.808486 3:-0.377157 4:0.827063 5:0.710858 6:-0.315206 7:0.825782 8:0.808761 9:0.720209 10:0.859348 11:0.689273 12:0.788235 13:0.921569 14:0.815476 15:0.413793 16:0.88256 17:0.833435 18:0.876083 
1 1:0.363478 2:0.154274 3:-0.750865 4:0.396583 5:0.243875 6:-0.655826 7:0.395731 8:0.373522 9:0.179368 10:0.861635 11:0.784217 12:0.708497 13:0.851211 14:0.775 15:0.697613 16:0.843805 17:0.815064 18:0.801466 
1 1:0.487564 2:0.40003 3:-0.401286 4:0.509873 5:0.461732 6:-0.209408 7:0.484391 8:0.455784 9:0.324019 10:0.8502 11:0.81381 12:0.28366 13:0.839677 14:0.797619 15:-0.0809019 16:0.842631 17:0.819963 18:0.724184 
-1 1:0.643004 2:0.458827 3:-0.579102 4:0.661483 5:0.547498 6:-0.504308 7:0.683705 8:0.646255 9:0.589647 10:0.895941 11:0.860666 12:0.486275 13:0.907728 14:0.816667 15:0.660477 16:0.850851 17:0.93019 18:0.654897 
1 1:0.852026 2:0.624524 3:-0.417148 4:0.884767 5:0.765067 6:-0.256396 7:0.88151 8:0.823886 9:0.645625 10:0.921098 11:0.845869 12:0.581699 13:0.912341 14:0.888095 15:0.476127 16:0.904874 17:0.861604 18:0.742838 
1 1:0.928488 2:0.749951 3:-0.47575 4:0.926996 5:0.808985 6:-0.310007 7:0.944496 8:0.883748 9:0.669602 10:0.942824 11:0.77312 12:0.499346 13:0.959631 14:0.853571 15:0.360743 16:0.963594 17:0.895897 18:0.812125 
1 1:0.718417 2:0.602997 3:-0.541144 4:0.747243 5:0.797867 6:-0.253594 7:0.728653 8:0.740573 9:0.682057 10:0.941681 11:0.839704 12:0.54902 13:0.893887 14:0.804762 15:0.779841 16:0.88256 17:0.819963 18:0.793471 
1 1:0.468565 2:0.34622 3:-0.522217 4:0.494082 5:0.572436 6:-0.320568 7:0.448903 8:0.410025 9:0.288281 10:0.847913 11:0.792848 12:0.36732 13:0.860438 14:0.710714 15:0.356764 16:0.847328 17:0.815064 18:0.842771 
-1 1:0.259611 2:0.239495 3:-0.346301 4:0.301661 5:0.543983 6:-0.132671 7:0.210461 8:0.22345 9:0.176182 10:0.883362 11:0.701603 12:0.0156863 13:0.854671 14:0.59881 15:0.0994695 16:0.857898 17:0.815064 18:0.702865 
1 1:0.932195 2:0.799755 3:-0.463631 4:0.963408 5:0.834049 6:-0.324566 7:0.948947 8:0.887288 9:0.768487 10:0.889079 11:0.784217 12:0.614379 13:0.922722 14:0.828571 15:0.602122 16:0.876688 17:0.854256 18:0.728181 
1 1:0.415959 2:0.331372 3:-0.571947 4:0.44818 5:0.469521 6:-0.465423 7:0.422192 8:0.465223 9:0.533935 10:0.847913 11:0.734895 12:0.462745 13:0.856978 14:0.690476 15:0.484085 16:0.826189 17:0.76485 18:0.636243 
1 1:0.834925 2:0.762107 3:-0.421942 4:0.861263 5:0.789121 6:-0.380852 7:0.853016 8:0.826836 9:0.837925 10:0.932533 11:0.827374 12:0.673203 13:0.910035 14:0.834524 15:0.908488 16:0.907223 17:0.840784 18:0.764157 
-1 1:-0.0227087 2:0.00164596 3:-0.439341 4:-0.0111808 5:0.0536286 6:-0.457098 7:-0.0244161 8:-0.000550321 9:0.27466 10:0.229274 11:0.267571 12:0.0313725 13:0.205306 14:0.290476 15:0.0291777 16:0.160305 17:0.319045 18:0.243171 
1 1:0.730529 2:0.603405 3:-0.431096 4:0.733383 5:0.67478 6:-0.255782 7:0.727432 8:0.702086 9:0.551992 10:0.91538 11:0.742293 12:0.563399 13:0.915802 14:0.935714 15:0.200265 16:0.877863 17:0.85793 18:0.792139 
-1 1:0.542567 2:0.415434 3:-0.546107 4:0.551476 5:0.539498 6:-0.441435 7:0.552903 8:0.568958 9:0.656931 10:0.908519 11:0.84217 12:0.444444 13:0.886967 14:0.836905 15:0.627321 16:0.900176 17:0.862829 18:0.646902 
-1 1:0.845353 2:0.7719 3:-0.29887 4:0.865285 5:0.835393 6:-0.344269 7:0.83711 8:0.8658 9:0.808292 10:0.927959 11:0.837238 12:0.546405 13:0.899654 14:0.9 15:0.557029 16:0.91192 17:0.862829 18:0.713524 
1 1:0.38766 2:0.592647 3:-0.127078 4:0.384682 5:0.567209 6:-0.270339 7:0.329974 8:0.4685 9:0.719218 10:0.854774 11:0.660912 12:0.27451 13:0.83045 14:0.704762 15:0.458886 16:0.799178 17:0.826087 18:0.713524 
-1 1:0.719214 2:0.463421 3:-0.647219 4:0.730758 5:0.567419 6:-0.558963 7:0.737529 8:0.693402 9:0.557763 10:0.937107 11:0.827374 12:0.517647 13:0.919262 14:0.82619 15:0.668435 16:0.902525 17:0.844458 18:0.758827 
-1 1:0.171048 2:0.209265 3:-0.286599 4:0.189499 5:0.593448 6:-0.0645395 7:0.134394 8:0.197078 9:0.266738 10:0.833047 11:0.689273 12:-0.0313725 13:0.861592 14:0.390476 15:0.108753 16:0.833235 17:0.854256 18:0.436376 
1 1:0.656917 2:0.638857 3:-0.340519 4:0.668472 5:0.666944 6:-0.356644 7:0.634319 8:0.683949 9:0.618849 10:0.908519 11:0.815043 12:0.568627 13:0.948097 14:0.835714 15:0.523873 16:0.889607 17:0.872627 18:0.69487 
1 1:0.380807 2:0.625991 3:-0.128952 4:0.364011 5:0.368829 6:-0.309474 7:0.335784 8:0.377528 9:0.431032 10:0.687822 11:0.35635 12:0.366013 13:0.685121 14:0.642857 15:0.318302 16:0.647681 17:0.724434 18:0.600266 
-1 1:0.863384 2:0.660802 3:-0.419145 4:0.899991 5:0.937937 6:-0.262331 7:0.870891 8:0.848267 9:0.740858 10:0.975986 11:0.926017 12:0.512418 13:0.937716 14:0.805952 15:0.758621 16:0.903699 17:0.778322 18:0.68954 
1 1:0.719039 2:0.635796 3:-0.426736 4:0.737173 5:0.657248 6:-0.268244 7:0.710304 8:0.6583 9:0.505653 10:0.902802 11:0.696671 12:0.563399 13:0.908881 14:0.842857 15:0.413793 16:0.879037 17:0.808941 18:0.870753 
1 1:0.391253 2:0.143513 3:-0.753962 4:0.404839 5:0.289989 6:-0.638567 7:0.405581 8:0.380286 9:0.242417 10:0.870783 11:0.790382 12:0.535948 13:0.848904 14:0.810714 15:0.819629 16:0.813271 17:0.818739 18:0.782811 
-1 1:0.819656 2:0.627061 3:-0.480019 4:0.857962 5:0.850924 6:-0.290183 7:0.830182 8:0.852629 9:0.67838 10:0.924528 11:0.887793 12:0.49281 13:0.920415 14:0.79881 15:0.636605 16:0.923664 17:0.835885 18:0.725516 
-1 1:0.809733 2:0.516661 3:-0.634921 4:0.806931 5:0.662821 6:-0.514278 7:0.821316 8:0.785665 9:0.544131 10:0.930246 11:0.821208 12:0.601307 13:0.958478 14:0.835714 15:0.779841 16:0.924839 17:0.851806 18:0.750833 
-1 1:0.215626 2:0.224838 3:-0.315721 4:0.267967 5:0.519003 6:-0.132406 7:0.189478 8:0.185392 9:0.185527 10:0.857061 11:0.678175 12:0.0143791 13:0.83045 14:0.513095 15:0.0782493 16:0.832061 17:0.775873 18:0.744171 
-1 1:0.724589 2:0.598407 3:-0.506427 4:0.729206 5:0.680116 6:-0.428781 7:0.72744 8:0.736661 9:0.761668 10:0.900515 11:0.806412 12:0.461438 13:0.903114 14:0.82381 15:0.625995 16:0.895479 17:0.801592 18:0.685543 
1 1:0.965661 2:0.734375 3:-0.46469 4:0.970884 5:0.980214 6:-0.336359 7:0.979507 8:0.952059 9:0.749449 10:0.967982 11:0.953144 12:0.407843 13:0.94233 14:0.72381 15:0.774536 16:0.910746 17:0.876301 18:0.788141 
1 1:0.687759 2:0.505528 3:-0.542482 4:0.733599 5:0.706468 6:-0.335703 7:0.712323 8:0.658965 9:0.501403 10:0.900515 11:0.810111 12:0.517647 13:0.925029 14:0.811905 15:0.507958 16:0.883735 17:0.871402 18:0.748168 
-1 1:0.190735 2:0.374533 3:-0.311655 4:0.19977 5:0.298482 6:-0.128829 7:0.161417 8:0.156602 9:0.161833 10:0.83076 11:0.472256 12:0.203922 13:0.853518 14:0.625 15:-0.224138 16:0.8532 17:0.830986 18:0.698867 
1 1:0.781442 2:0.70647 3:-0.406176 4:0.783646 5:0.771265 6:-0.376832 7:0.761025 8:0.782602 9:0.754018 10:0.947399 11:0.859433 12:0.786928 13:0.934256 14:0.838095 15:0.736074 16:0.920141 17:0.862829 18:0.76549 
1 1:0.561636 2:0.613749 3:-0.321418 4:0.578752 5:0.625134 6:-0.325058 7:0.53599 8:0.60074 9:0.632553 10:0.900515 11:0.765721 12:0.448366 13:0.906574 14:0.786905 15:0.640584 16:0.907223 17:0.789345 18:0.64024 
-1 1:0.58324 2:0.546596 3:-0.46668 4:0.651177 5:0.868369 6:-0.0340202 7:0.591115 8:0.635862 9:0.756985 10:0.91195 11:0.818742 12:0.522876 13:0.901961 14:0.736905 15:0.545093 16:0.866119 17:0.823637 18:0.616256 
-1 1:0.817729 2:0.656756 3:-0.48826 4:0.834277 5:0.853212 6:-0.271856 7:0.81228 8:0.759721 9:0.562346 10:0.932533 11:0.871763 12:0.526797 13:0.915802 14:0.788095 15:0.419098 16:0.930711 17:0.942437 18:0.7495 
-1 1:0.370947 2:0.352424 3:-0.384218 4:0.378204 5:0.419265 6:-0.125151 7:0.376148 8:0.346588 9:0.232228 10:0.853631 11:0.709001 12:0.0509804 13:0.869666 14:0.794048 15:-0.151194 16:0.881386 17:0.844458 18:0.648235 
1 1:-0.227166 2:0.0746665 3:0.0900908 4:-0.225726 5:0.110972 6:0.428455 7:-0.293227 8:-0.281344 9:-0.154784 10:0.396226 11:-0.0628853 12:-0.504575 13:0.415225 14:0.00595238 15:-0.664456 16:0.458602 17:0.590937 18:0.365756 
1 1:0.441474 2:0.333317 3:-0.528468 4:0.479155 5:0.562646 6:-0.310874 7:0.432297 8:0.401039 9:0.332753 10:0.851344 11:0.759556 12:0.338562 13:0.867359 14:0.680952 15:0.413793 16:0.839107 17:0.842009 18:0.648235 
1 1:0.621426 2:0.517283 3:-0.388483 4:0.664637 5:0.813015 6:-0.194236 7:0.631112 8:0.627097 9:0.49292 10:0.903945 11:0.871763 12:0.342484 13:0.901961 14:0.635714 15:0.411141 16:0.891955 17:0.838334 18:0.654897 
1 1:0.823756 2:0.679784 3:-0.479546 4:0.842128 5:0.726272 6:-0.35567 7:0.829809 8:0.799682 9:0.645235 10:0.941681 11:0.775586 12:0.54902 13:0.907728 14:0.860714 15:0.452255 16:0.894304 17:0.826087 18:0.82012 
1 1:0.688194 2:0.433429 3:-0.68546 4:0.706632 5:0.536811 6:-0.573956 7:0.714017 8:0.650045 9:0.444015 10:0.949686 11:0.860666 12:0.572549 13:0.928489 14:0.795238 15:0.893899 16:0.921315 17:0.799143 18:0.792139 
1 1:1 2:0.80666 3:-0.437222 4:0.99578 5:0.90271 6:-0.412225 7:0.985848 8:0.964846 9:0.834828 10:0.941681 11:0.942047 12:0.666667 13:0.94925 14:0.813095 15:0.840849 16:0.938931 17:0.903246 18:0.792139 
1 1:0.790217 2:0.60801 3:-0.515113 4:0.839551 5:0.892902 6:-0.260495 7:0.802389 8:0.815945 9:0.763605 10:0.942824 11:0.789149 12:0.789542 13:0.923875 14:0.838095 15:0.863395 16:0.972989 17:0.83466 18:0.777482 
1 1:0.830642 2:0.717777 3:-0.497665 4:0.834665 5:0.687103 6:-0.345133 7:0.824988 8:0.779016 9:0.635349 10:0.919954 11:0.734895 12:0.656209 13:0.921569 14:0.835714 15:0.584881 16:0.895479 17:0.866503 18:0.742838 
-1 1:0.566743 2:0.736915 3:-0.223227 4:0.555963 5:0.550713 6:-0.321414 7:0.530921 8:0.547962 9:0.495859 10:0.878788 11:0.55857 12:0.750327 13:0.897347 14:0.778571 15:0.355438 16:0.862595 17:0.822413 18:0.925383 
-1 1:0.787148 2:0.710424 3:-0.457817 4:0.803159 5:0.715004 6:-0.250782 7:0.795491 8:0.774421 9:0.569085 10:0.882218 11:0.780518 12:0.63268 13:0.94233 14:0.846429 15:0.282493 16:0.894304 17:0.808941 18:0.920053 
-1 1:0.628312 2:0.510671 3:-0.38647 4:0.636835 5:0.648852 6:-0.182527 7:0.651728 8:0.602598 9:0.494351 10:0.931389 11:0.776819 12:0.315033 13:0.889273 14:0.777381 15:0.127321 16:0.889607 17:0.85793 18:0.82545 
1 1:0.70652 2:0.662822 3:-0.415291 4:0.722665 5:0.621108 6:-0.292653 7:0.709038 8:0.659122 9:0.528605 10:0.907376 11:0.745993 12:0.602614 13:0.88812 14:0.796429 15:0.271883 16:0.870816 17:0.895897 18:0.672219 
1 1:0.0483718 2:0.068232 3:-0.554543 4:0.0874101 5:0.186633 6:-0.467891 7:0.0496225 8:0.142526 9:0.358169 10:0.671812 11:0.62762 12:0.341176 13:0.708189 14:0.585714 15:0.335544 16:0.662948 17:0.672994 18:0.612258 
-1 1:0.664037 2:0.49485 3:-0.511803 4:0.683775 5:0.61691 6:-0.410394 7:0.669142 8:0.687786 9:0.703498 10:0.926815 11:0.827374 12:0.513725 13:0.910035 14:0.805952 15:0.456233 16:0.880211 17:0.848132 18:0.76549 
1 1:0.788024 2:0.497187 3:-0.6634 4:0.823301 5:0.615604 6:-0.570491 7:0.805886 8:0.787045 9:0.558053 10:0.925672 11:0.796547 12:0.70719 13:0.991926 14:0.841667 15:0.973475 16:0.906048 17:0.866503 18:0.918721 
-1 1:0.364116 2:0.352983 3:-0.257627 4:0.429518 5:0.719349 6:-0.0336257 7:0.321273 8:0.342098 9:0.258541 10:0.874214 11:0.662145 12:0.069281 13:0.828143 14:0.558333 15:0.0689655 16:0.841456 17:0.840784 18:0.796136 
1 1:0.621027 2:0.453063 3:-0.574166 4:0.642698 5:0.569387 6:-0.479938 7:0.640885 8:0.664757 9:0.617974 10:0.91195 11:0.836005 12:0.654902 13:0.877739 14:0.807143 15:0.683024 16:0.874339 17:0.786895 18:0.649567 
-1 1:0.284951 2:0.321192 3:-0.306244 4:0.304657 5:0.343583 6:-0.0683245 7:0.293249 8:0.272109 9:0.191806 10:0.82733 11:0.607891 12:-0.0627451 13:0.841984 14:0.703571 15:-0.249337 16:0.813271 17:0.78812 18:0.661559 
-1 1:0.703099 2:0.571157 3:-0.451824 4:0.741515 5:0.78189 6:-0.23026 7:0.700652 8:0.692083 9:0.548169 10:0.949686 11:0.864365 12:0.513725 13:0.936563 14:0.825 15:0.47878 16:0.944803 17:0.842009 18:0.841439 
-1 1:0.734968 2:0.662642 3:-0.382703 4:0.748795 5:0.695986 6:-0.268663 7:0.714807 8:0.703683 9:0.608396 10:0.917667 11:0.763255 12:0.547712 13:0.934256 14:0.807143 15:0.34748 16:0.891955 17:0.845683 18:0.708195 
1 1:0.51772 2:0.297304 3:-0.717971 4:0.51465 5:0.362926 6:-0.608396 7:0.54283 8:0.471033 9:0.31992 10:0.879931 11:0.827374 12:0.469281 13:0.861592 14:0.803571 15:0.823607 16:0.832061 17:0.839559 18:0.792139 
-1 1:0.494651 2:0.355579 3:-0.541121 4:0.507823 5:0.441691 6:-0.481291 7:0.5236 8:0.499357 9:0.507329 10:0.875357 11:0.847102 12:0.573856 13:0.882353 14:0.761905 15:0.622016 16:0.828538 17:0.879976 18:0.636243 
1 1:0.852211 2:0.639109 3:-0.511791 4:0.872847 5:0.849994 6:-0.299077 7:0.85282 8:0.827744 9:0.612829 10:0.948542 11:0.850801 12:0.479739 13:0.953864 14:0.741667 15:0.580902 16:0.924839 17:0.83711 18:0.872085 
-1 1:0.776134 2:0.592272 3:-0.333147 4:0.793708 5:0.928247 6:-0.212554 7:0.762037 8:0.775649 9:0.669403 10:0.930246 11:0.863132 12:0.309804 13:0.915802 14:0.683333 15:0.578249 16:0.920141 17:0.872627 18:0.46036 
1 1:0.544248 2:0.427392 3:-0.416984 4:0.542265 5:0.520617 6:-0.207399 7:0.531696 8:0.49589 9:0.357248 10:0.900515 11:0.68434 12:0.252288 13:0.935409 14:0.809524 15:0.0596817 16:0.909571 17:0.829761 18:0.766822 
-1 1:0.802051 2:0.741783 3:-0.351006 4:0.809437 5:0.706124 6:-0.322242 7:0.778427 8:0.784609 9:0.690924 10:0.898228 11:0.750925 12:0.54902 13:0.912341 14:0.861905 15:0.729443 16:0.881386 17:0.90447 18:0.806795 
1 1:0.304218 2:0.191666 3:-0.57774 4:0.314085 5:0.266776 6:-0.527094 7:0.323666 8:0.306491 9:0.321609 10:0.788451 11:0.626387 12:0.422222 13:0.7797 14:0.672619 15:0.698939 16:0.728714 17:0.781996 18:0.572285 
1 1:0.702141 2:0.629255 3:-0.427405 4:0.715206 5:0.634048 6:-0.32189 7:0.710144 8:0.700281 9:0.599393 10:0.881075 11:0.733662 12:0.51634 13:0.890427 14:0.820238 15:0.367374 16:0.883735 17:0.855481 18:0.728181 
-1 1:0.818474 2:0.846916 3:-0.299574 4:0.811409 5:0.697467 6:-0.342387 7:0.799591 8:0.82784 9:0.58712 10:0.937107 11:0.726264 12:0.571242 13:0.957324 14:0.789286 15:0.583554 16:0.880211 17:0.846908 18:0.777482 
-1 1:0.747846 2:0.713629 3:-0.259954 4:0.748738 5:0.763716 6:-0.313853 7:0.694328 8:0.752099 9:0.770203 10:0.916524 11:0.836005 12:0.449673 13:0.927336 14:0.854762 15:0.583554 16:0.888432 17:0.872627 18:0.665556 
1 1:0.771418 2:0.556397 3:-0.526906 4:0.785604 5:0.707473 6:-0.407196 7:0.785632 8:0.781974 9:0.711258 10:0.917667 11:0.855734 12:0.76732 13:0.911188 14:0.847619 15:0.742706 16:0.901351 17:0.848132 18:0.668221 
1 1:0.730133 2:0.555846 3:-0.492798 4:0.772357 5:0.664543 6:-0.299606 7:0.758841 8:0.668371 9:0.528838 10:0.893654 11:0.880395 12:0.533333 13:0.928489 14:0.883333 15:0.279841 16:0.88256 17:0.839559 18:0.740173 
1 1:0.383145 2:0.485559 3:-0.317026 4:0.382451 5:0.427023 6:-0.194543 7:0.367414 8:0.358227 9:0.241043 10:0.747284 11:0.53021 12:0.330719 13:0.784314 14:0.639286 15:0.0238727 16:0.720493 17:0.830986 18:0.721519 
-1 1:0.8831 2:0.824849 3:-0.343558 4:0.895191 5:0.750151 6:-0.341424 7:0.894923 8:0.893905 9:0.691383 10:0.942824 11:0.754624 12:0.789542 13:0.923875 14:0.959524 15:0.538462 16:0.918967 17:0.838334 18:0.757495 
-1 1:0.800276 2:0.745875 3:-0.42985 4:0.82626 5:0.729553 6:-0.240273 7:0.80804 8:0.770573 9:0.617556 10:0.91538 11:0.768187 12:0.546405 13:0.931949 14:0.855952 15:0.432361 16:0.876688 17:0.784446 18:0.790806 
-1 1:0.72013 2:0.572179 3:-0.511518 4:0.747162 5:0.699565 6:-0.390105 7:0.738292 8:0.762009 9:0.782344 10:0.935963 11:0.771887 12:0.560784 13:0.965398 14:0.777381 15:0.639257 16:0.896653 17:0.866503 18:0.642905 
1 1:0.68422 2:0.533825 3:-0.465482 4:0.695166 5:0.605027 6:-0.309229 7:0.676555 8:0.657676 9:0.443987 10:0.883362 11:0.815043 12:0.457516 13:0.908881 14:0.879762 15:0.230769 16:0.881386 17:0.812615 18:0.800133 
-1 1:0.603653 2:0.567469 3:-0.430409 4:0.662078 5:0.861529 6:-0.0684314 7:0.590013 8:0.623391 9:0.69174 10:0.953116 11:0.863132 12:0.564706 13:0.900807 14:0.788095 15:0.639257 16:0.902525 17:0.882425 18:0.701532 
1 1:0.344079 2:0.123195 3:-0.733081 4:0.342328 5:0.223705 6:-0.662538 7:0.356804 8:0.332198 9:0.147747 10:0.881075 11:0.78545 12:0.555556 13:0.876586 14:0.75119 15:0.881963 16:0.899002 17:0.827312 18:0.706862 
1 1:0.534375 2:0.650487 3:-0.0298843 4:0.557864 5:0.662741 6:0.168942 7:0.533067 8:0.481801 9:0.413677 10:0.63522 11:0.480888 12:-0.0183007 13:0.66782 14:0.619048 15:-0.27321 16:0.637111 17:0.650949 18:0.76549 
1 1:0.264311 2:0.0549819 3:-0.776059 4:0.278155 5:0.16908 6:-0.650923 7:0.277574 8:0.244334 9:0.0649309 10:0.852487 11:0.786683 12:0.518954 13:0.836217 14:0.727381 15:0.685676 16:0.773341 17:0.808941 18:0.69487 
-1 1:0.863038 2:0.782827 3:-0.23026 4:0.851372 5:0.832216 6:-0.325613 7:0.82633 8:0.875613 9:0.821887 10:0.939394 11:0.747226 12:0.626144 13:0.935409 14:0.907143 15:0.615385 16:0.900176 17:0.85793 18:0.657562 
-1 1:0.687826 2:0.513643 3:-0.555162 4:0.69829 5:0.639373 6:-0.478322 7:0.688702 8:0.721709 9:0.672371 10:0.95769 11:0.786683 12:0.709804 13:0.931949 14:0.783333 15:0.637931 16:0.891955 17:0.868953 18:0.782811 
-1 1:0.634867 2:0.60036 3:-0.455208 4:0.660943 5:0.617731 6:-0.247489 7:0.645628 8:0.60617 9:0.466681 10:0.940537 11:0.737361 12:0.569935 13:0.886967 14:0.827381 15:0.192308 16:0.844979 17:0.879976 18:0.748168 
-1 1:0.700773 2:0.656196 3:-0.397302 4:0.716414 5:0.645249 6:-0.249033 7:0.70032 8:0.704319 9:0.540472 10:0.879931 11:0.766954 12:0.377778 13:0.897347 14:0.77619 15:0.323607 16:0.875514 17:0.897122 18:0.592272 
-1 1:0.214371 2:0.241404 3:-0.396409 4:0.264702 5:0.544721 6:-0.121051 7:0.180254 8:0.182344 9:0.138178 10:0.588336 11:0.500617 12:0.0248366 13:0.565167 14:0.45 15:0.0503979 16:0.558426 17:0.597061 18:0.596269 
-1 1:0.771959 2:0.604675 3:-0.4285 4:0.800439 5:0.713201 6:-0.179795 7:0.797944 8:0.701021 9:0.659837 10:0.947399 11:0.763255 12:0.418301 13:0.937716 14:0.936905 15:0.20557 16:0.896653 17:0.816289 18:0.850766 
-1 1:0.724761 2:0.782548 3:-0.295922 4:0.750789 5:0.666669 6:-0.351187 7:0.703753 8:0.703314 9:0.686299 10:0.889079 11:0.644883 12:0.756863 13:0.89158 14:0.9 15:0.587533 16:0.860247 17:0.902021 18:0.68954 
-1 1:0.793969 2:0.522458 3:-0.634658 4:0.817547 5:0.645002 6:-0.548895 7:0.817531 8:0.773343 9:0.556349 10:0.942824 11:0.827374 12:0.498039 13:0.926182 14:0.886905 15:0.679045 16:0.883735 17:0.915493 18:0.838774 
1 1:0.778868 2:0.765625 3:-0.364429 4:0.775892 5:0.632485 6:-0.348529 7:0.77177 8:0.720828 9:0.633487 10:0.897084 11:0.598027 12:0.673203 13:0.899654 14:0.828571 15:0.672414 16:0.867293 17:0.830986 18:0.866755 
-1 1:0.409784 2:0.408327 3:-0.48908 4:0.464086 5:0.74927 6:-0.101273 7:0.41055 8:0.438911 9:0.632116 10:0.900515 11:0.771887 12:0.644444 13:0.844291 14:0.711905 15:0.56366 16:0.825015 17:0.808941 18:0.720187 
1 1:0.593226 2:0.347421 3:-0.690137 4:0.606389 5:0.478555 6:-0.5702 7:0.614851 8:0.566574 9:0.381195 10:0.916524 11:0.855734 12:0.579085 13:0.908881 14:0.794048 15:0.757294 16:0.883735 17:0.872627 18:0.805463 
1 1:0.63372 2:0.444329 3:-0.424921 4:0.637717 5:0.790228 6:-0.222754 7:0.638182 8:0.627145 9:0.549645 10:0.906232 11:0.866831 12:0.31634 13:0.869666 14:0.615476 15:0.450928 16:0.862595 17:0.949786 18:0.565623 
-1 1:0.507818 2:0.552806 3:-0.394764 4:0.514961 5:0.558432 6:-0.246358 7:0.486123 8:0.491945 9:0.353879 10:0.876501 11:0.7127 12:0.458824 13:0.868512 14:0.75119 15:0.119363 16:0.821491 17:0.83466 18:0.801466 
-1 1:0.452454 2:0.467879 3:-0.413623 4:0.512689 5:0.859334 6:0.0397052 7:0.435095 8:0.517243 9:0.710429 10:0.870783 11:0.734895 12:0.324183 13:0.88812 14:0.608333 15:0.476127 16:0.857898 17:0.864054 18:0.7495 
-1 1:0.598468 2:0.493176 3:-0.354328 4:0.631028 5:0.808522 6:-0.189278 7:0.617341 8:0.587731 9:0.543329 10:0.903945 11:0.891492 12:0.226144 13:0.931949 14:0.653571 15:0.490716 16:0.904874 17:0.903246 18:0.622918 
1 1:0.372612 2:0.15021 3:-0.726108 4:0.390645 5:0.251716 6:-0.645042 7:0.387957 8:0.357943 9:0.150807 10:0.844483 11:0.871763 12:0.453595 13:0.906574 14:0.74881 15:0.710875 16:0.860247 17:0.875077 18:0.798801 
-1 1:0.286149 2:0.641698 3:0.0504518 4:0.262985 5:0.337195 6:-0.258049 7:0.243078 8:0.297067 9:0.380515 10:0.812464 11:0.346486 12:0.337255 13:0.836217 14:0.610714 15:0.115385 16:0.802701 17:0.778322 18:0.553631 
1 1:0.893388 2:0.755458 3:-0.462615 4:0.886295 5:0.779517 6:-0.314327 7:0.892208 8:0.844932 9:0.653086 10:0.93825 11:0.821208 12:0.670588 13:0.95271 14:0.833333 15:0.46817 16:0.875514 17:0.817514 18:0.764157 
-1 1:0.501353 2:0.287491 3:-0.689271 4:0.532641 5:0.387144 6:-0.608946 7:0.518659 8:0.468955 9:0.273271 10:0.91195 11:0.850801 12:0.528105 13:0.929642 14:0.810714 15:0.785146 16:0.880211 17:0.838334 18:0.828115 
-1 1:0.674042 2:0.435484 3:-0.687264 4:0.693818 5:0.520769 6:-0.551598 7:0.695105 8:0.655377 9:0.447277 10:0.940537 11:0.811344 12:0.569935 13:0.893887 14:0.827381 15:0.623342 16:0.902525 17:0.870178 18:0.877415 
-1 1:0.840654 2:0.719587 3:-0.399981 4:0.856977 5:0.784056 6:-0.254462 7:0.844685 8:0.857594 9:0.662276 10:0.966838 11:0.816276 12:0.679739 13:0.930796 14:0.808333 15:0.431034 16:0.906048 17:0.932639 18:0.750833 
-1 1:0.853899 2:0.852773 3:-0.274378 4:0.814222 5:0.689495 6:-0.299771 7:0.815311 8:0.821537 9:0.655718 10:0.883362 11:0.688039 12:0.728105 13:0.940023 14:0.833333 15:0.52122 16:0.88256 17:0.876301 18:0.788141 
-1 1:0.608189 2:0.408794 3:-0.588937 4:0.639251 5:0.526928 6:-0.459222 7:0.625322 8:0.62592 9:0.545396 10:0.926815 11:0.847102 12:0.64183 13:0.899654 14:0.821429 15:0.616711 16:0.894304 17:0.894672 18:0.56429 
-1 1:0.648236 2:0.648035 3:-0.380198 4:0.656543 5:0.631679 6:-0.150946 7:0.641402 8:0.637349 9:0.485901 10:0.898228 11:0.781751 12:0.296732 13:0.885813 14:0.821429 15:0.124668 16:0.857898 17:0.872627 18:0.70553 
1 1:0.501043 2:0.603123 3:-0.221006 4:0.494848 5:0.612693 6:-0.328459 7:0.455149 8:0.50481 9:0.588478 10:0.898228 11:0.74106 12:0.452288 13:0.866205 14:0.827381 15:0.477454 16:0.880211 17:0.868953 18:0.882745 
1 1:0.431125 2:0.486755 3:-0.379447 4:0.430756 5:0.472192 6:-0.253918 7:0.405684 8:0.399006 9:0.340501 10:0.889079 11:0.648582 12:0.194771 13:0.859285 14:0.707143 15:0.119363 16:0.820317 17:0.81384 18:0.664224 
1 1:0.312392 2:0.456986 3:-0.245835 4:0.315663 5:0.407519 6:-0.116373 7:0.281614 8:0.297203 9:0.180094 10:0.699257 11:0.401973 12:0.210458 13:0.679354 14:0.566667 15:-0.187003 16:0.627716 17:0.706062 18:0.742838 
-1 1:0.525046 2:0.490116 3:-0.460715 4:0.573636 5:0.828036 6:-0.0698613 7:0.518648 8:0.599522 9:0.656227 10:0.897084 11:0.784217 12:0.575163 13:0.89504 14:0.70119 15:0.595491 16:0.899002 17:0.794244 18:0.720187 
1 1:0.039393 2:0.0460609 3:-0.576781 4:0.0549691 5:0.139192 6:-0.463844 7:0.0266757 8:0.121624 9:0.374852 10:0.703831 11:0.654747 12:0.405229 13:0.747405 14:0.644048 15:0.427056 16:0.721668 17:0.757502 18:0.467022 
-1 1:0.466731 2:0.699681 3:-0.051676 4:0.44949 5:0.476422 6:-0.254083 7:0.43498 8:0.49696 9:0.577768 10:0.855918 11:0.484587 12:0.39085 13:0.83737 14:0.667857 15:0.230769 16:0.820317 17:0.815064 18:0.594937 
1 1:0.805979 2:0.621509 3:-0.508876 4:0.84934 5:0.867312 6:-0.228401 7:0.820649 8:0.824718 9:0.803553 10:0.927959 11:0.887793 12:0.673203 13:0.877739 14:0.770238 15:0.79443 16:0.873165 17:0.893448 18:0.709527 
1 1:0.258737 2:0.280889 3:-0.300919 4:0.274978 5:0.368413 6:-0.065726 7:0.253944 8:0.213184 9:0.156516 10:0.766724 11:0.532676 12:-0.0117647 13:0.778547 14:0.684524 15:-0.258621 16:0.792132 17:0.757502 18:0.750833 
1 1:0.836326 2:0.715627 3:-0.357603 4:0.842922 5:0.779136 6:-0.342646 7:0.80907 8:0.825263 9:0.815726 10:0.948542 11:0.817509 12:0.686275 13:0.905421 14:0.813095 15:0.550398 16:0.931885 17:0.86038 18:0.876083 
-1 1:0.493199 2:0.449888 3:-0.311692 4:0.546537 5:0.789344 6:-0.0621885 7:0.480281 8:0.489295 9:0.510432 10:0.898228 11:0.763255 12:0.162092 13:0.89158 14:0.633333 15:0.140584 16:0.875514 17:0.755052 18:0.761492 
1 1:0.717183 2:0.687112 3:-0.354035 4:0.746 5:0.722283 6:-0.342839 7:0.722723 8:0.754256 9:0.756955 10:0.91538 11:0.865598 12:0.579085 13:0.929642 14:0.869048 15:0.700265 16:0.909571 17:0.872627 18:0.722851 
-1 1:0.65767 2:0.534537 3:-0.505235 4:0.683377 5:0.642347 6:-0.45319 7:0.656326 8:0.685762 9:0.708379 10:0.91195 11:0.834772 12:0.486275 13:0.937716 14:0.834524 15:0.602122 16:0.901351 17:0.872627 18:0.718854 
-1 1:0.882885 2:0.59669 3:-0.621781 4:0.908717 5:0.76418 6:-0.511247 7:0.901581 8:0.863983 9:0.563386 10:0.950829 11:0.805179 12:0.662745 13:0.948097 14:0.815476 15:0.915119 16:0.937757 17:0.864054 18:0.944037 
1 1:0.302484 2:0.210999 3:-0.563896 4:0.31513 5:0.373328 6:-0.453606 7:0.301099 8:0.3248 9:0.447996 10:0.813608 11:0.74106 12:0.39085 13:0.805075 14:0.682143 15:0.568966 16:0.79448 17:0.812615 18:0.662891 
-1 1:0.747073 2:0.529461 3:-0.559179 4:0.754898 5:0.658233 6:-0.482741 7:0.768717 8:0.698772 9:0.722388 10:0.891366 11:0.874229 12:0.572549 13:0.89158 14:0.858333 15:0.689655 16:0.841456 17:0.81384 18:0.766822 
1 1:0.7067 2:0.511646 3:-0.552363 4:0.731598 5:0.591218 6:-0.480315 7:0.730462 8:0.722909 9:0.603257 10:0.890223 11:0.827374 12:0.51634 13:0.866205 14:0.827381 15:0.87931 16:0.869642 17:0.81139 18:0.756163 
